/*
 * Copyright (c) 2025 EdgeImpulse Inc.
 *
 * Generated by Edge Impulse and licensed under the applicable Edge Impulse
 * Terms of Service. Community and Professional Terms of Service
 * (https://edgeimpulse.com/legal/terms-of-service) or Enterprise Terms of
 * Service (https://edgeimpulse.com/legal/enterprise-terms-of-service),
 * according to your product plan subscription (the “License”).
 *
 * This software, documentation and other associated files (collectively referred
 * to as the “Software”) is a single SDK variation generated by the Edge Impulse
 * platform and requires an active paid Edge Impulse subscription to use this
 * Software for any purpose.
 *
 * You may NOT use this Software unless you have an active Edge Impulse subscription
 * that meets the eligibility requirements for the applicable License, subject to
 * your full and continued compliance with the terms and conditions of the License,
 * including without limitation any usage restrictions under the applicable License.
 *
 * If you do not have an active Edge Impulse product plan subscription, or if use
 * of this Software exceeds the usage limitations of your Edge Impulse product plan
 * subscription, you are not permitted to use this Software and must immediately
 * delete and erase all copies of this Software within your control or possession.
 * Edge Impulse reserves all rights and remedies available to enforce its rights.
 *
 * Unless required by applicable law or agreed to in writing, the Software is
 * distributed on an "AS IS" BASIS, WITHOUT WARRANTIES OR CONDITIONS OF ANY KIND,
 * either express or implied. See the License for the specific language governing
 * permissions, disclaimers and limitations under the License.
 */
// Generated on: 19.07.2025 16:46:27

#include <stdio.h>
#include <stdlib.h>
#include "edge-impulse-sdk/tensorflow/lite/c/builtin_op_data.h"
#include "edge-impulse-sdk/tensorflow/lite/c/common.h"
#include "edge-impulse-sdk/tensorflow/lite/micro/micro_mutable_op_resolver.h"
#include "edge-impulse-sdk/porting/ei_classifier_porting.h"

#if EI_CLASSIFIER_PRINT_STATE
#if defined(__cplusplus) && EI_C_LINKAGE == 1
extern "C" {
    extern void ei_printf(const char *format, ...);
}
#else
extern void ei_printf(const char *format, ...);
#endif
#endif

#define STRINGIZE(x) #x
#define STRINGIZE_VALUE_OF(x) STRINGIZE(x)

#if defined (__GNUC__)  /* GNU compiler */
#define ALIGN(X) __attribute__((aligned(X)))
#define DEFINE_SECTION(x) __attribute__((section(x)))
#elif defined (_MSC_VER)
#define ALIGN(X) __declspec(align(X))
#elif defined (__TASKING__) /* TASKING Compiler */
#define ALIGN(X) __align(X)
#define DEFINE_SECTION(x) __attribute__((section(x)))
#elif defined (__ARMCC_VERSION) /* Arm Compiler */
#define ALIGN(X) __ALIGNED(x)
#define DEFINE_SECTION(x) __attribute__((section(x)))
#elif defined (__ICCARM__) /* IAR Compiler */
#define ALIGN(x) __attribute__((aligned(x)))
#define DEFINE_SECTION(x) __attribute__((section(x)))
#elif defined (__clang__) /* LLVM/Clang Compiler */
#define ALIGN(X) __ALIGNED(x)
#define DEFINE_SECTION(x) __attribute__((section(x)))
#endif

#if defined(EI_MODEL_SECTION) && (defined(__GNUC__) || defined(__clang__))
#define MODEL_SECTION(X) __attribute__((section(STRINGIZE_VALUE_OF(X))))
#else
#define MODEL_SECTION(X)
#endif

#ifndef EI_MAX_SCRATCH_BUFFER_COUNT
#ifndef CONFIG_IDF_TARGET_ESP32S3
#define EI_MAX_SCRATCH_BUFFER_COUNT 14
#else
#define EI_MAX_SCRATCH_BUFFER_COUNT 28
#endif // CONFIG_IDF_TARGET_ESP32S3
#endif // EI_MAX_SCRATCH_BUFFER_COUNT

#ifndef EI_MAX_OVERFLOW_BUFFER_COUNT
#define EI_MAX_OVERFLOW_BUFFER_COUNT 10
#endif // EI_MAX_OVERFLOW_BUFFER_COUNT

using namespace tflite;
using namespace tflite::ops;
using namespace tflite::ops::micro;

namespace {

#if defined(EI_CLASSIFIER_ALLOCATION_STATIC_HIMAX) || defined(EI_CLASSIFIER_ALLOCATION_STATIC_HIMAX_GNU)
constexpr int kTensorArenaSize = 238608;
#else
constexpr int kTensorArenaSize = 237584;
#endif

#if defined(EI_CLASSIFIER_ALLOCATION_STATIC)
#if defined (EI_TENSOR_ARENA_LOCATION)
uint8_t tensor_arena[kTensorArenaSize] ALIGN(16) DEFINE_SECTION(STRINGIZE_VALUE_OF(EI_TENSOR_ARENA_LOCATION));
#else
uint8_t tensor_arena[kTensorArenaSize] ALIGN(16);
#endif
#elif defined(EI_CLASSIFIER_ALLOCATION_STATIC_HIMAX)
#pragma Bss(".tensor_arena")
uint8_t tensor_arena[kTensorArenaSize] ALIGN(16);
#pragma Bss()
#elif defined(EI_CLASSIFIER_ALLOCATION_STATIC_HIMAX_GNU)
uint8_t tensor_arena[kTensorArenaSize] ALIGN(16) __attribute__((section(".tensor_arena")));
#else
#define EI_CLASSIFIER_ALLOCATION_HEAP 1
uint8_t* tensor_arena = NULL;
#endif

static uint8_t* tensor_boundary;
static uint8_t* current_location;

template <int SZ, class T> struct TfArray {
  int sz; T elem[SZ];
};

enum used_operators_e {
  OP_CONV_2D, OP_DEPTHWISE_CONV_2D, OP_ADD, OP_PAD, OP_SOFTMAX,  OP_LAST
};

struct TensorInfo_t { // subset of TfLiteTensor used for initialization from constant memory
  TfLiteAllocationType allocation_type;
  TfLiteType type;
  void* data;
  TfLiteIntArray* dims;
  size_t bytes;
  TfLiteQuantization quantization;
};

typedef struct {
  TfLiteTensor tensor;
  int16_t index;
} TfLiteTensorWithIndex;

typedef struct {
  TfLiteEvalTensor tensor;
  int16_t index;
} TfLiteEvalTensorWithIndex;

TfLiteContext ctx{};
static const int MAX_TFL_TENSOR_COUNT = 4;
static TfLiteTensorWithIndex tflTensors[MAX_TFL_TENSOR_COUNT];
static const int MAX_TFL_EVAL_COUNT = 4;
static TfLiteEvalTensorWithIndex tflEvalTensors[MAX_TFL_EVAL_COUNT];
TfLiteRegistration registrations[OP_LAST];

namespace g0 {
const TfArray<4, int> tensor_dimension0 = { 4, { 1,96,96,3 } };
const TfArray<1, float> quant0_scale = { 1, { 0.0033217994496226311, } };
const TfArray<1, int> quant0_zero = { 1, { -128 } };
const TfLiteAffineQuantization quant0 = { (TfLiteFloatArray*)&quant0_scale, (TfLiteIntArray*)&quant0_zero, 0 };
const MODEL_SECTION(EI_MODEL_SECTION) ALIGN(16) int32_t tensor_data1[4*2] = { 
  0, 0, 
  0, 1, 
  0, 1, 
  0, 0, 
};
const TfArray<2, int> tensor_dimension1 = { 2, { 4,2 } };
const MODEL_SECTION(EI_MODEL_SECTION) ALIGN(16) int32_t tensor_data2[4] = { 16922, -36655, -38354, -36044, };
const TfArray<1, int> tensor_dimension2 = { 1, { 4 } };
const TfArray<4, float> quant2_scale = { 4, { 0.0003119200118817389, 0.00015588670794386417, 0.00015760316455271095, 0.00017247896175831556, } };
const TfArray<4, int> quant2_zero = { 4, { 0,0,0,0 } };
const TfLiteAffineQuantization quant2 = { (TfLiteFloatArray*)&quant2_scale, (TfLiteIntArray*)&quant2_zero, 0 };
const MODEL_SECTION(EI_MODEL_SECTION) ALIGN(16) int8_t tensor_data3[4*1*1*32] = { 
  /* [0][0][][] */ 14,-16,-13,-43,127,-13,-1,-30,-23,-26,68,21,-32,5,-43,25,-12,-69,-35,-5,26,22,-25,97,-63,-1,-46,22,32,-7,-51,20, 
  /* [1][0][][] */ 40,77,-126,-40,-99,5,40,48,-10,-49,-87,42,88,-73,127,-127,119,-89,-17,-27,8,-44,-47,-32,2,-59,-15,-37,-66,-83,8,-2, 
  /* [2][0][][] */ -85,112,17,80,-73,16,96,37,-53,-71,30,-48,-125,79,-127,22,56,77,75,-33,11,33,-7,-43,-31,-14,85,-117,15,-11,59,70, 
  /* [3][0][][] */ 25,-69,63,22,-49,70,-8,-23,32,-62,-12,101,65,-14,-127,0,89,-111,98,-24,-87,26,20,-39,97,18,-101,20,-86,67,51,44, 
};
const TfArray<4, int> tensor_dimension3 = { 4, { 4,1,1,32 } };
const TfArray<4, float> quant3_scale = { 4, { 0.0071974429301917553, 0.0035970299504697323, 0.003636636771261692, 0.0039798901416361332, } };
const TfLiteAffineQuantization quant3 = { (TfLiteFloatArray*)&quant3_scale, (TfLiteIntArray*)&g0::quant2_zero, 0 };
const MODEL_SECTION(EI_MODEL_SECTION) ALIGN(16) int32_t tensor_data4[32] = { 285, 776, 552, 362, 811, -1452, 330, 348, -1481, -1281, -990, 139, 636, 253, 1266, 284, 464, 12, 231, -1545, -640, -1230, -1481, 97, 174, -1338, 334, -813, -1705, -1171, 30, 183, };
const TfArray<1, int> tensor_dimension4 = { 1, { 32 } };
const TfArray<32, float> quant4_scale = { 32, { 7.0248584961518645e-05, 6.8045395892113447e-05, 7.404055941151455e-05, 7.3074443207588047e-05, 0.00013314155512489378, 6.8997600465081632e-05, 6.0492831835290417e-05, 7.4479023169260472e-05, 7.3104325565509498e-05, 6.5945612732321024e-05, 6.0346119425958022e-05, 7.5302421464584768e-05, 9.1878602688666433e-05, 6.8018729507457465e-05, 6.3996427343226969e-05, 8.1269135989714414e-05, 5.9195153880864382e-05, 7.0593618147540838e-05, 7.0403890276793391e-05, 6.6926251747645438e-05, 0.00010356900020269677, 6.2110135331749916e-05, 6.498319999082014e-05, 0.00012265893747098744, 9.7653173725120723e-05, 6.3300438341684639e-05, 6.2771439843345433e-05, 7.3911527579184622e-05, 6.4805935835465789e-05, 6.5560700022615492e-05, 8.3707789599429816e-05, 8.7165470176842064e-05, } };
const TfArray<32, int> quant4_zero = { 32, { 0,0,0,0,0,0,0,0,0,0,0,0,0,0,0,0,0,0,0,0,0,0,0,0,0,0,0,0,0,0,0,0 } };
const TfLiteAffineQuantization quant4 = { (TfLiteFloatArray*)&quant4_scale, (TfLiteIntArray*)&quant4_zero, 0 };
const MODEL_SECTION(EI_MODEL_SECTION) ALIGN(16) int8_t tensor_data5[32*1*1*48] = { 
  /* [0][0][][] */ -61,-88,83,-46,84,3,-112,-72,-5,-99,-76,16,42,-32,-59,61,-17,-66,-28,-93,-59,-79,-7,86,-100,-33,45,-27,91,-19,-58,-46,25,-30,-73,54,-85,-109,-71,34,76,-89,-127,71,47,-76,60,-34, 
  /* [1][0][][] */ -127,-71,-41,14,-24,92,2,26,19,-126,-52,120,38,-57,33,70,114,-32,70,113,-54,17,5,42,55,31,-46,105,17,-7,14,-25,22,119,13,43,66,-20,-68,-106,-5,-9,-20,-66,-3,34,-94,-107, 
  /* [2][0][][] */ 46,-52,-43,80,12,-27,33,80,-119,80,-53,127,76,-17,55,-67,-18,-11,21,48,-44,8,87,48,-1,79,93,49,-32,34,28,54,-61,7,-71,-50,-51,35,115,40,-46,-53,-11,-28,-43,121,28,-27, 
  /* [3][0][][] */ 36,-75,44,4,-63,56,-127,40,24,13,7,40,58,19,70,18,106,87,-28,36,97,-49,-67,-112,11,-49,-123,98,37,-115,3,5,-48,-18,-55,5,-50,-57,50,54,-26,-65,-64,-49,37,47,-41,-69, 
  /* [4][0][][] */ 39,127,13,35,0,17,25,30,56,63,4,-4,21,13,38,18,-15,10,-27,11,48,-11,53,34,-23,5,110,-39,-29,103,30,-7,54,52,28,-15,-10,48,-70,-19,-25,1,3,-16,29,30,48,56, 
  /* [5][0][][] */ 50,-102,23,30,4,-124,-2,8,55,-127,-23,-83,-12,56,-9,-5,12,14,-89,42,-9,7,-10,-44,-98,-84,-36,-109,8,-6,-10,-110,-64,-29,-82,-18,-126,-52,1,-6,-92,-76,-5,54,-57,-16,0,-74, 
  /* [6][0][][] */ -57,-121,112,87,-98,-41,-21,70,-32,-88,-75,-35,50,-33,117,-94,63,4,26,115,-67,-75,58,-3,-37,-43,-65,-40,-39,-127,-11,-70,-84,-89,-74,-54,10,-36,-93,3,118,49,16,-69,-114,115,-122,-78, 
  /* [7][0][][] */ 6,-37,-25,-28,-51,99,-49,7,37,-27,-46,42,28,-98,32,59,52,4,31,88,23,38,-24,74,-43,78,14,63,-51,58,-74,39,-15,43,60,85,-64,-2,-29,-47,105,-76,54,54,53,-1,20,-127, 
  /* [8][0][][] */ 68,70,-58,-92,15,-19,-66,-51,4,17,-11,42,-22,-27,-95,-77,-78,72,-92,-13,19,-61,39,43,-103,49,5,24,-77,-19,-25,52,54,-65,-7,-45,54,43,3,88,17,55,-97,-127,-49,-25,27,82, 
  /* [9][0][][] */ -18,43,65,10,38,-109,-60,-127,14,12,-32,15,-50,-65,-107,-41,-23,-21,-109,-79,-23,55,-117,-116,64,-28,-26,-8,-38,-64,-52,53,27,-29,-4,-39,-93,-7,-58,-58,12,-84,26,-102,37,-13,-113,16, 
  /* [10][0][][] */ -93,56,60,-73,-39,74,71,1,10,4,-4,-86,65,46,-55,-9,-54,97,-114,-79,-3,3,26,-88,6,19,-127,-78,-69,51,-112,-98,53,66,82,42,-61,1,-7,-2,-57,80,-76,-59,-112,-74,1,-42, 
  /* [11][0][][] */ 76,-61,-33,18,104,-36,16,17,22,68,-48,113,9,-89,-39,-113,-93,-119,62,-35,30,16,14,-69,-69,-105,-25,80,82,-43,-37,-12,-81,-31,30,2,-48,-10,5,-3,8,57,-127,-9,-17,-37,-69,-60, 
  /* [12][0][][] */ 3,-38,-33,-18,72,1,-20,33,-74,34,17,39,-12,3,17,-59,-60,-40,0,-83,28,9,12,72,-32,-33,65,-28,79,-3,-51,89,-57,-14,-13,25,13,-90,15,59,97,14,-127,-12,9,-28,-27,70, 
  /* [13][0][][] */ 18,-127,98,107,32,120,-1,61,-1,-98,-40,-8,27,9,65,-18,-63,-42,-52,56,68,-2,28,-85,-49,56,-64,32,-108,-102,-13,22,2,80,-72,45,-50,-88,23,-30,-69,60,-25,-49,-71,52,-62,-55, 
  /* [14][0][][] */ -67,32,70,42,100,-8,18,-67,-40,-51,114,77,2,-43,-44,-53,-74,-26,60,1,-68,72,26,92,-96,-52,5,55,-72,-67,-44,83,118,29,20,48,96,116,-11,-88,44,-101,47,127,104,-127,39,-117, 
  /* [15][0][][] */ 39,58,-25,80,54,-11,25,-48,46,-2,-54,-15,62,8,-28,-37,90,30,-66,56,47,62,46,74,53,92,106,46,-5,103,77,-70,8,2,-29,49,-41,127,48,-49,0,90,0,-9,19,-36,18,-19, 
  /* [16][0][][] */ -95,-117,90,-68,58,104,-79,46,-17,33,-72,113,-5,-86,-68,-71,98,48,103,46,102,80,-48,65,-10,38,-79,96,-64,-19,-48,28,-127,104,59,61,-17,-31,-23,-28,64,-61,31,80,80,105,68,-28, 
  /* [17][0][][] */ 78,-104,52,102,-52,-23,-73,-68,17,-69,42,45,58,28,-73,100,81,81,77,127,-46,10,-7,-61,39,83,-81,37,65,-77,-38,51,-36,-26,4,32,-25,62,-28,-51,-95,-30,32,-29,-17,62,113,-76, 
  /* [18][0][][] */ -81,-19,86,-49,4,-84,-127,7,-50,54,-88,9,-24,-20,40,-56,31,-19,59,-13,89,-35,10,-55,46,-52,-60,117,44,-32,-88,29,15,-3,-105,-81,-14,-23,0,89,4,-7,-61,-38,-80,33,24,-1, 
  /* [19][0][][] */ 58,66,26,-3,17,-103,63,40,58,-83,-9,-39,-102,21,-80,16,26,-117,55,14,-51,32,-65,-17,31,-95,-4,-84,-102,-127,-10,4,40,-100,-3,-33,-27,-13,-76,-69,4,-125,-89,-19,-101,-9,105,-103, 
  /* [20][0][][] */ -3,123,24,36,-58,47,69,18,55,-4,20,-16,-16,78,52,-25,-43,-26,-49,-25,-1,-37,-48,-47,30,-59,34,7,-3,72,127,53,44,8,-10,13,7,2,-25,-67,-62,-28,-20,36,-28,-50,-46,42, 
  /* [21][0][][] */ 82,43,32,-117,58,-45,40,-16,-27,-80,-97,20,-23,9,-75,-58,-124,-16,-9,-35,88,-75,37,-99,19,-99,-56,50,-17,-24,-45,-52,-20,-14,-113,-127,66,81,-88,-21,-39,-19,1,-42,-117,-69,-59,68, 
  /* [22][0][][] */ 30,-68,-84,-94,42,-25,70,12,-101,41,-84,-119,65,-115,-125,-52,59,50,-127,-71,67,-99,-5,-11,107,-23,-50,56,-80,-88,-74,-116,13,18,-23,-18,-31,-26,-71,-92,-37,-41,-22,51,10,-89,51,-52, 
  /* [23][0][][] */ 74,65,-7,13,48,-67,22,-43,62,-24,63,16,14,-8,37,5,6,-21,-59,30,33,-28,62,17,-10,-20,127,-6,25,119,86,-18,-4,13,31,29,36,49,-55,6,-58,7,43,-17,-25,-69,93,35, 
  /* [24][0][][] */ -38,-92,-58,-49,-33,-104,-85,-50,-16,72,-3,55,71,-19,-80,-127,-48,2,7,-50,71,-84,-37,-18,48,-50,-11,58,78,-29,-66,-36,-16,16,-8,-34,-23,-94,61,25,-25,-59,3,-50,14,7,26,48, 
  /* [25][0][][] */ -53,29,-99,-40,49,-97,-109,13,22,-126,-57,-15,35,-21,-122,-50,-97,49,-3,-125,32,40,-35,-85,-17,-71,-74,-1,37,-80,102,71,55,-127,8,35,52,-13,-50,-32,-111,55,-80,-19,53,4,58,4, 
  /* [26][0][][] */ 5,-121,0,11,-115,27,-57,2,-101,-116,44,65,-114,-77,39,16,127,28,-30,-18,12,91,36,-21,55,76,-5,47,-25,9,-111,6,-39,-37,-109,-54,-36,53,-50,47,-84,84,83,-19,-106,84,-62,47, 
  /* [27][0][][] */ 12,47,-64,-92,-104,-21,-65,-30,21,54,11,-96,-38,31,43,19,31,9,28,-77,-91,-3,-37,-34,-94,19,-24,-55,29,61,20,-25,29,33,-80,-69,-83,-10,-127,50,-86,-4,36,-3,55,0,84,60, 
  /* [28][0][][] */ 75,-18,40,-3,-126,-92,-80,-104,-67,-127,50,30,-96,-72,-37,51,39,63,-103,23,-62,-20,-115,-63,-97,28,-82,-91,-87,-85,0,-54,-125,-28,37,20,-26,-85,-63,25,51,-3,-113,50,-126,-47,-13,10, 
  /* [29][0][][] */ 15,-8,15,-34,-102,-9,-127,-19,53,-54,-99,-65,57,-111,-61,-58,-61,103,3,-102,-48,-54,11,-21,-60,-25,-64,-3,-111,-33,44,-33,12,-22,-90,-73,-31,52,2,84,19,48,-88,40,-27,103,-87,-73, 
  /* [30][0][][] */ 15,-87,-37,25,-61,16,-80,-9,33,-7,-43,5,-66,-31,30,-1,2,11,23,-69,35,-85,-77,0,-58,24,-94,91,3,-103,-116,-5,-69,-58,-127,-77,16,-50,20,51,32,-51,-26,15,49,-17,73,44, 
  /* [31][0][][] */ 42,-126,31,75,33,52,-95,-57,-39,-11,-104,-22,61,-127,-34,72,-20,-50,7,47,52,23,-26,49,49,-46,-38,42,-35,-97,-21,60,3,13,-100,-10,74,-48,-23,-45,32,-40,-22,-39,-7,-14,-27,19, 
};
const TfArray<4, int> tensor_dimension5 = { 4, { 32,1,1,48 } };
const TfArray<32, float> quant5_scale = { 32, { 0.0029855647590011358, 0.002891929354518652, 0.0031467238441109657, 0.0031056636944413185, 0.0056585161946713924, 0.0029323978815227747, 0.0025709453038871288, 0.0031653584446758032, 0.0031069337856024504, 0.0028026886284351349, 0.0025647100992500782, 0.0032003528904169798, 0.0039048404432833195, 0.0028907959349453449, 0.002719848183915019, 0.003453938290476799, 0.0025157940108329058, 0.0030002286657691002, 0.0029921652749180794, 0.0028443657793104649, 0.004401682410389185, 0.0026396806351840496, 0.0027617858722805977, 0.0052130050025880337, 0.0041502597741782665, 0.0026902686804533005, 0.0026677860878407955, 0.0031412399839609861, 0.0027542521711438894, 0.0027863297145813704, 0.0035575809888541698, 0.003704532515257597, } };
const TfLiteAffineQuantization quant5 = { (TfLiteFloatArray*)&quant5_scale, (TfLiteIntArray*)&g0::quant4_zero, 0 };
const MODEL_SECTION(EI_MODEL_SECTION) ALIGN(16) int32_t tensor_data6[48] = { 149, 2397, 1630, 3347, 6545, -918, -1115, 64676, 699, 11382, 251, -1237, 6399, -3778, 5970, -699, -171, -5987, 1205, 2135, 3709, 3220, 6328, 1064, -4275, -3339, 1338, 1679, 1053, 4523, 91, 2183, 4444, 4062, 2652, 1885, 9293, 3863, -27, -1494, 679, 12391, -702, 1472, 6094, 131, 1772, 5706, };
const TfArray<1, int> tensor_dimension6 = { 1, { 48 } };
const TfArray<48, float> quant6_scale = { 48, { 0.00018146811635233462, 0.00023986815358512104, 0.00016517378389835358, 0.00016516767209395766, 0.00013160056550987065, 0.00013447638775687665, 0.00026834916207008064, 1.421046817995375e-05, 0.00024230169947259128, 7.4123665399383754e-05, 0.00024792589829303324, 0.00028695215587504208, 9.309190500061959e-05, 0.00018585621728561819, 0.00012122540647396818, 0.00015996850561350584, 0.00020801019854843616, 2.9004015232203528e-05, 0.00016798824071884155, 0.00024798375670798123, 0.00017369337729178369, 0.00014344157534651458, 9.4587427156511694e-05, 0.00017620107973925769, 0.00014060692046768963, 0.00014493940398097038, 0.00029316134168766439, 0.00031101566855795681, 0.00020626067998819053, 0.00017087277956306934, 0.00019274523947387934, 0.00025362762971781194, 0.00014837755588814616, 0.00018585541693028063, 0.00015642965445294976, 0.00013034352741669863, 7.7862285252194852e-05, 0.00010468840628163889, 0.00026313134003430605, 0.00024061065050773323, 0.00019990754663012922, 6.8213834310881793e-05, 0.00015176578017417341, 0.0001725386391626671, 0.00012674873869400471, 0.00025494015426374972, 0.00016125997353810817, 0.00013252240023575723, } };
const TfArray<48, int> quant6_zero = { 48, { 0,0,0,0,0,0,0,0,0,0,0,0,0,0,0,0,0,0,0,0,0,0,0,0,0,0,0,0,0,0,0,0,0,0,0,0,0,0,0,0,0,0,0,0,0,0,0,0 } };
const TfLiteAffineQuantization quant6 = { (TfLiteFloatArray*)&quant6_scale, (TfLiteIntArray*)&quant6_zero, 0 };
const MODEL_SECTION(EI_MODEL_SECTION) ALIGN(16) int8_t tensor_data7[48*1*1*8] = { 
  /* [0][0][][] */ 58,-50,-80,10,-127,12,-49,-3, 
  /* [1][0][][] */ -127,25,83,-11,-113,-105,-13,10, 
  /* [2][0][][] */ 26,77,-27,13,-30,-127,9,88, 
  /* [3][0][][] */ -44,49,15,127,18,-24,-31,-48, 
  /* [4][0][][] */ 18,-10,32,-127,-7,33,-100,31, 
  /* [5][0][][] */ 79,127,-58,-47,-16,-23,48,-89, 
  /* [6][0][][] */ 46,-50,53,111,-48,-127,8,-98, 
  /* [7][0][][] */ 37,127,-79,-94,-40,-38,26,-114, 
  /* [8][0][][] */ -10,-22,42,8,5,12,-51,-127, 
  /* [9][0][][] */ -73,-22,-127,2,-115,-83,-122,-5, 
  /* [10][0][][] */ 63,-23,92,-18,-127,27,63,61, 
  /* [11][0][][] */ 127,-34,-72,-11,64,0,-57,14, 
  /* [12][0][][] */ -9,-118,127,20,32,27,-69,70, 
  /* [13][0][][] */ 24,-70,91,0,-1,-113,41,-127, 
  /* [14][0][][] */ -81,49,127,8,-2,-81,81,-26, 
  /* [15][0][][] */ 15,127,-71,-56,-54,-48,-20,-50, 
  /* [16][0][][] */ 45,120,-40,88,16,-38,7,127, 
  /* [17][0][][] */ 37,105,-5,126,-56,95,-127,39, 
  /* [18][0][][] */ 68,-9,103,-63,107,-127,25,0, 
  /* [19][0][][] */ 20,4,0,127,52,-63,-9,-57, 
  /* [20][0][][] */ 21,23,-42,27,7,52,-127,27, 
  /* [21][0][][] */ 32,-26,54,3,44,127,73,-36, 
  /* [22][0][][] */ 64,-127,-19,61,-73,83,39,9, 
  /* [23][0][][] */ -19,-91,-6,-127,16,-74,8,-99, 
  /* [24][0][][] */ 7,30,-21,-40,-42,-127,-38,29, 
  /* [25][0][][] */ 55,99,127,29,12,20,-52,-1, 
  /* [26][0][][] */ -81,26,127,-45,-73,-34,78,-20, 
  /* [27][0][][] */ -48,45,-20,-90,40,127,-5,86, 
  /* [28][0][][] */ 2,-94,48,55,47,11,-54,127, 
  /* [29][0][][] */ -99,37,40,-59,-127,-50,93,-19, 
  /* [30][0][][] */ 78,-127,-29,46,-84,-54,43,-45, 
  /* [31][0][][] */ 53,67,32,-54,-88,7,15,127, 
  /* [32][0][][] */ -60,24,105,-25,5,6,-108,-127, 
  /* [33][0][][] */ 52,49,85,-127,34,25,-8,73, 
  /* [34][0][][] */ -4,-127,85,-55,48,105,84,-68, 
  /* [35][0][][] */ 92,-14,112,-27,51,127,65,-18, 
  /* [36][0][][] */ -43,29,-10,54,12,-127,-21,1, 
  /* [37][0][][] */ 44,-9,84,41,-125,127,-31,-35, 
  /* [38][0][][] */ -73,-37,-55,-42,60,21,-127,-22, 
  /* [39][0][][] */ 2,8,25,-92,-36,43,-127,9, 
  /* [40][0][][] */ 74,-18,-68,-127,66,43,38,-1, 
  /* [41][0][][] */ 5,-14,-19,127,-89,17,-58,-47, 
  /* [42][0][][] */ -127,15,30,125,-68,-104,-79,38, 
  /* [43][0][][] */ 108,-88,102,19,-92,19,127,80, 
  /* [44][0][][] */ 29,-28,42,-104,-12,127,75,38, 
  /* [45][0][][] */ -26,43,-36,10,92,-41,-127,-39, 
  /* [46][0][][] */ -94,-106,-18,-29,35,127,-44,-101, 
  /* [47][0][][] */ -127,-91,-57,15,9,99,-39,-47, 
};
const TfArray<4, int> tensor_dimension7 = { 4, { 48,1,1,8 } };
const TfArray<48, float> quant7_scale = { 48, { 0.0024218421895056963, 0.0032012388110160828, 0.0022043806966394186, 0.0022042992059141397, 0.0017563183791935444, 0.0017946986481547356, 0.0035813413560390472, 0.0001896504545584321, 0.0032337165903300047, 0.00098924164194613695, 0.0033087763004004955, 0.0038296140264719725, 0.0012423885054886341, 0.0024804049171507359, 0.0016178532969206572, 0.0021349119488149881, 0.0027760681696236134, 0.00038708257488906384, 0.0022419421002268791, 0.0033095481339842081, 0.0023180816788226366, 0.0019143464742228389, 0.0012623474467545748, 0.0023515492212027311, 0.0018765156855806708, 0.0019343362655490637, 0.0039124805480241776, 0.004150761291384697, 0.002752719447016716, 0.0022804385516792536, 0.0025723446160554886, 0.0033848704770207405, 0.0019802211318165064, 0.0024803942069411278, 0.0020876831840723753, 0.0017395422328263521, 0.0010391365503892303, 0.0013971533626317978, 0.0035117052029818296, 0.0032111480832099915, 0.0026679316069930792, 0.00091037002857774496, 0.0020254398696124554, 0.0023026708513498306, 0.0016915666637942195, 0.0034023872576653957, 0.0021521477028727531, 0.001768621033988893, } };
const TfLiteAffineQuantization quant7 = { (TfLiteFloatArray*)&quant7_scale, (TfLiteIntArray*)&g0::quant6_zero, 0 };
const MODEL_SECTION(EI_MODEL_SECTION) ALIGN(16) int32_t tensor_data8[8] = { -5486, -889, -10080, 9447, 4780, -5961, 8214, -3175, };
const TfArray<1, int> tensor_dimension8 = { 1, { 8 } };
const TfArray<8, float> quant8_scale = { 8, { 8.9671724708750844e-05, 0.00014100111729931086, 5.8265468396712095e-05, 0.0001053673040587455, 0.00017584349552635103, 9.9968296126462519e-05, 0.00015485870244447142, 8.9255358034279197e-05, } };
const TfArray<8, int> quant8_zero = { 8, { 0,0,0,0,0,0,0,0 } };
const TfLiteAffineQuantization quant8 = { (TfLiteFloatArray*)&quant8_scale, (TfLiteIntArray*)&quant8_zero, 0 };
const MODEL_SECTION(EI_MODEL_SECTION) ALIGN(16) int8_t tensor_data9[8*1*1*48] = { 
  /* [0][0][][] */ 3,52,57,10,-3,-28,55,32,-18,24,-2,-25,68,-17,53,-35,-48,-31,-127,5,33,-24,43,65,17,9,20,8,-24,-40,7,23,-61,41,33,4,43,71,-60,-75,7,1,-114,-49,50,34,-31,-41, 
  /* [1][0][][] */ 0,-44,-14,60,-33,-14,25,-11,-13,24,-26,-41,12,-11,18,20,33,32,63,-37,12,18,20,-38,-5,-7,-17,-53,-37,8,-10,1,-29,-20,-127,100,-10,21,-126,-8,21,-16,51,12,104,-17,-47,32, 
  /* [2][0][][] */ 1,6,32,-28,-56,-24,-10,102,-13,60,-57,-16,116,1,45,-16,-42,-45,-6,48,-24,-3,24,24,4,40,10,13,14,-8,69,9,-69,-28,29,54,-5,50,58,-127,44,38,-30,-11,2,10,-32,-36, 
  /* [3][0][][] */ 30,-14,-127,-6,3,-6,46,-6,1,-28,-2,22,-51,-30,26,16,12,40,24,19,-36,5,-68,-13,-46,-54,54,-23,-56,-45,-45,10,56,38,-37,22,-74,4,29,9,14,-14,-30,27,55,-30,22,-23, 
  /* [4][0][][] */ -10,64,24,-13,38,-3,-55,-127,-75,40,-20,65,25,-18,2,59,26,41,-85,26,13,18,-5,-6,43,20,-37,16,-39,18,-2,-40,-1,-41,-122,53,-46,8,21,16,-18,-61,82,21,24,-35,14,26, 
  /* [5][0][][] */ -62,-20,114,0,111,22,24,-7,-127,6,-70,-5,-68,-80,43,66,-14,23,-23,16,44,35,44,1,-8,14,-37,31,1,20,-24,-9,-6,48,54,8,30,85,-25,-7,71,-83,-66,16,-1,33,33,70, 
  /* [6][0][][] */ 83,60,-28,25,-7,-14,-98,-63,22,9,-10,66,-15,-25,-12,13,-23,29,29,-9,119,-24,45,127,10,-38,19,-39,-38,-30,-45,-42,38,-22,24,-21,-10,30,-26,14,-52,-33,-50,-27,-33,-59,24,-29, 
  /* [7][0][][] */ 15,41,41,-104,102,-35,-45,-11,-26,33,52,44,-54,-5,48,7,-34,28,-35,44,-39,-19,-14,59,29,-24,-23,63,14,57,-30,2,65,-2,-35,-27,-53,30,127,0,1,-64,-28,-35,57,35,84,40, 
};
const TfArray<4, int> tensor_dimension9 = { 4, { 8,1,1,48 } };
const TfArray<8, float> quant9_scale = { 8, { 0.0038110481109470129, 0.0059925471432507038, 0.0024762824177742004, 0.0044781104661524296, 0.0074733486399054527, 0.0042486526072025299, 0.0065814945846796036, 0.0037933527491986752, } };
const TfLiteAffineQuantization quant9 = { (TfLiteFloatArray*)&quant9_scale, (TfLiteIntArray*)&g0::quant8_zero, 0 };
const MODEL_SECTION(EI_MODEL_SECTION) ALIGN(16) int32_t tensor_data10[48] = { -1724, -7943, 3772, -191, 891, 211, 5779, 9594, -5815, 15301, 8813, -6405, 6218, -7763, 16469, -505, 3016, 1703, 3097, -1543, -5699, -1057, -19070, -4136, 9726, -345, -1422, 2298, 6587, 7115, 14847, -2305, -5731, -283, -3921, -5944, -457, 12754, -4087, 8488, 2222, -1281, -8795, -4116, -8553, 19586, -25, 9544, };
const TfArray<48, float> quant10_scale = { 48, { 7.1222522819880396e-05, 9.8728400189429522e-05, 0.00012713497562799603, 0.00019335253455210477, 0.00044546739081852138, 0.00027761963428929448, 0.00014619814464822412, 0.00036845167051069438, 0.00012181542115285993, 7.5282812758814543e-05, 0.0001176053483504802, 9.4095979875419289e-05, 0.00015563468332402408, 0.0001608684251550585, 0.00013076550385449082, 0.0001262883743038401, 0.00041883392259478569, 0.00019354131654836237, 0.00016943024820648134, 0.00026288806111551821, 0.00010466280218679458, 9.573084389558062e-05, 6.3547464378643781e-05, 0.00023519039677921683, 0.00010401895269751549, 0.00015706534031778574, 9.1262758360244334e-05, 0.00018310877203475684, 0.00014822745288256556, 0.00010487198596820235, 8.8505003077443689e-05, 0.00011183205060660839, 0.00019723294826690108, 0.00029951601754873991, 0.00017270169337280095, 0.00011582513980101794, 0.00022618533694185317, 6.6437489294912666e-05, 0.00017366775136906654, 0.00011816623737104237, 0.00022469718533102423, 0.0002592825039755553, 0.00012625816452782601, 0.00019356480333954096, 0.00018192293646279722, 5.0153710617450997e-05, 8.5414270870387554e-05, 0.00010922300134552643, } };
const TfLiteAffineQuantization quant10 = { (TfLiteFloatArray*)&quant10_scale, (TfLiteIntArray*)&g0::quant6_zero, 0 };
const MODEL_SECTION(EI_MODEL_SECTION) ALIGN(16) int8_t tensor_data11[1*3*3*48] = { 
  /* [0][0][][] */ 127,107,81,31,-52,-64,46,37,-81,-51,-22,102,76,32,-18,-19,42,-42,46,10,83,14,23,30,-67,-60,75,34,-41,-46,14,48,0,-94,-18,10,-18,22,-27,-121,-4,-79,5,-9,18,-114,115,-127, 56,55,73,-77,-72,55,33,-32,-127,-127,27,127,10,-20,-127,47,-15,54,-7,32,1,45,87,67,70,-76,-45,-127,-127,-33,-127,127,53,-68,-113,127,51,-122,-117,-64,13,127,-66,49,-38,-40,65,12, 91,53,87,-90,-55,-39,46,31,-103,11,-48,111,43,39,17,20,-45,-10,30,26,-40,-39,-27,24,-12,-24,8,-1,-27,-78,-27,25,18,-48,62,6,-39,-90,-21,-97,-1,-13,90,-36,-10,-115,5,-107, 
  /* [0][1][][] */ 91,38,24,28,64,38,21,-127,103,-107,-62,-81,-9,61,-103,125,-127,68,31,46,64,101,65,-51,-39,112,115,29,-4,-16,-114,56,31,66,-68,60,-39,-15,20,-33,-20,-49,54,-88,59,-48,40,2, 22,127,-127,48,95,37,-127,8,104,-46,4,90,-127,127,-28,9,29,-127,-127,0,61,-5,127,-127,-127,47,-55,-17,1,-7,17,3,127,-6,88,-86,127,-127,127,127,127,72,-82,-1,127,50,-113,-19, 58,44,27,-127,127,44,23,-63,89,-8,-127,27,29,44,-67,127,67,-21,7,52,41,-127,60,119,-31,127,-60,-9,36,-8,-57,44,-23,58,127,29,-19,-25,-84,8,-25,-22,127,127,116,-89,11,38, 
  /* [0][2][][] */ 31,35,10,46,-8,-7,42,33,27,-80,29,-40,39,-39,-10,-59,-13,20,92,-86,127,10,-97,-81,-63,-56,127,76,-6,-127,-46,49,-1,8,-1,55,-72,-33,16,17,-20,-69,26,-7,1,-88,76,-123, 9,12,-3,-25,-17,-127,-2,-65,25,-49,18,-82,-12,-31,-36,47,-4,-47,-12,93,77,6,31,3,-7,-60,-70,20,-42,34,-53,13,35,127,-68,10,-48,-127,22,16,-108,80,-13,14,-28,-127,127,-30, 21,-11,53,-85,54,-5,33,60,-16,11,7,70,46,-40,21,-14,-6,-21,51,-127,7,-77,-91,82,-29,-34,-94,55,16,-106,8,16,2,-41,16,55,-46,-102,-52,4,-19,-17,12,8,-5,-67,-16,-76, 
};
const TfArray<4, int> tensor_dimension11 = { 4, { 1,3,3,48 } };
const TfArray<48, float> quant11_scale = { 48, { 0.0037158215418457985, 0.0051508583128452301, 0.0066328863613307476, 0.010087588801980019, 0.023240925744175911, 0.014483971521258354, 0.0076274499297142029, 0.019222861155867577, 0.0063553540967404842, 0.0039276550523936749, 0.0061357063241302967, 0.0049091754481196404, 0.0081197731196880341, 0.0083928275853395462, 0.0068222982808947563, 0.0065887169912457466, 0.021851403638720512, 0.010097437538206577, 0.0088395150378346443, 0.013715396635234356, 0.0054604676552116871, 0.0049944696947932243, 0.0033153984695672989, 0.012270353734493256, 0.005426876712590456, 0.008194413036108017, 0.0047613605856895447, 0.0095531512051820755, 0.0077333226799964905, 0.0054713813588023186, 0.0046174828894436359, 0.0058345017023384571, 0.010290037840604782, 0.015626350417733192, 0.0090101929381489754, 0.0060428292490541935, 0.011800541542470455, 0.0034661765675991774, 0.0090605942532420158, 0.0061649689450860023, 0.011722901836037636, 0.013527286238968372, 0.0065871407277882099, 0.010098663158714771, 0.0094912834465503693, 0.0026166194584220648, 0.0044562332332134247, 0.0056983823888003826, } };
const TfLiteAffineQuantization quant11 = { (TfLiteFloatArray*)&quant11_scale, (TfLiteIntArray*)&g0::quant6_zero, 3 };
const MODEL_SECTION(EI_MODEL_SECTION) ALIGN(16) int32_t tensor_data12[48] = { -1106, -1773, 1548, -886, -11092, 1577, 2300, 14322, 877, 4174, 12296, 3215, 1616, 14240, 13515, -6123, 16549, 2329, 1147, -3429, 455, -42, 1210, 4604, 2984, 3981, 1340, 457, 4236, 200, 1102, -2401, -3169, -5486, -3538, 769, 2211, 1876, 2853, 2737, 2538, 641, 2171, 2698, 8230, 10448, -1487, 1880, };
const TfArray<48, float> quant12_scale = { 48, { 0.00022779406572226435, 0.00023359130136668682, 0.00028530420968309045, 0.00020046150893904269, 6.7469518398866057e-05, 0.00013010021939408034, 0.0002290351694682613, 8.4700390289071947e-05, 0.00018797548545990139, 0.0001496118784416467, 6.3231942476704717e-05, 0.00014641736925113946, 0.00025966239627450705, 5.9848654927918687e-05, 6.5081643697340041e-05, 9.0516055934131145e-05, 6.1030186770949513e-05, 0.00014561280841007829, 0.00028927534003742039, 0.00017949767061509192, 0.00021453353110700846, 0.00038819914334453642, 0.00022176599304657429, 0.00017179801943711936, 0.00011819039355032146, 0.00015501772577408701, 0.00037952722050249577, 0.00026037872885353863, 0.00010278353875037283, 0.00028436980210244656, 0.00018278646166436374, 0.00019973785674665123, 0.00017090530309360474, 7.7412878454197198e-05, 0.00012637581676244736, 0.00022773696400690824, 0.00016295754176098853, 0.00021901259606238455, 0.00016781812882982194, 0.00017266174836549908, 0.00024581761681474745, 0.00019798536959569901, 0.0002276581508340314, 0.00018468890630174428, 9.7718642791733146e-05, 6.5748892666306347e-05, 0.00024572454276494682, 0.00016282632714137435, } };
const TfLiteAffineQuantization quant12 = { (TfLiteFloatArray*)&quant12_scale, (TfLiteIntArray*)&g0::quant6_zero, 0 };
const MODEL_SECTION(EI_MODEL_SECTION) ALIGN(16) int8_t tensor_data13[48*1*1*8] = { 
  /* [0][0][][] */ -56,-66,-30,99,2,-81,-125,-127, 
  /* [1][0][][] */ 127,-13,38,-36,42,-76,17,43, 
  /* [2][0][][] */ -30,53,9,-127,40,83,-102,95, 
  /* [3][0][][] */ -2,127,-22,-70,-87,6,52,-85, 
  /* [4][0][][] */ -9,-126,-100,-91,24,-106,-127,-91, 
  /* [5][0][][] */ 19,-75,81,39,59,127,93,-124, 
  /* [6][0][][] */ -21,4,-73,38,17,15,-127,-29, 
  /* [7][0][][] */ 29,-11,16,22,-47,42,127,51, 
  /* [8][0][][] */ 4,43,-127,35,-50,-59,-74,82, 
  /* [9][0][][] */ 90,-21,-19,-51,-3,127,-33,100, 
  /* [10][0][][] */ 26,80,111,86,127,126,29,-77, 
  /* [11][0][][] */ -33,-31,-13,54,-127,47,-27,-2, 
  /* [12][0][][] */ 18,8,96,-105,67,-60,-127,-62, 
  /* [13][0][][] */ 41,15,-122,-127,-1,-83,-101,83, 
  /* [14][0][][] */ -69,-110,27,-127,21,-124,22,-117, 
  /* [15][0][][] */ 23,41,81,60,57,127,-12,-41, 
  /* [16][0][][] */ -4,-19,-44,-127,21,66,-68,63, 
  /* [17][0][][] */ -83,86,-127,50,20,112,-110,60, 
  /* [18][0][][] */ -127,48,23,-27,-83,16,-38,-14, 
  /* [19][0][][] */ 127,-2,-60,-24,69,-48,75,-96, 
  /* [20][0][][] */ 127,-57,24,-71,-31,-5,110,38, 
  /* [21][0][][] */ 34,-14,-19,63,3,41,127,21, 
  /* [22][0][][] */ 84,34,-91,-119,-4,127,89,95, 
  /* [23][0][][] */ -12,19,-34,-72,32,42,-127,-18, 
  /* [24][0][][] */ 127,-61,-64,-49,100,-49,16,73, 
  /* [25][0][][] */ -45,-96,26,-41,82,127,-30,-98, 
  /* [26][0][][] */ 40,-48,40,64,127,-65,-71,-91, 
  /* [27][0][][] */ -13,-127,33,21,22,-29,-33,82, 
  /* [28][0][][] */ 6,-35,-127,-99,85,-52,-5,55, 
  /* [29][0][][] */ -79,50,127,-57,9,-39,-15,-21, 
  /* [30][0][][] */ 90,-114,38,-38,-71,-127,36,-27, 
  /* [31][0][][] */ 35,20,59,-2,-38,0,-127,1, 
  /* [32][0][][] */ 38,-38,44,127,-48,-84,-62,-113, 
  /* [33][0][][] */ 118,-77,-32,112,-127,112,-44,-42, 
  /* [34][0][][] */ 27,-19,36,5,-60,127,20,-52, 
  /* [35][0][][] */ 16,127,58,-7,28,-7,-38,4, 
  /* [36][0][][] */ 8,104,-110,-127,-78,-24,91,-58, 
  /* [37][0][][] */ 63,-5,6,-11,85,127,95,59, 
  /* [38][0][][] */ -65,-106,127,69,0,19,-73,117, 
  /* [39][0][][] */ 12,63,127,-56,-16,62,-24,29, 
  /* [40][0][][] */ 7,-3,22,-4,-10,-32,127,-22, 
  /* [41][0][][] */ 13,9,-37,-127,-72,-56,-34,65, 
  /* [42][0][][] */ 50,-11,69,-36,-127,-40,-62,19, 
  /* [43][0][][] */ 81,-1,29,6,-53,-123,127,-4, 
  /* [44][0][][] */ -61,-108,-15,-42,-23,20,-17,-127, 
  /* [45][0][][] */ 17,127,111,106,24,115,-95,-6, 
  /* [46][0][][] */ -75,-22,15,34,59,33,-75,127, 
  /* [47][0][][] */ 24,101,-79,-70,36,-28,56,-127, 
};
const TfArray<48, float> quant13_scale = { 48, { 0.0035338615998625755, 0.0036237963940948248, 0.0044260397553443909, 0.0031098404433578253, 0.001046682009473443, 0.0020182973239570856, 0.0035531152971088886, 0.0013139914954081178, 0.0029161397833377123, 0.0023209897335618734, 0.00098094274289906025, 0.0022714319638907909, 0.00402824766933918, 0.00092845642939209938, 0.0010096378391608596, 0.001404212205670774, 0.00094678602181375027, 0.0022589503787457943, 0.0044876453466713428, 0.00278462003916502, 0.0033281454816460609, 0.006022290326654911, 0.0034403456375002861, 0.0026651723310351372, 0.0018335353815928102, 0.0024048527702689171, 0.0058877593837678432, 0.0040393606759607792, 0.001594522618688643, 0.0044115437194705009, 0.0028356404509395361, 0.0030986142810434103, 0.0026513230986893177, 0.0012009373167529702, 0.0019605192355811596, 0.0035329756792634726, 0.0025280262343585491, 0.0033976309932768345, 0.0026034305337816477, 0.0026785715017467737, 0.0038134681526571512, 0.0030714271124452353, 0.0035317530855536461, 0.002865153830498457, 0.0015159489121288061, 0.0010199891403317451, 0.0038120243698358536, 0.002525990828871727, } };
const TfLiteAffineQuantization quant13 = { (TfLiteFloatArray*)&quant13_scale, (TfLiteIntArray*)&g0::quant6_zero, 0 };
const MODEL_SECTION(EI_MODEL_SECTION) ALIGN(16) int32_t tensor_data14[8] = { 18771, 3935, 13528, -4884, -13382, 7302, 1877, 13431, };
const TfArray<8, float> quant14_scale = { 8, { 2.7458578188088723e-05, 6.8513683800119907e-05, 7.3625982622615993e-05, 0.0001374406274408102, 6.9950190663803369e-05, 8.9393623056821525e-05, 7.3561401222832501e-05, 9.0990062744822353e-05, } };
const TfLiteAffineQuantization quant14 = { (TfLiteFloatArray*)&quant14_scale, (TfLiteIntArray*)&g0::quant8_zero, 0 };
const MODEL_SECTION(EI_MODEL_SECTION) ALIGN(16) int8_t tensor_data15[8*1*1*48] = { 
  /* [0][0][][] */ 126,-6,11,1,-34,-86,-58,-23,35,-26,-86,-27,-60,88,-52,30,17,-19,14,2,18,-62,26,-6,47,-7,10,21,3,40,-30,-127,25,-68,-11,-12,16,-44,-15,12,-64,-45,-20,-31,-115,-110,29,-33, 
  /* [1][0][][] */ -79,6,69,-65,43,47,81,29,-56,25,2,113,33,-15,-99,-71,-80,-92,28,-15,12,96,-66,21,19,-66,67,64,48,-21,23,44,36,38,10,34,-54,-17,27,35,4,-12,-103,6,-29,-51,-127,26, 
  /* [2][0][][] */ 80,31,-25,-68,-51,4,1,-95,32,22,-88,-34,-30,52,-68,31,5,53,48,23,48,40,2,-9,-127,25,45,-37,17,38,44,-84,24,-34,33,24,-70,-38,26,85,-105,-117,-35,-25,-38,-57,16,21, 
  /* [3][0][][] */ 17,-8,7,38,-109,-32,-12,78,-62,-87,-18,102,-10,-28,-88,-52,-30,24,27,-81,-61,127,24,-58,8,65,85,-59,23,41,22,22,30,35,31,2,50,69,23,19,26,-42,38,-73,-28,23,4,61, 
  /* [4][0][][] */ -50,33,-89,8,-20,112,5,25,-61,127,25,83,34,-67,11,21,-17,-28,-38,27,-5,37,-59,32,14,23,55,-47,9,-99,118,88,28,44,-21,-29,-93,15,-2,-41,45,33,25,53,53,15,26,27, 
  /* [5][0][][] */ -27,11,45,-11,59,-56,-36,-25,-4,-48,23,-24,53,15,-5,2,16,-3,-18,31,22,74,11,27,32,-10,-42,-2,-54,-21,-127,3,-48,-12,15,-28,-3,-36,-21,-41,-15,3,-30,3,24,27,0,31, 
  /* [6][0][][] */ 13,42,-14,45,-26,27,-59,39,-70,-43,45,6,43,18,41,32,22,-43,9,40,6,56,36,-51,-113,-20,-37,55,-85,23,-76,0,1,-52,-33,-34,127,-1,-47,-20,81,30,27,-59,-75,3,-45,-32, 
  /* [7][0][][] */ -41,17,-53,26,-10,-14,17,-14,-41,-17,53,77,67,29,-78,-95,-84,79,0,-8,68,26,24,-26,-1,127,-54,-123,-76,-42,-111,-7,-40,-17,-90,10,-15,-64,-57,-41,-19,64,52,0,-75,-85,116,-93, 
};
const TfArray<8, float> quant15_scale = { 8, { 0.0011669895611703396, 0.0029118314851075411, 0.0031291041523218155, 0.0058412263169884682, 0.0029728831723332405, 0.0037992289289832115, 0.0031263595446944237, 0.0038670776411890984, } };
const TfLiteAffineQuantization quant15 = { (TfLiteFloatArray*)&quant15_scale, (TfLiteIntArray*)&g0::quant8_zero, 0 };
const MODEL_SECTION(EI_MODEL_SECTION) ALIGN(16) int32_t tensor_data16[48] = { 10239, 1117, 39430, 7531, 33865, -2274, -1915, 1501, -177, -3527, -3141, -1666, 19698, 8889, 3602, -457, 8030, 6233, 204, -3515, 10393, -1797, 4950, -2322, 15598, 12924, 441, 163, -1038, -584, 6256, -966, -3905, -3666, -2919, -1027, 11533, 2282, -877, 1242, 24488, -5704, 5258, -4680, 605, 2620, 7577, -825, };
const TfArray<48, float> quant16_scale = { 48, { 0.00022849510423839092, 0.00016519446216989309, 2.2964128220337443e-05, 0.00015122180047910661, 5.2488940127659589e-05, 0.00029722368344664574, 0.00015320209786295891, 0.00031234580092132092, 0.00032125983852893114, 0.00034092276473529637, 0.00012281944509595633, 0.00027441914426162839, 6.0174723330419511e-05, 0.00010790560918394476, 0.00019739310664590448, 0.00016944036178756505, 9.8651253210846335e-05, 0.00013985861733090132, 0.00075499142985790968, 0.00019366457127034664, 8.9500637841410935e-05, 0.00016704824520274997, 0.00011720443580998108, 0.00013909224071539938, 0.00016827468061819673, 0.00010389858653070405, 0.00054076535161584616, 0.00017771369311958551, 0.00036482204450294375, 0.00034657720243558288, 0.00019449061073828489, 0.00036056435783393681, 0.00021428623585961759, 0.00035961228422820568, 0.00016893117572180927, 0.00017346991808153689, 0.00016523608064744622, 0.000202280527446419, 0.00016763580788392574, 0.00033615011489018798, 5.5155658628791571e-05, 0.0001614152715774253, 0.00021865438611712307, 0.00025882871705107391, 0.00039406266296282411, 0.00024385358847212046, 0.0002060974802589044, 0.00023567450989503413, } };
const TfLiteAffineQuantization quant16 = { (TfLiteFloatArray*)&quant16_scale, (TfLiteIntArray*)&g0::quant6_zero, 0 };
const MODEL_SECTION(EI_MODEL_SECTION) ALIGN(16) int8_t tensor_data17[1*3*3*48] = { 
  /* [0][0][][] */ -121,37,68,-12,-46,9,-106,-21,-14,127,46,-4,-24,51,66,31,-11,16,22,-52,-127,-30,-48,86,-98,-49,-15,-86,43,-126,104,29,-16,42,62,-27,0,-127,-8,127,-89,36,-38,28,1,11,-11,-45, -15,-127,-8,14,20,34,-82,-24,11,5,127,127,-90,-46,-96,-21,-31,-52,105,34,-21,54,-127,52,-36,-32,-4,-127,21,-26,-24,-100,18,9,-20,-127,-41,63,11,49,127,-5,-11,127,-5,-127,14,-44, -99,-15,35,3,-127,12,-88,-26,-7,94,21,-9,-14,28,25,97,-54,1,32,-46,-71,-49,22,43,-44,-8,23,-45,-27,-109,46,-3,16,28,-49,-31,-14,-83,25,54,-91,26,-12,44,-20,5,10,46, 
  /* [0][1][][] */ 38,35,58,-12,-39,25,57,-50,-42,9,37,58,-51,-11,-26,121,-19,-17,44,52,-30,35,-72,49,-67,-107,-21,-85,127,28,55,127,-114,28,127,6,-14,23,-127,-50,59,-25,-22,20,-127,55,-23,-73, 87,-90,-122,-127,92,127,25,127,-127,-106,-23,75,-119,-127,-127,-127,-44,-127,-78,127,71,127,-12,98,-82,57,-109,98,-58,-22,-127,-72,32,127,-107,108,-127,-21,123,-39,-111,127,-127,-60,112,82,-127,-72, 77,-12,119,-2,-66,-24,-7,-49,-33,22,34,-17,-38,-68,-76,115,-127,-57,30,110,-19,22,-2,-127,-16,-84,127,16,-45,100,-57,109,127,-27,-59,18,-38,-13,4,-45,-13,-24,-15,22,-21,16,-6,127, 
  /* [0][2][][] */ -127,44,92,11,-106,23,92,-8,94,14,67,51,-53,75,55,-29,66,55,6,-25,-81,1,62,51,-127,-45,-28,-9,15,48,100,18,14,49,102,30,13,-80,-66,35,-62,19,0,-2,-14,6,-65,-29, -93,-63,127,-20,-88,-22,127,-2,86,-2,107,-35,-8,-108,-73,-43,-66,56,-127,18,-112,45,9,-32,-14,-127,-13,63,1,127,20,-63,8,-15,-8,34,-12,68,63,-42,-45,39,45,-30,22,-12,-33,13, -49,73,106,6,-116,20,44,-20,44,-3,51,48,-127,30,37,-28,-66,62,-1,-9,-60,-32,98,-79,-79,-30,15,35,-16,59,27,-11,23,52,-37,15,22,-85,13,-31,-81,40,33,20,-22,-7,-12,7, 
};
const TfArray<48, float> quant17_scale = { 48, { 0.009711042046546936, 0.0070207645185291767, 0.00097597541753202677, 0.0064269267022609711, 0.002230779966339469, 0.012632006779313087, 0.0065110889263451099, 0.013274695724248886, 0.013653542846441269, 0.014489217661321163, 0.0052198264747858047, 0.011662812903523445, 0.0025574257597327232, 0.0045859883539378643, 0.0083892066031694412, 0.0072012152522802353, 0.0041926782578229904, 0.0059439912438392639, 0.032087136059999466, 0.0082307439297437668, 0.0038037770427763462, 0.0070995502173900604, 0.0049811885692179203, 0.0059114200994372368, 0.0071516735479235649, 0.0044156899675726891, 0.022982526570558548, 0.0075528318993747234, 0.015504936687648296, 0.014729530550539494, 0.0082658510655164719, 0.015323984436690807, 0.0091071650385856628, 0.015283521264791489, 0.00717957504093647, 0.0073724715039134026, 0.0070225335657596588, 0.0085969222709536552, 0.0071245217695832253, 0.01428637932986021, 0.0023441154044121504, 0.0068601490929722786, 0.0092928111553192139, 0.011000220663845539, 0.016747662797570229, 0.010363777168095112, 0.0087591428309679031, 0.010016166605055332, } };
const TfLiteAffineQuantization quant17 = { (TfLiteFloatArray*)&quant17_scale, (TfLiteIntArray*)&g0::quant6_zero, 3 };
const MODEL_SECTION(EI_MODEL_SECTION) ALIGN(16) int32_t tensor_data18[48] = { 30845, -514, 2964, 1071, 5381, 680, 4164, -287, 13740, 14065, -365, -1816, 3512, 1039, 272, 1821, 4026, 2680, -3981, -161, 4337, 4997, 3447, 586, 7733, 3694, 14665, -854, 3654, -1860, 10757, 5791, 11472, 1981, 1100, 4564, 2828, 2502, 2134, 580, 300, 7950, 3653, 5290, 5798, 3405, 1137, 3907, };
const TfArray<48, float> quant18_scale = { 48, { 3.8970614696154371e-05, 0.00016411776596214622, 0.00021336035570129752, 0.0002029336174018681, 0.00014675383863504976, 0.00015785000869072974, 0.00012475202674977481, 0.0003946322831325233, 7.3879149567801505e-05, 5.9630721807479858e-05, 0.00016551109729334712, 0.00013195566134527326, 0.00015683905803598464, 0.00024047821352723986, 0.00011797790648415685, 0.00029017715132795274, 0.0001125328490161337, 0.00027168734231963754, 0.00013993865286465734, 0.00021444978483486921, 0.00014771662245038897, 8.1971738836728036e-05, 0.00017636126722209156, 0.00028964722878299654, 0.00011214300320716575, 0.00021731629385612905, 5.9290909121045843e-05, 0.00034858338767662644, 0.00021682823717128485, 0.00013001497427467257, 8.380260260310024e-05, 0.00012069642980350181, 8.3193415775895119e-05, 0.00011721823830157518, 0.00016162118117790669, 0.00013967251288704574, 0.0001958601496880874, 0.00013951485743746161, 0.00026888676802627742, 0.00024897223920561373, 0.0002068675821647048, 8.1211175711359829e-05, 0.00021238456247374415, 0.00011632192035904154, 0.00014210144581738859, 0.00010583408584352583, 0.00017595427925698459, 0.00014449778245761991, } };
const TfLiteAffineQuantization quant18 = { (TfLiteFloatArray*)&quant18_scale, (TfLiteIntArray*)&g0::quant6_zero, 0 };
const MODEL_SECTION(EI_MODEL_SECTION) ALIGN(16) int8_t tensor_data19[48*1*1*8] = { 
  /* [0][0][][] */ 32,-55,12,-17,64,-127,14,-33, 
  /* [1][0][][] */ -28,-127,-107,22,-127,52,-28,22, 
  /* [2][0][][] */ 64,-31,54,8,127,-26,2,55, 
  /* [3][0][][] */ 3,127,-37,110,11,10,-32,-44, 
  /* [4][0][][] */ -42,127,51,-14,22,-2,-58,-7, 
  /* [5][0][][] */ -92,48,17,26,127,-36,74,-43, 
  /* [6][0][][] */ 103,-59,70,-6,37,127,82,-42, 
  /* [7][0][][] */ -28,-52,53,37,81,19,-36,127, 
  /* [8][0][][] */ 10,-60,-18,-127,-38,70,-44,-33, 
  /* [9][0][][] */ -113,46,-98,-16,127,-23,-29,53, 
  /* [10][0][][] */ -7,-67,56,53,-25,-101,-127,-94, 
  /* [11][0][][] */ 54,127,-23,5,-30,-96,24,111, 
  /* [12][0][][] */ 35,-54,-119,23,-52,127,62,114, 
  /* [13][0][][] */ -57,-54,-127,26,-122,83,5,27, 
  /* [14][0][][] */ -82,124,-127,93,91,47,-6,83, 
  /* [15][0][][] */ -122,12,-30,-35,127,91,-38,-110, 
  /* [16][0][][] */ 83,-127,-78,-8,-84,91,-74,-57, 
  /* [17][0][][] */ -18,116,-118,-91,-92,37,84,-127, 
  /* [18][0][][] */ -69,-127,35,15,108,-113,-68,45, 
  /* [19][0][][] */ -74,79,-22,53,-2,-113,-127,50, 
  /* [20][0][][] */ 65,-44,17,-72,-13,-56,23,127, 
  /* [21][0][][] */ 104,-50,122,73,-13,127,91,-22, 
  /* [22][0][][] */ -10,98,15,15,127,-55,-113,-73, 
  /* [23][0][][] */ 11,-49,16,127,18,-37,82,-29, 
  /* [24][0][][] */ -26,56,127,-59,-37,-21,19,-37, 
  /* [25][0][][] */ -49,-111,79,45,43,-7,-14,127, 
  /* [26][0][][] */ 62,-44,-127,-116,-118,50,52,109, 
  /* [27][0][][] */ 37,127,-79,-11,-18,-3,28,-82, 
  /* [28][0][][] */ 9,55,-33,-74,-7,-28,-127,-48, 
  /* [29][0][][] */ -45,45,-84,-54,127,107,-39,6, 
  /* [30][0][][] */ 100,1,37,18,-127,103,104,27, 
  /* [31][0][][] */ -26,88,-26,53,127,-24,14,-2, 
  /* [32][0][][] */ -5,64,24,-67,127,-62,8,-60, 
  /* [33][0][][] */ -106,58,-127,-5,58,24,-30,11, 
  /* [34][0][][] */ 52,-23,16,-96,-29,-127,39,106, 
  /* [35][0][][] */ -127,53,87,10,-110,14,15,-36, 
  /* [36][0][][] */ 10,-30,-47,36,-2,13,127,38, 
  /* [37][0][][] */ -16,3,-87,-80,-3,-127,-93,17, 
  /* [38][0][][] */ -127,-2,19,14,-123,36,88,22, 
  /* [39][0][][] */ -29,-55,8,-47,0,10,-127,-41, 
  /* [40][0][][] */ 69,-127,-2,44,-24,-46,122,75, 
  /* [41][0][][] */ 24,127,100,35,26,33,-123,-39, 
  /* [42][0][][] */ 35,127,-36,-24,-26,22,-11,-44, 
  /* [43][0][][] */ -51,127,-32,-69,33,35,-83,123, 
  /* [44][0][][] */ -28,17,-4,16,17,127,-22,-26, 
  /* [45][0][][] */ 36,61,-90,-62,-44,-88,-9,127, 
  /* [46][0][][] */ 5,99,-127,-51,-38,16,7,-78, 
  /* [47][0][][] */ 68,-42,-24,-106,-67,-127,9,48, 
};
const TfArray<48, float> quant19_scale = { 48, { 0.00067054503597319126, 0.0028238804079592228, 0.003671169513836503, 0.0034917625598609447, 0.0025251093320548534, 0.0027160346508026123, 0.0021465367171913385, 0.0067902114242315292, 0.0012711961753666401, 0.0010260316776111722, 0.0028478547465056181, 0.002270485507324338, 0.0026986398734152317, 0.004137770738452673, 0.0020299782045185566, 0.0049929120577871799, 0.0019362883176654577, 0.004674768541008234, 0.002407844178378582, 0.0036899147089570761, 0.0025416752323508263, 0.0014104407746344805, 0.0030345472041517496, 0.0049837939441204071, 0.0019295804668217897, 0.0037392370868474245, 0.0010201847180724144, 0.0059978747740387917, 0.0037308393511921167, 0.0022370931692421436, 0.0014419433427974582, 0.0020767543464899063, 0.0014314614236354828, 0.0020169070921838284, 0.0027809231542050838, 0.0024032648652791977, 0.0033700533676892519, 0.0024005521554499865, 0.0046265805140137672, 0.0042839227244257927, 0.0035594520159065723, 0.0013973541790619493, 0.0036543793976306915, 0.0020014846231788397, 0.0024450581986457109, 0.0018210264388471842, 0.0030275445897132158, 0.002486290642991662, } };
const TfLiteAffineQuantization quant19 = { (TfLiteFloatArray*)&quant19_scale, (TfLiteIntArray*)&g0::quant6_zero, 0 };
const MODEL_SECTION(EI_MODEL_SECTION) ALIGN(16) int32_t tensor_data20[8] = { 7477, -4501, -456, -2239, 1724, -16476, -425, -8663, };
const TfArray<8, float> quant20_scale = { 8, { 0.00022338706185109913, 0.00012895399413537234, 0.00023317252635024488, 0.0001193896823679097, 0.0001500313519500196, 0.00010292686056345701, 0.0001301744778174907, 9.9914337624795735e-05, } };
const TfLiteAffineQuantization quant20 = { (TfLiteFloatArray*)&quant20_scale, (TfLiteIntArray*)&g0::quant8_zero, 0 };
const MODEL_SECTION(EI_MODEL_SECTION) ALIGN(16) int8_t tensor_data21[8*1*1*48] = { 
  /* [0][0][][] */ -21,13,6,42,-17,2,2,33,-44,-12,-50,-2,-8,11,35,-3,-53,-27,22,-29,-22,127,-16,-24,-21,-39,10,27,-40,44,16,-26,0,24,39,39,16,6,35,-34,7,-26,-24,-21,-22,16,27,8, 
  /* [1][0][][] */ 15,67,-2,43,43,52,59,122,-61,-47,96,-27,-34,-19,34,-16,-34,0,58,19,23,-127,-15,-62,13,8,-21,8,-5,16,-48,-57,-59,7,26,-27,26,61,83,-24,26,19,49,-23,-48,55,-9,66, 
  /* [2][0][][] */ 9,24,4,28,25,23,-28,48,20,7,63,8,7,-19,31,-53,18,16,-2,1,-18,127,16,-18,18,-52,-9,-1,-36,32,-9,-60,-12,5,28,-48,26,-17,-37,-37,27,-5,-11,-45,-36,27,9,22, 
  /* [3][0][][] */ -29,61,-10,1,-9,40,75,1,-12,15,22,17,-8,48,45,33,-16,11,19,10,39,-62,7,34,-8,0,-127,33,-30,-22,-16,6,-39,-8,20,26,39,-23,-23,-29,5,-27,25,32,14,5,30,16, 
  /* [4][0][][] */ 33,-2,-35,8,23,-9,21,-10,-58,-6,5,25,15,-13,-17,10,-33,21,-12,-18,-2,-127,-3,-1,29,25,39,-54,34,-4,6,15,-8,63,31,-16,-26,19,-3,6,-11,-48,-85,17,27,36,-2,-3, 
  /* [5][0][][] */ -20,40,67,1,-1,17,12,-61,45,-37,12,6,81,-56,9,38,4,-26,27,-1,-12,127,2,25,87,21,66,29,72,44,-7,-17,-77,-30,85,21,-19,-23,-13,-74,-1,-32,63,50,-26,-14,0,-31, 
  /* [6][0][][] */ 75,-3,-18,9,41,-17,56,-26,39,27,-4,-38,-19,42,20,-74,15,-127,-11,-16,35,-18,18,24,-36,-35,23,-15,41,-33,122,34,39,41,30,-70,-46,5,81,-49,-14,25,-63,64,24,3,36,-33, 
  /* [7][0][][] */ -26,43,38,53,-6,8,63,105,48,27,-3,78,-70,6,40,-19,89,-16,-37,-20,9,-127,21,-100,-70,80,46,4,8,13,10,-1,14,-8,0,30,-9,115,-80,-10,-13,0,18,-12,-39,2,41,18, 
};
const TfArray<8, float> quant21_scale = { 8, { 0.0094939498230814934, 0.0054805446416139603, 0.0099098319187760353, 0.0050740614533424377, 0.0063763321377336979, 0.0043743913993239403, 0.0055324151180684566, 0.0042463592253625393, } };
const TfLiteAffineQuantization quant21 = { (TfLiteFloatArray*)&quant21_scale, (TfLiteIntArray*)&g0::quant8_zero, 0 };
const MODEL_SECTION(EI_MODEL_SECTION) ALIGN(16) int32_t tensor_data22[48] = { 28165, 25113, 4985, 12069, 3477, 9297, 26862, 15947, 57759, -1830, -1302, 24722, 12452, 128, 7678, 892, 4588, 38575, 29616, -1353, 18975, -12345, -2580, 279, 67808, 36943, -2308, 4450, 4091, 16006, -893, 9962, -21302, 13188, 36514, 29557, 24832, 27344, -392, 1535, 5116, 54068, 1804, 3089, 960, -396, 15316, 10615, };
const TfArray<48, float> quant22_scale = { 48, { 3.8720358134014532e-05, 9.1784830146934837e-05, 8.9099936303682625e-05, 9.5433308160863817e-05, 0.00010732536611612886, 0.00011897485092049465, 0.00010732613009167835, 0.00012100712774554268, 3.501659375615418e-05, 8.2270264101680368e-05, 9.1138477728236467e-05, 4.4148888264317065e-05, 0.00010416026634629816, 4.2394174670334905e-05, 5.9641744883265346e-05, 9.747352305566892e-05, 3.3651616831775755e-05, 4.5700293412664905e-05, 3.5690922231879085e-05, 0.00020522481645457447, 2.5138735509244725e-05, 0.00023914786288514733, 0.00012778355448972434, 9.9858698376920074e-05, 2.2470461772172712e-05, 6.4962354372255504e-05, 5.4999363783281296e-05, 5.5904703913256526e-05, 3.6563909816322848e-05, 5.6554756156401709e-05, 8.0951947893481702e-05, 6.6974134824704379e-05, 5.1410566811682656e-05, 7.5325799116399139e-05, 8.9889857918024063e-05, 0.00011870528396684676, 0.00010473753354744986, 9.9642289569601417e-05, 0.00013301803846843541, 0.00014071087935008109, 8.7376007286366075e-05, 2.2007716324878857e-05, 8.182891906471923e-05, 7.3239156336057931e-05, 0.0004459759802557528, 0.00012555581633932889, 5.7257511798525229e-05, 9.5427225460298359e-05, } };
const TfLiteAffineQuantization quant22 = { (TfLiteFloatArray*)&quant22_scale, (TfLiteIntArray*)&g0::quant6_zero, 0 };
const MODEL_SECTION(EI_MODEL_SECTION) ALIGN(16) int8_t tensor_data23[1*3*3*48] = { 
  /* [0][0][][] */ -53,-53,0,39,11,45,-79,-94,-62,11,-2,-127,-38,10,-115,32,48,-37,-86,72,1,80,-104,58,-117,-80,95,107,14,-77,68,33,43,-14,-98,-44,-58,-115,127,29,27,-38,5,53,-127,85,-34,-6, -103,-87,-127,-118,-57,1,-102,-127,-99,86,59,-85,-110,23,-113,45,79,-42,-69,-56,54,33,80,127,-127,-43,99,118,12,-96,96,127,61,-73,-72,-51,-95,-127,94,60,-116,-46,77,82,-39,100,-82,-54, -57,-41,-67,-116,-63,10,-117,-101,-93,14,33,-74,-1,127,-95,45,59,-38,-4,-68,49,-127,-55,71,-71,-63,79,-4,59,-67,117,41,127,-127,-99,-61,-86,-66,4,72,-56,6,33,59,50,12,7,-3, 
  /* [0][1][][] */ -84,-127,-24,-3,-127,-13,-88,-92,-91,74,67,-88,-57,31,-86,59,113,-69,-118,127,110,113,-62,54,-66,-97,127,27,86,-91,34,54,115,-50,-127,-107,-43,-117,66,94,-105,-68,27,25,39,127,-59,-39, -127,-93,-105,-49,-56,-68,-91,-126,-110,127,127,-94,-127,126,-96,127,127,-127,-127,-66,64,59,127,125,-104,-127,112,127,127,-120,127,127,97,-67,-111,-127,-127,-125,42,127,-88,-127,127,127,-68,119,-127,-82, -88,-55,-118,-127,-64,-102,-127,-90,-127,69,40,-78,-46,79,-54,73,69,-74,-99,-94,73,-112,-55,65,-32,-88,84,-43,79,-127,116,63,115,-45,-98,-76,-109,-104,6,103,-127,-17,31,73,20,-42,-13,-51, 
  /* [0][2][][] */ -34,-15,20,39,-42,-75,-119,-16,-10,16,59,-81,11,34,-122,3,98,-89,-66,110,75,62,2,-7,-2,-44,30,61,91,13,14,51,109,-59,-86,-25,-32,-53,-5,60,21,-31,54,-24,1,48,-15,-102, -27,-28,-26,-19,-105,-93,-78,-78,-79,30,51,-35,-17,54,-127,52,107,-111,-127,-9,43,37,103,0,8,-54,25,68,49,-89,108,59,47,-110,-121,-37,-19,-16,-2,108,-74,-57,96,-10,24,-2,-68,-93, -55,-9,-7,-34,-37,-127,-115,-55,-111,24,21,-62,-2,42,-10,29,71,-71,-118,-35,127,-86,30,-4,7,-77,55,9,64,-49,85,-9,93,-58,-61,-54,-37,-55,-5,56,-98,-5,36,3,-21,-32,-16,-127, 
};
const TfArray<48, float> quant23_scale = { 48, { 0.0016456152079626918, 0.0039008550811558962, 0.0037867471110075712, 0.0040559154003858566, 0.004561327863484621, 0.0050564310513436794, 0.0045613604597747326, 0.0051428028382360935, 0.0014882052782922983, 0.0034964862279593945, 0.0038733852561563253, 0.0018763277912512422, 0.0044268113560974598, 0.0018017523689195514, 0.0025347741320729256, 0.0041426247917115688, 0.0014301936607807875, 0.0019422624027356505, 0.0015168641693890095, 0.0087220547720789909, 0.0010683962609618902, 0.010163784027099609, 0.0054308008402585983, 0.0042439945973455906, 0.00095499464077875018, 0.0027608999516814947, 0.0023374729789793491, 0.0023759498726576567, 0.0015539661981165409, 0.0024035770911723375, 0.0034404578618705273, 0.0028464007191359997, 0.002184949116781354, 0.0032013463787734509, 0.0038203189615160227, 0.0050449743866920471, 0.0044513451866805553, 0.0042347973212599754, 0.005653266329318285, 0.0059802122414112091, 0.0037134801968932152, 0.00093532796017825603, 0.0034777289256453514, 0.0031126639805734158, 0.018953979015350342, 0.0053361221216619015, 0.0024334441404789686, 0.0040556569583714008, } };
const TfLiteAffineQuantization quant23 = { (TfLiteFloatArray*)&quant23_scale, (TfLiteIntArray*)&g0::quant6_zero, 3 };
const MODEL_SECTION(EI_MODEL_SECTION) ALIGN(16) int32_t tensor_data24[48] = { 648, 7355, 847, -235, -1049, 1106, 7216, 3179, 3134, -2710, 1411, 54, 4424, 290, 1352, -1408, -224, 3179, 1029, 1632, -742, 18945, 2120, -1440, 529, 4471, 1458, -2010, -231, 242, -1598, -919, 4352, 1096, 6555, 16847, 9415, 5930, -1759, -3855, -1018, 1908, 1103, 282, -2384, -2861, 2040, 1312, };
const TfArray<48, float> quant24_scale = { 48, { 0.00028238166123628616, 0.00011279236059635878, 0.00042292923899367452, 0.00036325564724393189, 0.00026514311321079731, 0.00016963928646873683, 0.0001289680803893134, 0.00022588318097405136, 0.0002061636041617021, 0.00021469841885846108, 0.00031057119485922158, 0.00043451963574625552, 0.00014408814604394138, 0.00040935471770353615, 0.00028927469975315034, 0.00024037544790189713, 0.00048770534340292215, 0.00016865997167769819, 0.00029798567993566394, 0.00022538841585628688, 0.00028009345987811685, 8.1365506048314273e-05, 0.00021961722814012319, 0.00015826689195819199, 0.00036097568226978183, 0.00019406047067604959, 0.00037620041985064745, 0.00022305794118437916, 0.00053576997015625238, 0.00037918641464784741, 0.00027354236226528883, 0.00033564577461220324, 0.00018205729429610074, 0.00037607408012263477, 0.00014660517626907676, 6.4321349782403558e-05, 0.00010969104914693162, 0.00014422775711864233, 0.00024808262242004275, 0.00015919232100713998, 0.00029645775794051588, 0.00030564423650503159, 0.00025983861996792257, 0.00032992253545671701, 0.00022583745885640383, 0.00018252000154461712, 0.00025684869615361094, 0.000215423948247917, } };
const TfLiteAffineQuantization quant24 = { (TfLiteFloatArray*)&quant24_scale, (TfLiteIntArray*)&g0::quant6_zero, 0 };
const MODEL_SECTION(EI_MODEL_SECTION) ALIGN(16) int8_t tensor_data25[48*1*1*8] = { 
  /* [0][0][][] */ -35,65,-76,70,47,127,47,25, 
  /* [1][0][][] */ 70,-127,-98,-14,-50,83,102,-56, 
  /* [2][0][][] */ -36,28,-32,-127,-48,-83,-46,-55, 
  /* [3][0][][] */ -24,127,65,32,4,-77,-11,25, 
  /* [4][0][][] */ -112,56,-127,104,9,-17,-16,-80, 
  /* [5][0][][] */ 88,-127,-112,3,-14,-39,69,-63, 
  /* [6][0][][] */ -12,-58,-43,29,-127,-31,-25,86, 
  /* [7][0][][] */ -31,-47,-17,-41,44,3,-28,127, 
  /* [8][0][][] */ 25,22,-57,-76,31,-30,-127,-85, 
  /* [9][0][][] */ -127,45,-7,64,-20,45,82,33, 
  /* [10][0][][] */ -19,0,98,-127,-26,81,20,48, 
  /* [11][0][][] */ 115,-17,94,37,-25,55,76,127, 
  /* [12][0][][] */ 85,51,4,-29,78,127,103,-108, 
  /* [13][0][][] */ 39,31,-29,61,-30,-127,-34,42, 
  /* [14][0][][] */ -5,-127,-36,-10,-21,76,51,-24, 
  /* [15][0][][] */ -127,-40,0,-75,9,114,-101,-29, 
  /* [16][0][][] */ -5,-36,85,19,-14,6,127,71, 
  /* [17][0][][] */ 95,59,90,24,-12,-119,-64,-127, 
  /* [18][0][][] */ -127,29,-79,9,-24,-124,12,-115, 
  /* [19][0][][] */ 96,57,109,-66,-35,35,47,127, 
  /* [20][0][][] */ 46,127,82,-27,47,33,30,1, 
  /* [21][0][][] */ -8,60,77,-127,-28,108,-11,-46, 
  /* [22][0][][] */ 8,5,70,20,-58,-12,127,68, 
  /* [23][0][][] */ -88,123,69,41,-117,-87,-127,124, 
  /* [24][0][][] */ -18,-14,62,58,-112,127,-3,-67, 
  /* [25][0][][] */ -56,4,79,35,-127,19,-55,8, 
  /* [26][0][][] */ -31,-127,32,-34,0,33,4,-28, 
  /* [27][0][][] */ -59,91,26,39,-14,127,-55,5, 
  /* [28][0][][] */ 25,-98,39,20,59,127,43,23, 
  /* [29][0][][] */ 20,127,-34,16,-91,-75,-31,22, 
  /* [30][0][][] */ -38,61,110,89,-126,-88,-70,-127, 
  /* [31][0][][] */ 10,84,10,72,-53,4,22,-127, 
  /* [32][0][][] */ -3,-49,-64,78,-127,-46,-44,-16, 
  /* [33][0][][] */ 64,15,40,57,-32,70,66,127, 
  /* [34][0][][] */ 99,23,-127,-23,-61,10,71,54, 
  /* [35][0][][] */ 127,119,126,-104,-71,-89,21,116, 
  /* [36][0][][] */ -16,-89,127,30,58,48,13,-40, 
  /* [37][0][][] */ -19,5,-24,2,-22,-61,-32,127, 
  /* [38][0][][] */ 127,-11,63,1,14,1,-61,17, 
  /* [39][0][][] */ 46,58,-127,-65,-96,112,30,-49, 
  /* [40][0][][] */ -36,127,-44,54,-58,10,-51,-17, 
  /* [41][0][][] */ -127,17,-16,-57,41,33,-14,-60, 
  /* [42][0][][] */ 29,-33,-14,-34,-13,127,12,106, 
  /* [43][0][][] */ -81,55,127,8,60,19,-29,22, 
  /* [44][0][][] */ 13,127,9,38,-59,-86,-13,5, 
  /* [45][0][][] */ -77,127,69,-116,-71,28,-72,-43, 
  /* [46][0][][] */ 16,-59,-29,1,15,1,-127,90, 
  /* [47][0][][] */ -93,-127,25,51,54,-89,30,70, 
};
const TfArray<48, float> quant25_scale = { 48, { 0.0027371728792786598, 0.0010933153098449111, 0.0040995241142809391, 0.0035210978239774704, 0.0025700766127556562, 0.0016443420900031924, 0.0012501092860475183, 0.0021895235404372215, 0.0019983784295618534, 0.0020811078138649464, 0.0030104187317192554, 0.0042118718847632408, 0.0013966705882921815, 0.0039679440669715405, 0.0028039882890880108, 0.0023299995809793472, 0.0047274096868932247, 0.0016348494682461023, 0.0028884252533316612, 0.0021847276948392391, 0.0027149929665029049, 0.00078868947457522154, 0.0021287866402417421, 0.0015341074904426932, 0.0034989977721124887, 0.0018810606561601162, 0.0036465737503021955, 0.0021621380001306534, 0.0051933079957962036, 0.003675517626106739, 0.0026514919009059668, 0.0032534708734601736, 0.0017647119238972664, 0.0036453492939472198, 0.001421068562194705, 0.00062347762286663055, 0.0010632537305355072, 0.0013980237999930978, 0.0024047065526247025, 0.0015430778730660677, 0.0028736148960888386, 0.0029626607429236174, 0.0025186594575643539, 0.0031979945488274097, 0.0021890804637223482, 0.0017691970570012927, 0.0024896776303648949, 0.0020881404634565115, } };
const TfLiteAffineQuantization quant25 = { (TfLiteFloatArray*)&quant25_scale, (TfLiteIntArray*)&g0::quant6_zero, 0 };
const MODEL_SECTION(EI_MODEL_SECTION) ALIGN(16) int32_t tensor_data26[8] = { 9083, -13603, 1777, 3932, 3912, -4974, 1942, 2811, };
const TfArray<8, float> quant26_scale = { 8, { 0.00017977248353417963, 0.00015142341726459563, 0.00010378051229054108, 0.0001121341556427069, 0.00025950415874831378, 9.0609508333727717e-05, 0.00013205870345700532, 8.4175037045497447e-05, } };
const TfLiteAffineQuantization quant26 = { (TfLiteFloatArray*)&quant26_scale, (TfLiteIntArray*)&g0::quant8_zero, 0 };
const MODEL_SECTION(EI_MODEL_SECTION) ALIGN(16) int8_t tensor_data27[8*1*1*48] = { 
  /* [0][0][][] */ -21,-17,-14,-41,-69,4,-1,-11,49,0,1,-4,2,6,-14,16,-36,15,-15,-25,-16,6,-22,-9,15,0,72,25,-18,-66,-18,31,6,43,127,3,-22,-23,34,-24,15,1,9,-8,-9,10,-22,-90, 
  /* [1][0][][] */ 9,-40,-16,47,-5,4,10,43,76,63,30,-63,-52,73,-1,8,-7,-31,28,-38,-53,46,-28,15,68,25,-23,26,24,11,127,36,-1,-30,-32,1,-2,14,-19,-11,3,-29,2,37,-14,51,21,12, 
  /* [2][0][][] */ -49,-8,-64,107,-49,-49,22,-72,-78,52,47,-88,-21,-1,-18,-7,113,14,-42,-45,-59,-8,-36,5,89,-26,105,9,68,-20,-75,38,10,-8,32,5,-46,55,6,-87,64,-53,-51,-127,0,-68,-70,70, 
  /* [3][0][][] */ 40,-38,15,-59,43,-15,-20,-83,58,-57,8,-17,-72,-80,-21,2,21,-11,31,-28,7,44,-81,14,82,-46,44,16,8,-1,6,-38,-49,14,26,-32,-50,11,2,-5,127,14,-55,55,-33,57,1,-48, 
  /* [4][0][][] */ 22,-3,12,22,11,37,-5,-16,42,27,12,-37,1,5,-65,22,0,16,31,-16,-34,24,4,47,42,9,-35,0,45,-20,-21,21,6,-2,28,23,-127,-1,45,12,10,-11,-3,8,-37,54,-26,-100, 
  /* [5][0][][] */ -29,-90,50,114,-18,-20,-56,95,-103,86,61,53,-79,18,85,-32,-11,21,39,8,-24,40,35,62,-39,22,-42,65,-41,-119,20,21,-123,-49,-36,12,127,8,-43,17,-44,0,90,67,37,9,57,46, 
  /* [6][0][][] */ 105,-10,-5,-25,114,-22,-27,-62,26,29,52,-1,-19,-6,20,14,-5,-1,-12,-27,-56,25,-1,37,74,-46,51,18,-23,127,-37,34,40,49,-109,-5,-98,-27,40,-64,-26,23,9,-96,16,-1,-15,-14, 
  /* [7][0][][] */ -32,-50,31,-50,22,127,35,-21,3,-82,-63,-10,8,-21,-35,-2,25,-41,100,60,33,-43,19,8,-25,4,93,2,42,48,19,21,-41,-6,-55,96,-105,104,-49,-30,-40,33,24,-46,6,-8,72,-26, 
};
const TfArray<8, float> quant27_scale = { 8, { 0.0076403301209211349, 0.0064354948699474335, 0.0044106715358793736, 0.0047657014802098274, 0.011028926819562912, 0.0038509040605276823, 0.0056124948896467686, 0.0035774391144514084, } };
const TfLiteAffineQuantization quant27 = { (TfLiteFloatArray*)&quant27_scale, (TfLiteIntArray*)&g0::quant8_zero, 0 };
const MODEL_SECTION(EI_MODEL_SECTION) ALIGN(16) int32_t tensor_data28[48] = { 8586, 2962, -4560, 7200, -430, -6031, 7343, 2232, 1614, 2355, -1523, 79, -224, 12104, 2247, -1026, -6554, -320, 1364, -3029, 14873, -3239, -11513, 364, -5496, -5117, -191, 866, -1702, -3179, -6623, -706, 18837, 461, -2233, 2369, -2530, -488, -491, 3980, 20570, -102, 2952, -1751, 398, -3302, -6217, 9660, };
const TfArray<48, float> quant28_scale = { 48, { 0.00024554610718041658, 0.00027987186331301928, 0.00015419728879351169, 0.00029205219470895827, 0.0002458988456055522, 0.00047646643361076713, 7.0023990701884031e-05, 0.00015795524814166129, 0.0001084639661712572, 0.00022317304683383554, 0.00044796257861889899, 0.00036866968730464578, 0.00029058216023258865, 0.00011663842451525852, 0.00025939787155948579, 0.00027189266984350979, 7.3205672379117459e-05, 0.0021998316515237093, 0.00030292148585431278, 0.00011989114136667922, 9.9639961263164878e-05, 0.00039689577533863485, 0.00010891468991758302, 0.00019978194904979318, 0.00027035395032726228, 0.00024153043341357261, 0.00028072888380847871, 0.00020661998132709414, 0.00032729667145758867, 0.00021009072952438146, 0.00014700606698170304, 0.00069801852805539966, 7.6892421930097044e-05, 0.0003534263523761183, 0.0001367944641970098, 0.00032649890636093915, 0.00018862569413613528, 0.00027123073232360184, 0.00058908987557515502, 0.00022064197401050478, 5.0426358939148486e-05, 0.00039048164035193622, 0.00022250447364058346, 0.00017261429456993937, 0.00024261994985863566, 0.00023655727272853255, 0.00011245553469052538, 0.00026824543601833284, } };
const TfLiteAffineQuantization quant28 = { (TfLiteFloatArray*)&quant28_scale, (TfLiteIntArray*)&g0::quant6_zero, 0 };
const MODEL_SECTION(EI_MODEL_SECTION) ALIGN(16) int8_t tensor_data29[1*3*3*48] = { 
  /* [0][0][][] */ -32,44,-21,-62,-9,10,-1,-28,-27,1,17,39,-13,-76,-68,37,127,7,49,58,-127,-55,44,-127,-10,-30,-10,93,-33,16,19,127,48,-7,5,-6,0,-40,-22,9,127,-55,-60,46,96,-63,-1,-10, 36,-127,38,-125,-12,-2,-96,127,43,-67,25,47,8,-127,-92,24,-33,18,-42,-87,-34,19,24,84,12,3,9,127,23,2,33,-96,-15,28,10,-35,127,-127,54,-10,-6,-98,-27,38,115,70,61,-40, -4,0,28,-24,-8,51,-23,68,-29,34,10,24,20,27,-55,40,73,16,-42,48,-84,45,73,38,-11,73,3,-53,8,4,18,-34,-60,-1,7,6,-44,121,-21,12,83,-48,53,-16,79,43,5,-14, 
  /* [0][1][][] */ -58,-18,-98,-23,-23,38,-2,-20,3,-44,3,-104,-35,-43,-72,125,119,13,127,123,-45,127,74,74,0,-32,-41,-6,29,-30,34,-91,8,-30,-36,-13,18,-83,37,12,93,127,-44,-12,-58,127,51,-39, -127,54,127,127,127,-86,-127,-25,-4,-127,-127,-127,127,-33,-15,47,0,-127,-113,-127,103,12,-101,-92,127,-21,127,-51,127,127,-4,70,-117,-127,127,-127,94,-74,-127,-127,27,89,-86,26,-127,-43,127,127, -42,10,22,22,42,127,-55,54,39,24,54,-57,-10,-19,-69,-6,62,49,-25,91,-50,-117,127,15,5,127,18,-16,76,38,109,25,-7,-9,58,8,-47,93,51,-8,3,64,127,-6,-50,-26,87,-7, 
  /* [0][2][][] */ -54,5,-28,-14,2,8,0,-25,16,29,10,46,-21,1,127,14,35,8,58,2,-92,11,55,-2,1,-28,-13,-81,-6,-5,6,-27,-47,43,9,-1,-60,7,-14,-5,15,-4,-74,-60,-25,35,-22,-41, 0,-42,62,2,-75,-1,-109,-109,127,69,48,57,-31,-31,44,11,77,111,-34,-30,-98,24,6,-27,10,-28,-68,-93,-10,-15,127,25,-127,35,-46,-20,96,-100,31,34,-120,-36,-117,127,9,17,59,-52, 24,-6,22,2,-38,27,-12,-104,3,4,-12,17,-9,27,85,-127,66,-23,-40,-15,-53,10,60,34,2,48,-28,-22,29,-13,34,15,-73,27,-32,5,-48,112,-21,23,7,-34,68,58,-31,9,-29,-20, 
};
const TfArray<48, float> quant29_scale = { 48, { 0.010435709729790688, 0.011894553899765015, 0.0065533849410712719, 0.012412218376994133, 0.010450700297951698, 0.020249823108315468, 0.0029760196339339018, 0.0067130979150533676, 0.0046097184531390667, 0.0094848545268177986, 0.019038408994674683, 0.015668461099267006, 0.012349741533398628, 0.0049571329727768898, 0.011024408973753452, 0.011555437929928303, 0.0031112409196794033, 0.093492843210697174, 0.012874162755906582, 0.005095373373478651, 0.0042346981354057789, 0.016868069767951965, 0.0046288743615150452, 0.0084907328709959984, 0.011490043252706528, 0.010265043005347252, 0.011930976994335651, 0.0087813492864370346, 0.013910108245909214, 0.0089288558810949326, 0.0062477574683725834, 0.029665786772966385, 0.0032679277937859297, 0.015020620077848434, 0.0058137648738920689, 0.013876203447580338, 0.0080165918916463852, 0.011527305468916893, 0.025036318227648735, 0.009377283975481987, 0.0021431201603263617, 0.016595469787716866, 0.0094564398750662804, 0.0073361070826649666, 0.010311347432434559, 0.010053684003651142, 0.004779360257089138, 0.011400431394577026, } };
const TfLiteAffineQuantization quant29 = { (TfLiteFloatArray*)&quant29_scale, (TfLiteIntArray*)&g0::quant6_zero, 3 };
const MODEL_SECTION(EI_MODEL_SECTION) ALIGN(16) int32_t tensor_data30[48] = { 3765, 1254, 2638, 5027, 232, 3141, 1314, 1785, 1900, 3131, 2401, 4169, 4234, 1197, 2826, 429, 176, -2452, 6081, 1567, 2722, 5232, 7809, 892, 3177, 3767, 1705, -316, -3452, 1866, 3714, 3311, 2158, 1622, 443, -585, 328, 2600, 525, 1846, 700, 6939, 1759, 1553, 3251, 918, -534, 5868, };
const TfArray<48, float> quant30_scale = { 48, { 0.00024896700051613152, 0.0004112464957870543, 0.00024103737086988986, 0.00019490132399369031, 0.0011377163464203477, 0.00023588935437146574, 0.00037935259751975536, 0.0002665228967089206, 0.00033765932312235236, 0.00023559039982501417, 0.00028662278782576323, 0.00016238460375461727, 0.00021326767455320805, 0.0002942313440144062, 0.00020999806292820722, 0.00019142254313919693, 0.00055001507280394435, 0.00036024086875841022, 0.00016045157099142671, 0.00062320788856595755, 0.00028662828844971955, 0.00018080731388181448, 0.00011523147259140387, 0.00035899676731787622, 0.0002133547532139346, 0.00024802546249702573, 0.00038682055310346186, 0.00023719467571936548, 0.00018814414215739816, 0.00054062221897765994, 0.00022050236293580383, 0.00025236958754248917, 0.00034840212902054191, 0.00029312871629372239, 0.00084464473184198141, 0.00029736629221588373, 0.00038907970883883536, 0.00019913051801268011, 0.00028820920852012932, 0.00035018706694245338, 0.00043001963058486581, 0.00013770964869763702, 0.00024424889124929905, 0.00021353500778786838, 0.00021862832363694906, 0.00048890680773183703, 0.00034172399318777025, 0.00015931522648315877, } };
const TfLiteAffineQuantization quant30 = { (TfLiteFloatArray*)&quant30_scale, (TfLiteIntArray*)&g0::quant6_zero, 0 };
const MODEL_SECTION(EI_MODEL_SECTION) ALIGN(16) int8_t tensor_data31[48*1*1*8] = { 
  /* [0][0][][] */ -115,-1,3,-83,-127,97,-1,-53, 
  /* [1][0][][] */ 58,-4,19,-22,9,41,-127,47, 
  /* [2][0][][] */ -42,85,-121,81,-59,127,35,14, 
  /* [3][0][][] */ 71,-17,-25,88,-13,-40,28,127, 
  /* [4][0][][] */ -75,-10,3,3,-12,-44,127,-5, 
  /* [5][0][][] */ 29,127,18,34,-122,-30,32,-31, 
  /* [6][0][][] */ -7,-82,31,127,31,-120,-26,49, 
  /* [7][0][][] */ 127,-66,125,0,-112,-26,79,107, 
  /* [8][0][][] */ -26,-127,71,39,103,-17,-47,17, 
  /* [9][0][][] */ -76,-79,4,-10,-32,7,-26,127, 
  /* [10][0][][] */ -31,-127,46,82,65,64,2,-52, 
  /* [11][0][][] */ -117,-127,43,-99,46,14,-38,99, 
  /* [12][0][][] */ 93,-6,99,-77,11,-127,105,-26, 
  /* [13][0][][] */ 15,4,5,127,-17,2,48,-57, 
  /* [14][0][][] */ -51,-9,59,-10,106,-24,1,127, 
  /* [15][0][][] */ -103,79,92,88,36,127,-74,126, 
  /* [16][0][][] */ 10,-35,-59,-127,-65,42,21,42, 
  /* [17][0][][] */ -15,127,18,28,-34,-59,-34,28, 
  /* [18][0][][] */ 51,61,-41,-127,-80,-84,19,-45, 
  /* [19][0][][] */ 26,-24,-127,-121,-29,97,52,33, 
  /* [20][0][][] */ 47,16,11,14,127,36,46,-26, 
  /* [21][0][][] */ -127,-88,-14,-93,5,6,22,-41, 
  /* [22][0][][] */ -78,-37,67,102,72,-36,-59,127, 
  /* [23][0][][] */ 14,-3,-47,123,127,4,4,40, 
  /* [24][0][][] */ 127,0,-66,-31,10,-14,22,-51, 
  /* [25][0][][] */ -5,-11,-33,-35,80,-29,-127,-39, 
  /* [26][0][][] */ 127,-2,93,-31,-91,28,55,104, 
  /* [27][0][][] */ 37,-100,-25,113,19,-32,-78,-127, 
  /* [28][0][][] */ -88,127,100,63,82,-34,-46,24, 
  /* [29][0][][] */ 4,0,46,11,-66,1,127,48, 
  /* [30][0][][] */ -52,-71,72,-58,-87,127,57,62, 
  /* [31][0][][] */ 98,14,98,-34,-84,43,64,127, 
  /* [32][0][][] */ -108,-8,-28,30,4,10,127,25, 
  /* [33][0][][] */ -109,127,74,91,-4,16,-25,-30, 
  /* [34][0][][] */ 124,-4,25,-15,-4,45,-127,14, 
  /* [35][0][][] */ 16,-16,15,21,-37,28,12,-127, 
  /* [36][0][][] */ 72,-22,-127,-65,10,-15,22,92, 
  /* [37][0][][] */ 34,-42,-36,-54,-34,29,74,-127, 
  /* [38][0][][] */ 43,75,-37,127,-47,-65,14,-56, 
  /* [39][0][][] */ 80,-35,90,-28,-84,17,111,127, 
  /* [40][0][][] */ -57,-58,113,127,-24,-21,-63,20, 
  /* [41][0][][] */ 33,-3,22,-6,34,-72,-33,127, 
  /* [42][0][][] */ 30,-69,-24,-49,-37,34,23,-127, 
  /* [43][0][][] */ 73,-18,127,-50,-81,-45,74,122, 
  /* [44][0][][] */ -91,-96,-41,78,127,-45,-118,10, 
  /* [45][0][][] */ 127,-9,79,-35,0,5,-11,44, 
  /* [46][0][][] */ 18,-127,20,69,95,-24,45,6, 
  /* [47][0][][] */ 77,127,-28,118,-34,-39,30,-57, 
};
const TfArray<48, float> quant31_scale = { 48, { 0.0026282609906047583, 0.0043413913808763027, 0.0025445506907999516, 0.0020575078669935465, 0.012010489590466022, 0.0024902047589421272, 0.004004698246717453, 0.0028135927859693766, 0.0035645561292767525, 0.002487048739567399, 0.0030257806647568941, 0.0017142398282885551, 0.0022513952571898699, 0.0031061016488820314, 0.0022168790455907583, 0.0020207834895700216, 0.0058063245378434658, 0.0038029418792575598, 0.0016938333865255117, 0.0065789967775344849, 0.0030258386395871639, 0.001908722217194736, 0.0012164600193500519, 0.0037898083683103323, 0.0022523144725710154, 0.0026183216832578182, 0.0040835347026586533, 0.0025039846077561378, 0.0019861746113747358, 0.0057071675546467304, 0.0023277695290744305, 0.002664180938154459, 0.0036779644433408976, 0.0030944615136831999, 0.0089166313409805298, 0.0031391961965709925, 0.0041073840111494064, 0.0021021540742367506, 0.0030425279401242733, 0.0036968074273318052, 0.0045395730994641781, 0.0014537544921040535, 0.0025784536264836788, 0.0022542173974215984, 0.0023079859092831612, 0.0051612253300845623, 0.0036074656527489424, 0.0016818373696878552, } };
const TfLiteAffineQuantization quant31 = { (TfLiteFloatArray*)&quant31_scale, (TfLiteIntArray*)&g0::quant6_zero, 0 };
const MODEL_SECTION(EI_MODEL_SECTION) ALIGN(16) int32_t tensor_data32[8] = { 68, 154, -39, 7487, 5766, 3382, 1470, -2656, };
const TfArray<8, float> quant32_scale = { 8, { 0.00016495876479893923, 0.00014360107888933271, 0.00018486649787519127, 0.00016471555863972753, 0.00011097568494733423, 0.00011200000153621659, 0.00012096737918909639, 0.00030426162993535399, } };
const TfLiteAffineQuantization quant32 = { (TfLiteFloatArray*)&quant32_scale, (TfLiteIntArray*)&g0::quant8_zero, 0 };
const MODEL_SECTION(EI_MODEL_SECTION) ALIGN(16) int8_t tensor_data33[8*1*1*48] = { 
  /* [0][0][][] */ -24,42,-22,-1,-48,-15,-77,37,12,32,58,30,34,-1,-47,25,-39,47,9,-65,53,39,-127,12,2,17,-45,54,11,-5,21,25,20,-17,22,25,-6,115,-67,-11,-6,21,-18,29,-3,2,30,0, 
  /* [1][0][][] */ -55,-89,-29,20,54,-24,-104,53,-13,-21,6,-73,-5,60,-1,-3,117,-127,-14,-28,-49,-1,17,-4,38,-6,-32,-30,28,-12,-104,-28,3,-38,-96,-83,27,19,-72,9,18,50,19,62,-24,12,16,49, 
  /* [2][0][][] */ 15,-55,24,53,127,21,79,-7,-36,-28,-5,-52,-13,-28,23,36,-45,-68,52,-54,30,-52,-53,15,-67,67,73,-108,-42,-9,-55,-57,25,0,-62,-59,6,115,75,-37,-10,-6,-31,-70,33,28,46,-11, 
  /* [3][0][][] */ 26,3,12,-4,36,40,19,-102,28,34,-24,9,15,-115,-6,-9,-37,6,-7,12,-5,55,-127,1,31,-94,24,46,60,-6,-21,55,15,16,2,-39,-92,-44,18,-12,13,26,60,-10,-6,17,-4,-43, 
  /* [4][0][][] */ 29,-59,1,53,52,-5,-16,1,-26,-14,43,-50,71,33,-39,57,-31,-88,53,29,34,-68,127,31,-29,10,-61,-9,-20,16,-96,-33,82,-35,-44,-54,-73,-50,-34,2,-64,101,0,-2,67,85,68,33, 
  /* [5][0][][] */ -51,-14,-21,55,-11,27,-9,-47,-53,-24,4,-16,25,41,-62,23,127,-1,58,-69,38,-84,2,-5,85,-106,-92,-2,58,-40,15,-74,20,-45,-23,12,-84,-15,8,-23,-35,31,88,40,49,23,25,-29, 
  /* [6][0][][] */ -37,4,-37,37,-17,96,-72,12,-8,-11,-127,28,54,33,125,22,23,21,51,-10,31,-24,-52,-6,16,3,-83,14,-3,-59,-8,-14,39,-44,18,6,4,-13,-68,-16,-37,50,-33,23,40,29,30,14, 
  /* [7][0][][] */ 29,0,46,-18,7,17,14,-1,13,-1,-11,3,-15,-8,3,-18,9,1,-20,-22,-19,12,127,13,3,-17,1,1,3,-10,-23,19,2,18,4,-18,-9,19,6,22,2,-10,8,-4,-17,-5,-34,17, 
};
const TfArray<8, float> quant33_scale = { 8, { 0.0070107472129166126, 0.0061030457727611065, 0.0078568262979388237, 0.0070004109293222427, 0.0047164666466414928, 0.0047599999234080315, 0.005141113419085741, 0.012931118719279766, } };
const TfLiteAffineQuantization quant33 = { (TfLiteFloatArray*)&quant33_scale, (TfLiteIntArray*)&g0::quant8_zero, 0 };
const MODEL_SECTION(EI_MODEL_SECTION) ALIGN(16) int32_t tensor_data34[48] = { 10968, 721, -5190, -624, 9926, 7696, -1195, 978, 10338, -313, -2665, -1378, -1017, -288, -650, 1538, 7521, -3005, -1373, 25973, 191, 22062, -3276, 761, 192, -9419, 11377, 1422, 592, -956, 3594, 15053, -2852, -1780, 2051, 1427, 6149, -857, 1827, -6701, 927, 2996, 19121, -2072, 3001, 422, 1551, -3407, };
const TfArray<48, float> quant34_scale = { 48, { 4.438321411726065e-05, 0.00035230317735113204, 0.001098659704439342, 0.0017812283476814628, 0.00011223153705941513, 0.00018308953440282494, 5.0315054977545515e-05, 0.00093782047042623162, 0.00017444859258830547, 0.00077950884588062763, 5.0755919801304117e-05, 0.00056091591250151396, 0.0015351505717262626, 0.00017422283417545259, 0.00016799388686195016, 0.0021833707578480244, 0.00026057829381898046, 0.00025147281121462584, 0.00072958582313731313, 7.4546776886563748e-05, 0.0011056972434744239, 6.2410450482275337e-05, 0.00025779916904866695, 0.0001359138113912195, 0.00016948032134678215, 0.00071688526077196002, 0.00012099904415663332, 0.00047197373351082206, 0.00045456070802174509, 0.0002836084458976984, 7.0546790084335953e-05, 6.5166532294824719e-05, 0.00078891630982980132, 0.00043706176802515984, 0.00036584967165254056, 0.00011093940702266991, 0.00019159799558110535, 7.595169881824404e-05, 7.5896779890172184e-05, 0.00022655668726656586, 0.00022785898181609809, 0.00052149262046441436, 8.883048576535657e-05, 0.00011755766172427684, 0.00085936381947249174, 0.00073582021286711097, 0.0019145392579957843, 0.0005565767060033977, } };
const TfLiteAffineQuantization quant34 = { (TfLiteFloatArray*)&quant34_scale, (TfLiteIntArray*)&g0::quant6_zero, 0 };
const MODEL_SECTION(EI_MODEL_SECTION) ALIGN(16) int8_t tensor_data35[1*3*3*48] = { 
  /* [0][0][][] */ 70,-48,-53,-90,36,-96,81,-31,42,22,117,56,-87,76,26,-121,66,-76,6,-23,-127,-4,43,102,-30,72,-51,50,-127,-38,84,-104,-38,-56,38,86,-127,43,113,90,-66,-127,-127,24,-84,-35,-8,-77, 72,-77,92,127,103,16,127,-127,-88,94,79,68,4,73,28,99,67,-74,-97,-65,94,-103,58,-17,57,127,-71,68,17,28,127,-78,55,113,127,127,-91,40,35,-4,73,22,-80,127,127,117,-17,-2, 34,-30,19,-39,33,31,9,-86,-28,49,-51,44,76,-22,-70,-11,24,-18,100,-23,46,3,-82,-104,-18,16,-28,29,45,89,55,-18,4,-41,24,32,-19,-13,33,-34,-75,100,-57,83,-74,-73,-13,92, 
  /* [0][1][][] */ 105,74,-112,12,-87,-127,56,-58,70,-73,127,-90,93,91,127,106,-46,113,-7,-58,112,-61,56,127,-14,-6,-21,-2,-51,32,44,-127,-114,-65,-14,63,-6,127,127,127,-74,-96,-127,18,-17,-29,-127,-127, 127,127,127,-25,-127,-1,124,-112,-127,-127,92,-127,39,127,86,-127,-40,127,127,-127,-78,-127,81,-50,45,10,-127,48,18,77,108,-95,127,127,-23,33,-17,116,53,-20,116,-25,-47,111,-20,127,100,55, 43,59,17,9,-44,53,42,-65,-22,-93,-64,-63,-127,-10,-65,-8,28,44,-97,-40,-55,-30,-127,-115,-42,9,-53,12,51,127,29,-17,19,-56,-16,24,1,20,43,-51,-78,75,-35,67,5,-94,-8,112, 
  /* [0][2][][] */ 9,-41,-15,2,53,-32,7,-33,47,21,34,49,19,5,-10,-24,-127,-16,-4,-10,17,-54,15,56,91,-18,-50,-103,44,-19,-21,-59,-16,-37,-79,-19,92,35,40,85,-118,-78,-87,-27,-4,-13,73,-59, 8,-76,17,3,59,-3,42,-80,-94,57,6,62,-13,23,-3,1,-99,-11,-10,-63,-28,-108,34,-13,127,-15,-83,-127,40,7,0,-30,37,80,-63,0,99,36,-13,1,-82,-24,19,50,-17,-23,-99,74, -1,-31,37,7,2,13,36,-21,-22,42,-17,40,20,-43,-17,-8,16,5,24,-39,17,-46,-39,-54,-4,-4,-49,-47,30,10,-5,-11,9,-34,-43,-17,80,13,20,-15,-127,30,32,-1,-4,-5,-4,25, 
};
const TfArray<48, float> quant35_scale = { 48, { 0.0018862865399569273, 0.014972884207963943, 0.046693038195371628, 0.075702205300331116, 0.0047698402777314186, 0.0077813048847019672, 0.002138389740139246, 0.039857368916273117, 0.0074140648357570171, 0.033129125833511353, 0.0021571265533566475, 0.02383892610669136, 0.065243899822235107, 0.0074044703505933285, 0.0071397400461137295, 0.092793256044387817, 0.011074577458202839, 0.010687594301998615, 0.031007397919893265, 0.0031682378612458706, 0.046992134302854538, 0.0026524441782385111, 0.01095646433532238, 0.005776336882263422, 0.0072029135189950466, 0.030467621982097626, 0.0051424591802060604, 0.020058883354067802, 0.019318830221891403, 0.012053358368575573, 0.0029982386622577906, 0.0027695775497704744, 0.033528942614793777, 0.018575124442577362, 0.015548610128462315, 0.0047149248421192169, 0.0081429146230220795, 0.0032279470469802618, 0.0032256131526082754, 0.0096286591142416, 0.0096840066835284233, 0.022163435816764832, 0.0037752955686300993, 0.0049962005577981472, 0.036522962152957916, 0.031272359192371368, 0.081367917358875275, 0.023654509335756302, } };
const TfLiteAffineQuantization quant35 = { (TfLiteFloatArray*)&quant35_scale, (TfLiteIntArray*)&g0::quant6_zero, 3 };
const MODEL_SECTION(EI_MODEL_SECTION) ALIGN(16) int32_t tensor_data36[48] = { -1538, -8504, 20064, 6804, 8182, 2984, 3115, 254, -132, -8709, 667, 2312, 20708, -12356, 196, 1183, -5223, -1596, 1383, 3624, 14137, 3448, 1040, -1301, 8243, 29800, 10583, -11554, 1652, -1738, -684, -3746, 17322, 12485, 11064, -1565, -10772, -497, -4331, -768, -12292, -8341, -3579, 2523, 5151, -10395, 1338, -1845, };
const TfArray<48, float> quant36_scale = { 48, { 0.00031706460868008435, 0.00026176311075687408, 5.3289797506295145e-05, 0.00015733584586996585, 0.00033218751195818186, 0.00063484057318419218, 0.00076460075797513127, 0.00052521913312375546, 0.00042898277752101421, 0.00032524266862310469, 0.0015835778322070837, 0.00030709902057424188, 7.5361989729572088e-05, 0.00034461787436157465, 0.00055613060249015689, 0.00016395210695918649, 0.00032356352312490344, 0.00044621300185099244, 0.00028294342337176204, 0.00035377097083255649, 9.236090409103781e-05, 0.00099293806124478579, 0.00030292896553874016, 0.00073741929372772574, 0.00030049524502828717, 7.0287933340296149e-05, 0.00037853015237487853, 0.00034017147845588624, 0.00054887693841010332, 0.00041479882202111185, 0.00067014014348387718, 0.0012713868636637926, 0.00012867672194261104, 0.00015184239600785077, 0.00022515654563903809, 0.00045362408854998648, 0.00040032481774687767, 0.00050204969011247158, 0.00087775749852880836, 0.00038735580164939165, 0.00033925398020073771, 0.00019230035832151771, 0.00029682653257623315, 0.00037056265864521265, 0.00018929824000224471, 0.00032107890001498163, 0.0001321438467130065, 0.0004888850380666554, } };
const TfLiteAffineQuantization quant36 = { (TfLiteFloatArray*)&quant36_scale, (TfLiteIntArray*)&g0::quant6_zero, 0 };
const MODEL_SECTION(EI_MODEL_SECTION) ALIGN(16) int8_t tensor_data37[48*1*1*8] = { 
  /* [0][0][][] */ -2,39,8,-5,85,-19,127,8, 
  /* [1][0][][] */ 78,31,91,26,20,-38,17,127, 
  /* [2][0][][] */ -76,-9,-12,127,13,-11,-45,56, 
  /* [3][0][][] */ 45,-18,-127,0,1,-57,14,119, 
  /* [4][0][][] */ -127,83,-103,-21,19,25,-20,0, 
  /* [5][0][][] */ 127,-12,-5,-45,-7,-31,-7,-104, 
  /* [6][0][][] */ -5,-13,0,14,-127,-27,65,14, 
  /* [7][0][][] */ -12,-67,-1,-2,-29,5,-127,4, 
  /* [8][0][][] */ 16,39,30,-15,127,3,-60,-48, 
  /* [9][0][][] */ 100,-44,43,22,3,-25,50,127, 
  /* [10][0][][] */ 127,4,-6,-37,-2,3,-6,-121, 
  /* [11][0][][] */ -32,9,16,127,-18,-53,-53,56, 
  /* [12][0][][] */ -100,35,-91,-56,8,90,-61,-127, 
  /* [13][0][][] */ 127,14,114,22,-18,33,11,39, 
  /* [14][0][][] */ -127,-14,10,17,-1,-2,15,117, 
  /* [15][0][][] */ -127,-9,7,102,1,7,-7,113, 
  /* [16][0][][] */ 40,-60,124,41,8,-127,17,40, 
  /* [17][0][][] */ -5,-55,-77,127,20,16,15,123, 
  /* [18][0][][] */ 16,-31,-92,55,-8,-12,39,127, 
  /* [19][0][][] */ 24,14,-9,127,1,4,-60,-50, 
  /* [20][0][][] */ 48,83,96,-127,-15,-107,-21,-106, 
  /* [21][0][][] */ 12,7,-10,-7,-127,-19,44,-2, 
  /* [22][0][][] */ 4,50,9,4,9,127,-11,14, 
  /* [23][0][][] */ 127,32,-3,119,-12,13,-37,-108, 
  /* [24][0][][] */ -127,13,-70,-12,32,1,-14,-26, 
  /* [25][0][][] */ -35,-23,-81,-61,-1,-127,-1,-76, 
  /* [26][0][][] */ -88,-20,-127,8,10,8,-16,-45, 
  /* [27][0][][] */ 93,24,127,26,-31,44,12,53, 
  /* [28][0][][] */ -8,-71,-26,45,47,-127,21,16, 
  /* [29][0][][] */ -6,-27,44,-127,-4,-10,31,5, 
  /* [30][0][][] */ -42,-2,127,-9,2,0,-9,-91, 
  /* [31][0][][] */ 10,7,2,-6,127,32,-57,-5, 
  /* [32][0][][] */ -84,-12,-127,-19,-9,-1,-16,-67, 
  /* [33][0][][] */ 4,-51,-1,-26,44,-127,25,-26, 
  /* [34][0][][] */ -30,-127,-105,50,-2,-39,-20,2, 
  /* [35][0][][] */ 47,4,-109,4,-7,-5,-4,127, 
  /* [36][0][][] */ 80,36,65,21,-4,127,-2,22, 
  /* [37][0][][] */ -9,13,3,127,13,-34,-26,24, 
  /* [38][0][][] */ -7,10,17,-5,127,25,-35,11, 
  /* [39][0][][] */ -19,15,-5,47,-28,127,-95,0, 
  /* [40][0][][] */ 127,5,99,39,-27,21,18,62, 
  /* [41][0][][] */ 93,-9,127,24,5,8,29,42, 
  /* [42][0][][] */ 85,-68,-1,-48,30,127,0,-23, 
  /* [43][0][][] */ -2,-57,-9,2,-47,-13,-127,-1, 
  /* [44][0][][] */ -5,-127,12,49,-8,54,-6,-89, 
  /* [45][0][][] */ 92,2,127,-12,-7,26,21,40, 
  /* [46][0][][] */ -92,2,2,127,-2,22,-32,74, 
  /* [47][0][][] */ -6,49,-8,12,6,127,-10,5, 
};
const TfArray<48, float> quant37_scale = { 48, { 0.0036283158697187901, 0.0029954756610095501, 0.00060981966089457273, 0.0018004664452746511, 0.0038013744633644819, 0.007264772430062294, 0.008749677799642086, 0.0060103242285549641, 0.0049090469256043434, 0.003721901448443532, 0.018121609464287758, 0.0035142751876264811, 0.00086240191012620926, 0.003943620715290308, 0.0063640582375228405, 0.0018761793617159128, 0.0037026859354227781, 0.0051062204875051975, 0.0032378516625612974, 0.004048363771289587, 0.0010569283040240407, 0.011362646706402302, 0.0034665553830564022, 0.0084386281669139862, 0.0034387051127851009, 0.0008043370908126235, 0.0043316944502294064, 0.0038927386049181223, 0.0062810513190925121, 0.0047467336989939213, 0.0076687214896082878, 0.014549063518643379, 0.001472506788559258, 0.0017376022879034281, 0.0025765697937458754, 0.0051910290494561195, 0.0045811007730662823, 0.0057451855391263962, 0.010044582188129425, 0.00443269032984972, 0.0038822393398731947, 0.0022005813661962748, 0.0033967224881052971, 0.0042405189014971256, 0.002166226739063859, 0.0036742533557116985, 0.0015121827600523829, 0.0055945361964404583, } };
const TfLiteAffineQuantization quant37 = { (TfLiteFloatArray*)&quant37_scale, (TfLiteIntArray*)&g0::quant6_zero, 0 };
const MODEL_SECTION(EI_MODEL_SECTION) ALIGN(16) int32_t tensor_data38[8] = { 567, 931, -804, -8371, -1351, -2412, 376, 2793, };
const TfArray<8, float> quant38_scale = { 8, { 0.00024409982142969966, 0.00022238747624214739, 0.00035564092104323208, 0.00012999071623198688, 0.00031604673131369054, 9.8415155662223697e-05, 0.00032254058169201016, 0.0001544366532471031, } };
const TfLiteAffineQuantization quant38 = { (TfLiteFloatArray*)&quant38_scale, (TfLiteIntArray*)&g0::quant8_zero, 0 };
const MODEL_SECTION(EI_MODEL_SECTION) ALIGN(16) int8_t tensor_data39[8*1*1*8] = { 
  /* [0][0][][] */ -12,-20,-31,26,-4,-127,10,44, 
  /* [1][0][][] */ -54,21,-127,127,-3,65,-18,45, 
  /* [2][0][][] */ 3,-16,20,1,-8,-127,5,31, 
  /* [3][0][][] */ 31,64,54,127,17,-44,-49,-7, 
  /* [4][0][][] */ 25,43,38,-27,-127,-11,33,2, 
  /* [5][0][][] */ 53,-25,127,-99,13,-62,-2,-29, 
  /* [6][0][][] */ 36,127,42,-33,33,-5,-67,-25, 
  /* [7][0][][] */ -12,-21,-32,-14,-12,-127,13,42, 
};
const TfArray<4, int> tensor_dimension39 = { 4, { 8,1,1,8 } };
const TfArray<8, float> quant39_scale = { 8, { 0.010374242439866066, 0.0094514675438404083, 0.0151147386059165, 0.0055246050469577312, 0.01343198586255312, 0.0041826441884040833, 0.013707974925637245, 0.0065635577775537968, } };
const TfLiteAffineQuantization quant39 = { (TfLiteFloatArray*)&quant39_scale, (TfLiteIntArray*)&g0::quant8_zero, 0 };
const MODEL_SECTION(EI_MODEL_SECTION) ALIGN(16) int32_t tensor_data40[8] = { 8284, -311, 5781, 918, 13556, -73, 460, -10507, };
const TfArray<8, float> quant40_scale = { 8, { 0.00012597908789757639, 0.0006424536113627255, 0.00027149316156283021, 0.00057168229250237346, 0.0001186073714052327, 0.00026593284565024078, 0.0008782439399510622, 7.9116201959550381e-05, } };
const TfLiteAffineQuantization quant40 = { (TfLiteFloatArray*)&quant40_scale, (TfLiteIntArray*)&g0::quant8_zero, 0 };
const MODEL_SECTION(EI_MODEL_SECTION) ALIGN(16) int8_t tensor_data41[1*3*3*8] = { 
  /* [0][0][][] */ -27,2,-11,0,-6,26,-1,26, 6,-1,-12,-5,2,127,16,127, 0,2,-3,-7,-1,18,7,13, 
  /* [0][1][][] */ 4,-127,-12,5,-15,-7,-114,17, -127,112,-77,127,-127,-7,127,-21, 12,2,-1,-64,-2,4,47,-12, 
  /* [0][2][][] */ 18,6,-1,-2,-3,-24,3,11, 61,10,127,-20,6,-111,-2,10, 11,-3,-3,-8,0,-19,-9,-1, 
};
const TfArray<4, int> tensor_dimension41 = { 4, { 1,3,3,8 } };
const TfArray<8, float> quant41_scale = { 8, { 0.0053541110828518867, 0.027304278686642647, 0.011538458988070488, 0.02429649606347084, 0.0050408132374286652, 0.011302146129310131, 0.037325367331504822, 0.0033624384086579084, } };
const TfLiteAffineQuantization quant41 = { (TfLiteFloatArray*)&quant41_scale, (TfLiteIntArray*)&g0::quant8_zero, 3 };
const MODEL_SECTION(EI_MODEL_SECTION) ALIGN(16) int32_t tensor_data42[8] = { 37868, 4847, 14399, 10912, 4980, 274812, 32665, 15963, };
const TfArray<8, float> quant42_scale = { 8, { 0.00010390375973656774, 7.6487318438012153e-05, 0.00021598796593025327, 0.00010503546945983544, 0.00019466817320790142, 1.2926680028613191e-05, 1.0188373380515259e-05, 0.00022924902441445738, } };
const TfLiteAffineQuantization quant42 = { (TfLiteFloatArray*)&quant42_scale, (TfLiteIntArray*)&g0::quant8_zero, 0 };
const MODEL_SECTION(EI_MODEL_SECTION) ALIGN(16) int8_t tensor_data43[8*3*3*3] = { 
  /* [0][0][][] */ 7,-7,10, 6,-26,27, 10,-26,18, 
  /* [0][1][][] */ 36,24,23, 61,14,54, 21,-36,34, 
  /* [0][2][][] */ -23,-94,-15, -31,-127,-4, -10,-57,14, 
  /* [1][0][][] */ 30,72,20, 6,8,-6, -30,-69,-30, 
  /* [1][1][][] */ 51,118,35, 1,-2,-8, -55,-127,-43, 
  /* [1][2][][] */ 27,42,7, 1,-4,-5, -35,-56,-8, 
  /* [2][0][][] */ 44,92,10, 55,127,13, 18,43,-1, 
  /* [2][1][][] */ -46,-83,-28, -79,-92,-38, -30,-5,-20, 
  /* [2][2][][] */ 1,11,7, 5,17,0, 2,12,-6, 
  /* [3][0][][] */ 48,-26,-16, 80,-32,-40, 31,-14,-15, 
  /* [3][1][][] */ 81,-52,-39, 127,-52,-76, 59,-26,-31, 
  /* [3][2][][] */ 18,-20,-7, 41,-26,-18, 16,-9,-3, 
  /* [4][0][][] */ -9,-20,-2, 29,47,11, -13,-26,-2, 
  /* [4][1][][] */ -25,-56,-7, 65,127,20, -31,-58,-5, 
  /* [4][2][][] */ -7,-10,4, 23,27,-1, -9,-10,0, 
  /* [5][0][][] */ -12,-41,-31, -24,-59,-54, -15,-2,-26, 
  /* [5][1][][] */ -53,-107,-62, -71,-127,-89, -30,-26,-46, 
  /* [5][2][][] */ 9,-1,-31, 6,-4,-33, 13,14,-18, 
  /* [6][0][][] */ -102,-12,24, -3,15,-20, 60,16,-23, 
  /* [6][1][][] */ -127,-38,34, 10,17,-32, 102,16,-35, 
  /* [6][2][][] */ -54,-18,7, 11,-10,-10, 29,-14,20, 
  /* [7][0][][] */ -8,14,-6, -18,20,-11, -9,19,-12, 
  /* [7][1][][] */ 16,83,-10, 21,127,-26, -4,59,-30, 
  /* [7][2][][] */ -30,-53,-24, -44,-55,-36, -21,3,-22, 
};
const TfArray<4, int> tensor_dimension43 = { 4, { 8,3,3,3 } };
const TfArray<8, float> quant43_scale = { 8, { 0.031279359012842178, 0.023025868460536003, 0.065021373331546783, 0.031620051711797714, 0.058603230863809586, 0.0038914692122489214, 0.003067124867811799, 0.069013506174087524, } };
const TfLiteAffineQuantization quant43 = { (TfLiteFloatArray*)&quant43_scale, (TfLiteIntArray*)&g0::quant8_zero, 0 };
const TfArray<4, int> tensor_dimension44 = { 4, { 1,48,48,8 } };
const TfArray<1, float> quant44_scale = { 1, { 0.023529412224888802, } };
const TfLiteAffineQuantization quant44 = { (TfLiteFloatArray*)&quant44_scale, (TfLiteIntArray*)&g0::quant0_zero, 0 };
const TfArray<1, float> quant46_scale = { 1, { 0.099185660481452942, } };
const TfArray<1, int> quant46_zero = { 1, { -13 } };
const TfLiteAffineQuantization quant46 = { (TfLiteFloatArray*)&quant46_scale, (TfLiteIntArray*)&quant46_zero, 0 };
const TfArray<1, float> quant47_scale = { 1, { 0.087386161088943481, } };
const TfArray<1, int> quant47_zero = { 1, { -32 } };
const TfLiteAffineQuantization quant47 = { (TfLiteFloatArray*)&quant47_scale, (TfLiteIntArray*)&quant47_zero, 0 };
const TfArray<4, int> tensor_dimension48 = { 4, { 1,48,48,48 } };
const TfArray<4, int> tensor_dimension49 = { 4, { 1,49,49,48 } };
const TfArray<4, int> tensor_dimension50 = { 4, { 1,24,24,48 } };
const TfArray<4, int> tensor_dimension51 = { 4, { 1,24,24,8 } };
const TfArray<1, float> quant51_scale = { 1, { 0.094726890325546265, } };
const TfArray<1, int> quant51_zero = { 1, { -7 } };
const TfLiteAffineQuantization quant51 = { (TfLiteFloatArray*)&quant51_scale, (TfLiteIntArray*)&quant51_zero, 0 };
const TfArray<1, float> quant54_scale = { 1, { 0.080860674381256104, } };
const TfArray<1, int> quant54_zero = { 1, { -14 } };
const TfLiteAffineQuantization quant54 = { (TfLiteFloatArray*)&quant54_scale, (TfLiteIntArray*)&quant54_zero, 0 };
const TfArray<1, float> quant55_scale = { 1, { 0.10316544771194458, } };
const TfArray<1, int> quant55_zero = { 1, { -16 } };
const TfLiteAffineQuantization quant55 = { (TfLiteFloatArray*)&quant55_scale, (TfLiteIntArray*)&quant55_zero, 0 };
const TfArray<4, int> tensor_dimension57 = { 4, { 1,25,25,48 } };
const TfArray<4, int> tensor_dimension58 = { 4, { 1,12,12,48 } };
const TfArray<4, int> tensor_dimension59 = { 4, { 1,12,12,8 } };
const TfArray<1, float> quant59_scale = { 1, { 0.058117818087339401, } };
const TfArray<1, int> quant59_zero = { 1, { -22 } };
const TfLiteAffineQuantization quant59 = { (TfLiteFloatArray*)&quant59_scale, (TfLiteIntArray*)&quant59_zero, 0 };
const TfArray<1, float> quant62_scale = { 1, { 0.034257739782333374, } };
const TfArray<1, int> quant62_zero = { 1, { 8 } };
const TfLiteAffineQuantization quant62 = { (TfLiteFloatArray*)&quant62_scale, (TfLiteIntArray*)&quant62_zero, 0 };
const TfArray<1, float> quant63_scale = { 1, { 0.064460381865501404, } };
const TfArray<1, int> quant63_zero = { 1, { -15 } };
const TfLiteAffineQuantization quant63 = { (TfLiteFloatArray*)&quant63_scale, (TfLiteIntArray*)&quant63_zero, 0 };
const TfArray<1, float> quant64_scale = { 1, { 0.019167369231581688, } };
const TfLiteAffineQuantization quant64 = { (TfLiteFloatArray*)&quant64_scale, (TfLiteIntArray*)&g0::quant0_zero, 0 };
const TfArray<1, float> quant66_scale = { 1, { 0.054845746606588364, } };
const TfLiteAffineQuantization quant66 = { (TfLiteFloatArray*)&quant66_scale, (TfLiteIntArray*)&g0::quant54_zero, 0 };
const TfArray<1, float> quant67_scale = { 1, { 0.074929788708686829, } };
const TfArray<1, int> quant67_zero = { 1, { -18 } };
const TfLiteAffineQuantization quant67 = { (TfLiteFloatArray*)&quant67_scale, (TfLiteIntArray*)&quant67_zero, 0 };
const TfArray<4, int> tensor_dimension69 = { 4, { 1,12,12,32 } };
const TfArray<1, float> quant69_scale = { 1, { 0.043337617069482803, } };
const TfLiteAffineQuantization quant69 = { (TfLiteFloatArray*)&quant69_scale, (TfLiteIntArray*)&g0::quant0_zero, 0 };
const TfArray<4, int> tensor_dimension70 = { 4, { 1,12,12,4 } };
const TfArray<1, float> quant70_scale = { 1, { 0.1415780633687973, } };
const TfArray<1, int> quant70_zero = { 1, { -34 } };
const TfLiteAffineQuantization quant70 = { (TfLiteFloatArray*)&quant70_scale, (TfLiteIntArray*)&quant70_zero, 0 };
const TfArray<1, float> quant71_scale = { 1, { 0.00390625, } };
const TfLiteAffineQuantization quant71 = { (TfLiteFloatArray*)&quant71_scale, (TfLiteIntArray*)&g0::quant0_zero, 0 };
const TfLiteConvParams opdata0 = { kTfLitePaddingSame, 2,2, kTfLiteActRelu6, 1,1 };
const TfArray<3, int> inputs0 = { 3, { 0,43,42 } };
const TfArray<1, int> outputs0 = { 1, { 44 } };
const TfLiteDepthwiseConvParams opdata1 = { kTfLitePaddingSame, 1,1, 1, kTfLiteActRelu6, 1,1 };
const TfArray<3, int> inputs1 = { 3, { 44,41,40 } };
const TfArray<1, int> outputs1 = { 1, { 45 } };
const TfLiteConvParams opdata2 = { kTfLitePaddingSame, 1,1, kTfLiteActNone, 1,1 };
const TfArray<3, int> inputs2 = { 3, { 45,39,38 } };
const TfArray<1, int> outputs2 = { 1, { 46 } };
const TfLiteAddParams opdata3 = { kTfLiteActNone };
const TfArray<2, int> inputs3 = { 2, { 44,46 } };
const TfArray<1, int> outputs3 = { 1, { 47 } };
const TfLiteConvParams opdata4 = { kTfLitePaddingSame, 1,1, kTfLiteActRelu6, 1,1 };
const TfArray<3, int> inputs4 = { 3, { 47,37,36 } };
const TfArray<1, int> outputs4 = { 1, { 48 } };
const TfArray<2, int> inputs5 = { 2, { 48,1 } };
const TfArray<1, int> outputs5 = { 1, { 49 } };
const TfLiteDepthwiseConvParams opdata6 = { kTfLitePaddingValid, 2,2, 1, kTfLiteActRelu6, 1,1 };
const TfArray<3, int> inputs6 = { 3, { 49,35,34 } };
const TfArray<1, int> outputs6 = { 1, { 50 } };
const TfLiteConvParams opdata7 = { kTfLitePaddingSame, 1,1, kTfLiteActNone, 1,1 };
const TfArray<3, int> inputs7 = { 3, { 50,33,32 } };
const TfArray<1, int> outputs7 = { 1, { 51 } };
const TfLiteConvParams opdata8 = { kTfLitePaddingSame, 1,1, kTfLiteActRelu6, 1,1 };
const TfArray<3, int> inputs8 = { 3, { 51,31,30 } };
const TfArray<1, int> outputs8 = { 1, { 52 } };
const TfLiteDepthwiseConvParams opdata9 = { kTfLitePaddingSame, 1,1, 1, kTfLiteActRelu6, 1,1 };
const TfArray<3, int> inputs9 = { 3, { 52,29,28 } };
const TfArray<1, int> outputs9 = { 1, { 53 } };
const TfLiteConvParams opdata10 = { kTfLitePaddingSame, 1,1, kTfLiteActNone, 1,1 };
const TfArray<3, int> inputs10 = { 3, { 53,27,26 } };
const TfArray<1, int> outputs10 = { 1, { 54 } };
const TfLiteAddParams opdata11 = { kTfLiteActNone };
const TfArray<2, int> inputs11 = { 2, { 51,54 } };
const TfArray<1, int> outputs11 = { 1, { 55 } };
const TfLiteConvParams opdata12 = { kTfLitePaddingSame, 1,1, kTfLiteActRelu6, 1,1 };
const TfArray<3, int> inputs12 = { 3, { 55,25,24 } };
const TfArray<1, int> outputs12 = { 1, { 56 } };
const TfArray<2, int> inputs13 = { 2, { 56,1 } };
const TfArray<1, int> outputs13 = { 1, { 57 } };
const TfLiteDepthwiseConvParams opdata14 = { kTfLitePaddingValid, 2,2, 1, kTfLiteActRelu6, 1,1 };
const TfArray<3, int> inputs14 = { 3, { 57,23,22 } };
const TfArray<1, int> outputs14 = { 1, { 58 } };
const TfLiteConvParams opdata15 = { kTfLitePaddingSame, 1,1, kTfLiteActNone, 1,1 };
const TfArray<3, int> inputs15 = { 3, { 58,21,20 } };
const TfArray<1, int> outputs15 = { 1, { 59 } };
const TfLiteConvParams opdata16 = { kTfLitePaddingSame, 1,1, kTfLiteActRelu6, 1,1 };
const TfArray<3, int> inputs16 = { 3, { 59,19,18 } };
const TfArray<1, int> outputs16 = { 1, { 60 } };
const TfLiteDepthwiseConvParams opdata17 = { kTfLitePaddingSame, 1,1, 1, kTfLiteActRelu6, 1,1 };
const TfArray<3, int> inputs17 = { 3, { 60,17,16 } };
const TfArray<1, int> outputs17 = { 1, { 61 } };
const TfLiteConvParams opdata18 = { kTfLitePaddingSame, 1,1, kTfLiteActNone, 1,1 };
const TfArray<3, int> inputs18 = { 3, { 61,15,14 } };
const TfArray<1, int> outputs18 = { 1, { 62 } };
const TfLiteAddParams opdata19 = { kTfLiteActNone };
const TfArray<2, int> inputs19 = { 2, { 59,62 } };
const TfArray<1, int> outputs19 = { 1, { 63 } };
const TfLiteConvParams opdata20 = { kTfLitePaddingSame, 1,1, kTfLiteActRelu6, 1,1 };
const TfArray<3, int> inputs20 = { 3, { 63,13,12 } };
const TfArray<1, int> outputs20 = { 1, { 64 } };
const TfLiteDepthwiseConvParams opdata21 = { kTfLitePaddingSame, 1,1, 1, kTfLiteActRelu6, 1,1 };
const TfArray<3, int> inputs21 = { 3, { 64,11,10 } };
const TfArray<1, int> outputs21 = { 1, { 65 } };
const TfLiteConvParams opdata22 = { kTfLitePaddingSame, 1,1, kTfLiteActNone, 1,1 };
const TfArray<3, int> inputs22 = { 3, { 65,9,8 } };
const TfArray<1, int> outputs22 = { 1, { 66 } };
const TfLiteAddParams opdata23 = { kTfLiteActNone };
const TfArray<2, int> inputs23 = { 2, { 63,66 } };
const TfArray<1, int> outputs23 = { 1, { 67 } };
const TfLiteConvParams opdata24 = { kTfLitePaddingSame, 1,1, kTfLiteActRelu6, 1,1 };
const TfArray<3, int> inputs24 = { 3, { 67,7,6 } };
const TfArray<1, int> outputs24 = { 1, { 68 } };
const TfLiteConvParams opdata25 = { kTfLitePaddingValid, 1,1, kTfLiteActRelu, 1,1 };
const TfArray<3, int> inputs25 = { 3, { 68,5,4 } };
const TfArray<1, int> outputs25 = { 1, { 69 } };
const TfLiteConvParams opdata26 = { kTfLitePaddingValid, 1,1, kTfLiteActNone, 1,1 };
const TfArray<3, int> inputs26 = { 3, { 69,3,2 } };
const TfArray<1, int> outputs26 = { 1, { 70 } };
const TfLiteSoftmaxParams opdata27 = { 1 };
const TfArray<1, int> inputs27 = { 1, { 70 } };
const TfArray<1, int> outputs27 = { 1, { 71 } };
};

TensorInfo_t tensorData[] = {
{ kTfLiteArenaRw, kTfLiteInt8, (int32_t*)(tensor_arena + 0), (TfLiteIntArray*)&g0::tensor_dimension0, 27648, {kTfLiteAffineQuantization, const_cast<void*>(static_cast<const void*>(&g0::quant0))}, },
{ kTfLiteMmapRo, kTfLiteInt32, (int32_t*)g0::tensor_data1, (TfLiteIntArray*)&g0::tensor_dimension1, 32, {kTfLiteNoQuantization, nullptr}, },
{ kTfLiteMmapRo, kTfLiteInt32, (int32_t*)g0::tensor_data2, (TfLiteIntArray*)&g0::tensor_dimension2, 16, {kTfLiteAffineQuantization, const_cast<void*>(static_cast<const void*>(&g0::quant2))}, },
{ kTfLiteMmapRo, kTfLiteInt8, (int32_t*)g0::tensor_data3, (TfLiteIntArray*)&g0::tensor_dimension3, 128, {kTfLiteAffineQuantization, const_cast<void*>(static_cast<const void*>(&g0::quant3))}, },
{ kTfLiteMmapRo, kTfLiteInt32, (int32_t*)g0::tensor_data4, (TfLiteIntArray*)&g0::tensor_dimension4, 128, {kTfLiteAffineQuantization, const_cast<void*>(static_cast<const void*>(&g0::quant4))}, },
{ kTfLiteMmapRo, kTfLiteInt8, (int32_t*)g0::tensor_data5, (TfLiteIntArray*)&g0::tensor_dimension5, 1536, {kTfLiteAffineQuantization, const_cast<void*>(static_cast<const void*>(&g0::quant5))}, },
{ kTfLiteMmapRo, kTfLiteInt32, (int32_t*)g0::tensor_data6, (TfLiteIntArray*)&g0::tensor_dimension6, 192, {kTfLiteAffineQuantization, const_cast<void*>(static_cast<const void*>(&g0::quant6))}, },
{ kTfLiteMmapRo, kTfLiteInt8, (int32_t*)g0::tensor_data7, (TfLiteIntArray*)&g0::tensor_dimension7, 384, {kTfLiteAffineQuantization, const_cast<void*>(static_cast<const void*>(&g0::quant7))}, },
