/*
 * Copyright (c) 2025 EdgeImpulse Inc.
 *
 * Generated by Edge Impulse and licensed under the applicable Edge Impulse
 * Terms of Service. Community and Professional Terms of Service
 * (https://edgeimpulse.com/legal/terms-of-service) or Enterprise Terms of
 * Service (https://edgeimpulse.com/legal/enterprise-terms-of-service),
 * according to your product plan subscription (the “License”).
 *
 * This software, documentation and other associated files (collectively referred
 * to as the “Software”) is a single SDK variation generated by the Edge Impulse
 * platform and requires an active paid Edge Impulse subscription to use this
 * Software for any purpose.
 *
 * You may NOT use this Software unless you have an active Edge Impulse subscription
 * that meets the eligibility requirements for the applicable License, subject to
 * your full and continued compliance with the terms and conditions of the License,
 * including without limitation any usage restrictions under the applicable License.
 *
 * If you do not have an active Edge Impulse product plan subscription, or if use
 * of this Software exceeds the usage limitations of your Edge Impulse product plan
 * subscription, you are not permitted to use this Software and must immediately
 * delete and erase all copies of this Software within your control or possession.
 * Edge Impulse reserves all rights and remedies available to enforce its rights.
 *
 * Unless required by applicable law or agreed to in writing, the Software is
 * distributed on an "AS IS" BASIS, WITHOUT WARRANTIES OR CONDITIONS OF ANY KIND,
 * either express or implied. See the License for the specific language governing
 * permissions, disclaimers and limitations under the License.
 */
// Generated on: 19.07.2025 15:50:28

#include <stdio.h>
#include <stdlib.h>
#include "edge-impulse-sdk/tensorflow/lite/c/builtin_op_data.h"
#include "edge-impulse-sdk/tensorflow/lite/c/common.h"
#include "edge-impulse-sdk/tensorflow/lite/micro/micro_mutable_op_resolver.h"
#include "edge-impulse-sdk/porting/ei_classifier_porting.h"

#if EI_CLASSIFIER_PRINT_STATE
#if defined(__cplusplus) && EI_C_LINKAGE == 1
extern "C" {
    extern void ei_printf(const char *format, ...);
}
#else
extern void ei_printf(const char *format, ...);
#endif
#endif

#define STRINGIZE(x) #x
#define STRINGIZE_VALUE_OF(x) STRINGIZE(x)

#if defined (__GNUC__)  /* GNU compiler */
#define ALIGN(X) __attribute__((aligned(X)))
#define DEFINE_SECTION(x) __attribute__((section(x)))
#elif defined (_MSC_VER)
#define ALIGN(X) __declspec(align(X))
#elif defined (__TASKING__) /* TASKING Compiler */
#define ALIGN(X) __align(X)
#define DEFINE_SECTION(x) __attribute__((section(x)))
#elif defined (__ARMCC_VERSION) /* Arm Compiler */
#define ALIGN(X) __ALIGNED(x)
#define DEFINE_SECTION(x) __attribute__((section(x)))
#elif defined (__ICCARM__) /* IAR Compiler */
#define ALIGN(x) __attribute__((aligned(x)))
#define DEFINE_SECTION(x) __attribute__((section(x)))
#elif defined (__clang__) /* LLVM/Clang Compiler */
#define ALIGN(X) __ALIGNED(x)
#define DEFINE_SECTION(x) __attribute__((section(x)))
#endif

#if defined(EI_MODEL_SECTION) && (defined(__GNUC__) || defined(__clang__))
#define MODEL_SECTION(X) __attribute__((section(STRINGIZE_VALUE_OF(X))))
#else
#define MODEL_SECTION(X)
#endif

#ifndef EI_MAX_SCRATCH_BUFFER_COUNT
#ifndef CONFIG_IDF_TARGET_ESP32S3
#define EI_MAX_SCRATCH_BUFFER_COUNT 14
#else
#define EI_MAX_SCRATCH_BUFFER_COUNT 28
#endif // CONFIG_IDF_TARGET_ESP32S3
#endif // EI_MAX_SCRATCH_BUFFER_COUNT

#ifndef EI_MAX_OVERFLOW_BUFFER_COUNT
#define EI_MAX_OVERFLOW_BUFFER_COUNT 10
#endif // EI_MAX_OVERFLOW_BUFFER_COUNT

using namespace tflite;
using namespace tflite::ops;
using namespace tflite::ops::micro;

namespace {

#if defined(EI_CLASSIFIER_ALLOCATION_STATIC_HIMAX) || defined(EI_CLASSIFIER_ALLOCATION_STATIC_HIMAX_GNU)
constexpr int kTensorArenaSize = 70352;
#else
constexpr int kTensorArenaSize = 69328;
#endif

#if defined(EI_CLASSIFIER_ALLOCATION_STATIC)
#if defined (EI_TENSOR_ARENA_LOCATION)
uint8_t tensor_arena[kTensorArenaSize] ALIGN(16) DEFINE_SECTION(STRINGIZE_VALUE_OF(EI_TENSOR_ARENA_LOCATION));
#else
uint8_t tensor_arena[kTensorArenaSize] ALIGN(16);
#endif
#elif defined(EI_CLASSIFIER_ALLOCATION_STATIC_HIMAX)
#pragma Bss(".tensor_arena")
uint8_t tensor_arena[kTensorArenaSize] ALIGN(16);
#pragma Bss()
#elif defined(EI_CLASSIFIER_ALLOCATION_STATIC_HIMAX_GNU)
uint8_t tensor_arena[kTensorArenaSize] ALIGN(16) __attribute__((section(".tensor_arena")));
#else
#define EI_CLASSIFIER_ALLOCATION_HEAP 1
uint8_t* tensor_arena = NULL;
#endif

static uint8_t* tensor_boundary;
static uint8_t* current_location;

template <int SZ, class T> struct TfArray {
  int sz; T elem[SZ];
};

enum used_operators_e {
  OP_CONV_2D, OP_DEPTHWISE_CONV_2D, OP_ADD, OP_PAD, OP_SOFTMAX,  OP_LAST
};

struct TensorInfo_t { // subset of TfLiteTensor used for initialization from constant memory
  TfLiteAllocationType allocation_type;
  TfLiteType type;
  void* data;
  TfLiteIntArray* dims;
  size_t bytes;
  TfLiteQuantization quantization;
};

typedef struct {
  TfLiteTensor tensor;
  int16_t index;
} TfLiteTensorWithIndex;

typedef struct {
  TfLiteEvalTensor tensor;
  int16_t index;
} TfLiteEvalTensorWithIndex;

TfLiteContext ctx{};
static const int MAX_TFL_TENSOR_COUNT = 4;
static TfLiteTensorWithIndex tflTensors[MAX_TFL_TENSOR_COUNT];
static const int MAX_TFL_EVAL_COUNT = 4;
static TfLiteEvalTensorWithIndex tflEvalTensors[MAX_TFL_EVAL_COUNT];
TfLiteRegistration registrations[OP_LAST];

namespace g0 {
const TfArray<4, int> tensor_dimension0 = { 4, { 1,48,48,1 } };
const TfArray<1, float> quant0_scale = { 1, { 0.0013687043683603406, } };
const TfArray<1, int> quant0_zero = { 1, { -128 } };
const TfLiteAffineQuantization quant0 = { (TfLiteFloatArray*)&quant0_scale, (TfLiteIntArray*)&quant0_zero, 0 };
const MODEL_SECTION(EI_MODEL_SECTION) ALIGN(16) int32_t tensor_data1[4*2] = { 
  0, 0, 
  0, 1, 
  0, 1, 
  0, 0, 
};
const TfArray<2, int> tensor_dimension1 = { 2, { 4,2 } };
const MODEL_SECTION(EI_MODEL_SECTION) ALIGN(8) int32_t tensor_data2[3] = { 26624, -36908, -39532, };
const TfArray<1, int> tensor_dimension2 = { 1, { 3 } };
const TfArray<3, float> quant2_scale = { 3, { 0.00013787522038910538, 0.00011018665099982172, 0.00010676807869458571, } };
const TfArray<3, int> quant2_zero = { 3, { 0,0,0 } };
const TfLiteAffineQuantization quant2 = { (TfLiteFloatArray*)&quant2_scale, (TfLiteIntArray*)&quant2_zero, 0 };
const MODEL_SECTION(EI_MODEL_SECTION) ALIGN(16) int8_t tensor_data3[3*1*1*32] = { 
  /* [0][0][][] */ 51,43,99,-82,-76,25,-22,14,-24,81,18,-19,-17,-56,90,2,-30,78,83,76,11,12,50,-63,-127,74,-59,24,73,18,-8,6, 
  /* [1][0][][] */ 31,-26,-49,32,-1,127,-3,5,122,-101,-1,-57,-49,107,10,-48,98,-35,-47,-80,-111,9,86,72,28,41,16,-10,-58,-41,-13,-11, 
  /* [2][0][][] */ -18,85,-62,87,92,-34,-20,122,98,26,127,12,-84,-77,91,125,-73,-46,-37,-101,79,88,-70,-92,97,-38,-5,-109,16,-59,73,-8, 
};
const TfArray<4, int> tensor_dimension3 = { 4, { 3,1,1,32 } };
const TfArray<3, float> quant3_scale = { 3, { 0.0043469457887113094, 0.0034739775583148003, 0.0033661962952464819, } };
const TfLiteAffineQuantization quant3 = { (TfLiteFloatArray*)&quant3_scale, (TfLiteIntArray*)&g0::quant2_zero, 0 };
const MODEL_SECTION(EI_MODEL_SECTION) ALIGN(16) int32_t tensor_data4[32] = { -816, 680, -1180, 229, 650, 660, -827, 675, 707, 1921, 590, -1053, -1038, 282, 234, -73, 392, -679, 1911, -841, -404, 91, -913, 89, 496, -993, -999, -560, -345, -1095, -909, -1063, };
const TfArray<1, int> tensor_dimension4 = { 1, { 32 } };
const TfArray<32, float> quant4_scale = { 32, { 5.3266008762875572e-05, 5.6219516409328207e-05, 5.7975445088231936e-05, 6.4782921981532127e-05, 5.430158125818707e-05, 5.6791981478454545e-05, 5.6895398302003741e-05, 5.8497051213635132e-05, 5.6414071877952665e-05, 8.2743172242771834e-05, 5.6700133427511901e-05, 5.5741758842486888e-05, 5.4683889175066724e-05, 5.697096639778465e-05, 6.5627093135844916e-05, 6.2998580688145012e-05, 5.9055651945527643e-05, 5.2513070841087028e-05, 8.3073646237608045e-05, 5.4889540479052812e-05, 5.119924753671512e-05, 5.4884028941160068e-05, 5.4338725021807477e-05, 6.2445076764561236e-05, 5.7559846027288586e-05, 5.80470914428588e-05, 5.4125659517012537e-05, 5.1663180784089491e-05, 5.9392750699771568e-05, 5.3746050980407745e-05, 5.4058597015682608e-05, 5.6035387387964875e-05, } };
const TfArray<32, int> quant4_zero = { 32, { 0,0,0,0,0,0,0,0,0,0,0,0,0,0,0,0,0,0,0,0,0,0,0,0,0,0,0,0,0,0,0,0 } };
const TfLiteAffineQuantization quant4 = { (TfLiteFloatArray*)&quant4_scale, (TfLiteIntArray*)&quant4_zero, 0 };
const MODEL_SECTION(EI_MODEL_SECTION) ALIGN(16) int8_t tensor_data5[32*1*1*48] = { 
  /* [0][0][][] */ -54,-59,87,-9,76,-23,-95,-115,59,-97,-110,-21,34,0,-42,35,-64,-52,-60,-70,-91,-120,-16,88,-116,-14,52,-52,97,-3,-33,-95,60,-72,-110,43,-127,-95,-110,18,53,-93,-113,78,44,-90,95,-40, 
  /* [1][0][][] */ -45,-17,-84,18,-95,92,5,24,56,-84,-127,104,63,-12,-36,72,106,-23,-2,109,-56,11,53,19,-6,-28,-11,76,21,-1,52,-83,82,113,10,43,60,24,1,-51,-62,-38,-5,-66,-58,54,-50,-26, 
  /* [2][0][][] */ 13,44,-75,60,-38,-82,57,56,-116,54,-42,75,51,-39,48,-118,-80,-52,4,21,-115,-40,73,-8,-48,57,63,-2,-89,42,46,56,-90,-42,-112,-122,-103,68,69,-45,-127,-95,-15,-27,-99,75,-38,-96, 
  /* [3][0][][] */ 77,-48,23,-20,-83,65,-92,52,67,24,21,3,88,85,63,-25,113,94,-31,27,110,-69,-52,-78,-3,-127,-47,71,49,-56,56,18,-31,-28,2,-4,-81,-49,21,24,-47,-64,-66,-14,65,45,-35,-68, 
  /* [4][0][][] */ 70,32,-13,64,-58,5,22,39,83,94,-48,63,53,-23,-18,-59,10,17,-54,28,119,-70,98,37,-25,-40,96,-72,-27,57,-80,-42,99,116,38,-82,-36,-34,-88,49,-43,-79,-53,-60,29,127,19,78, 
  /* [5][0][][] */ 109,-126,72,33,39,-82,34,76,126,-127,-24,-53,41,90,51,20,87,75,-45,110,54,55,21,1,-71,-74,-1,-102,54,55,21,-66,-19,-31,-44,25,-105,-40,42,10,-91,-14,53,70,-17,42,48,-54, 
  /* [6][0][][] */ 0,-52,87,54,-91,-76,-19,43,-29,-90,-6,-94,62,35,89,-121,20,-14,-16,77,-89,-122,84,38,-67,-88,-21,-64,-42,-121,29,-86,-95,-127,-57,-111,-22,23,-114,60,64,36,6,-26,-117,79,-83,-55, 
  /* [7][0][][] */ 121,-5,-41,-25,-92,124,-24,21,122,12,-127,24,69,-67,37,73,72,33,5,114,62,45,11,88,-75,47,64,29,-54,113,-33,39,50,31,79,103,-84,47,4,-20,83,-82,92,80,40,20,79,-78, 
  /* [8][0][][] */ 33,-16,-46,-83,43,49,-69,6,35,33,-1,100,26,-33,-65,-80,-31,108,-41,35,52,-10,88,123,-90,60,69,36,-47,45,-85,127,113,-34,66,11,112,-21,-2,62,66,117,-83,-97,-1,-1,-14,114, 
  /* [9][0][][] */ 38,58,127,71,92,-58,11,-57,12,54,46,74,12,-7,-23,16,-22,35,-25,-18,13,105,-25,-46,91,37,17,55,28,-49,-21,85,62,37,50,37,-2,63,8,3,76,-59,81,-24,82,25,-64,68, 
  /* [10][0][][] */ -41,14,72,-51,-64,118,95,45,54,35,-8,-58,110,83,-38,-1,-11,91,-81,-46,-2,38,65,-57,21,9,-89,-121,-35,92,-103,-69,95,100,127,80,-31,-16,-15,13,-39,69,-88,-27,-85,-31,-9,-39, 
  /* [11][0][][] */ 79,2,-35,74,88,17,26,3,79,65,-88,82,-30,-102,2,-77,-76,-119,36,13,3,47,-1,-127,-120,-105,-39,50,49,-32,4,-43,-100,-89,24,18,-80,50,-45,-71,-45,71,-94,-12,-61,-80,-93,-102, 
  /* [12][0][][] */ -12,60,-69,-18,61,-11,-50,10,-85,44,22,-10,-69,-3,25,-93,-115,-55,-69,-97,-1,-33,-8,70,-71,-66,69,-80,67,-13,-56,85,-107,-84,-68,-9,-25,-85,-44,21,85,16,-127,-58,-19,-99,-44,84, 
  /* [13][0][][] */ 123,-91,91,38,89,127,82,86,103,-126,-15,-22,102,34,82,-64,-71,-45,-41,50,90,-32,68,-18,-29,20,-19,-5,-74,-49,80,62,16,46,-2,27,-96,-35,9,37,-77,109,-40,-33,-23,32,16,-69, 
  /* [14][0][][] */ -54,-116,48,59,43,-39,-33,-79,-70,-52,19,65,-12,-86,-91,-65,-55,-42,-12,9,-44,31,8,54,-127,-87,-7,-2,-103,-116,-89,26,103,-26,-15,7,75,72,36,-97,-9,-88,32,83,16,-97,6,-54, 
  /* [15][0][][] */ -17,-61,-62,77,32,-111,22,-93,20,-35,-99,10,94,-19,-114,-78,48,2,-110,-16,-1,26,79,69,26,24,60,42,-12,6,19,-127,31,-6,-38,-10,-44,69,103,-49,13,61,-45,10,-19,-83,-71,-50, 
  /* [16][0][][] */ -37,-33,89,-94,44,117,-36,62,79,14,-116,70,12,-72,-22,-71,127,89,86,76,127,69,-65,69,-1,35,-69,35,-83,45,44,40,-104,24,69,48,-43,44,-47,-83,5,-6,65,45,72,90,108,-43, 
  /* [17][0][][] */ 20,-102,17,62,-50,-127,-78,-112,26,-102,79,39,86,46,-126,31,17,39,88,98,-109,-26,0,-66,18,73,-89,26,90,-68,-33,62,-43,-46,18,-9,-58,88,-88,-47,-100,-53,-31,-19,-4,-4,121,-124, 
  /* [18][0][][] */ -33,117,127,14,38,-58,-14,23,0,89,-6,8,-8,67,87,18,-18,16,77,25,81,15,60,-14,33,-21,4,102,49,27,36,58,43,30,-39,-22,28,81,6,76,17,17,15,36,-44,32,18,31, 
  /* [19][0][][] */ 2,14,57,23,40,-94,76,70,75,-70,14,-27,-105,18,-66,43,51,-114,86,39,-37,60,-67,-3,57,-88,10,-76,-98,-127,-74,27,57,-91,14,-16,-7,-78,-68,-108,27,-123,-92,-5,-91,12,90,-105, 
  /* [20][0][][] */ -15,57,53,127,-107,111,1,69,1,33,-98,-4,-16,116,21,-84,-30,-31,-82,-33,20,-55,-71,-85,65,-91,-96,36,25,9,-57,98,108,69,-9,58,29,-48,-16,-107,-99,-66,-88,-121,-43,-19,-63,119, 
  /* [21][0][][] */ 89,16,38,-105,56,-72,45,24,-3,-88,-117,36,15,19,-65,-110,-84,-24,15,-19,101,-46,70,-78,34,-127,-7,22,4,4,-35,-25,29,4,-78,-109,97,58,-98,-53,-22,-1,27,-1,-120,-77,-121,98, 
  /* [22][0][][] */ 9,-51,-93,-112,86,-72,95,31,-93,83,-70,-96,95,-107,-124,-85,31,62,-127,-81,59,-84,12,6,89,3,-107,96,-71,-94,-69,-127,43,41,-1,-12,5,-22,-75,-110,7,-33,-20,94,43,-121,82,-26, 
  /* [23][0][][] */ 73,-106,8,20,88,-78,13,-57,81,-68,41,59,27,-102,38,-42,93,-16,-66,108,104,-80,60,2,18,-20,45,4,59,69,63,-4,-53,10,21,15,56,-15,-108,-11,-107,40,13,-127,-45,-70,107,-9, 
  /* [24][0][][] */ -54,-104,-126,-61,-98,-83,-79,-61,81,93,8,54,127,59,-40,-97,-42,57,26,-35,103,-60,-39,-26,61,-39,99,18,108,67,-5,-45,29,1,65,32,-41,-122,73,-19,-66,-87,103,27,16,-11,41,85, 
  /* [25][0][][] */ -72,-61,-59,-42,86,-46,-73,40,55,-81,-13,-7,37,-12,-79,-44,-56,39,64,-93,96,46,-39,-55,33,-44,-127,37,60,-42,59,118,50,-122,14,46,56,-63,-40,-33,-116,104,-110,-29,126,34,100,1, 
  /* [26][0][][] */ 32,-112,-34,-30,-109,-22,-24,-31,-113,-127,81,61,-97,-61,-5,-26,93,8,-95,-79,-7,49,75,-2,37,43,-9,28,-3,-9,-109,-19,-51,-77,-115,-117,-82,61,-64,87,-116,85,36,13,-86,51,-60,75, 
  /* [27][0][][] */ 1,33,-68,-108,-82,-81,-78,-28,31,89,34,-118,-42,46,72,-17,53,-27,51,-93,-105,2,-37,-35,-117,73,-116,-9,54,16,-42,-20,54,61,-102,-96,-95,-67,-106,127,-79,27,17,49,87,13,60,95, 
  /* [28][0][][] */ 67,-12,66,35,-105,-67,-45,-74,-31,-69,127,54,-80,-73,-5,123,70,88,-73,55,-33,13,-101,-74,-72,68,-84,-6,-62,-77,-5,-26,-100,12,61,54,9,-93,-43,53,94,35,-88,56,-39,15,30,33, 
  /* [29][0][][] */ 32,75,39,-71,-100,-4,-127,-13,77,-26,-95,-113,76,-114,-62,-53,-114,76,10,-78,-90,-55,28,-15,-49,-7,-69,-40,-112,-23,83,-22,21,-7,-100,-73,-33,83,-35,80,22,84,-62,55,-16,82,-48,-52, 
  /* [30][0][][] */ 6,-61,-78,33,-107,8,-77,-27,92,-32,-21,-59,-113,-2,36,11,-9,14,67,-109,22,-115,-127,10,-111,18,-80,93,-12,-122,-109,-13,-86,-66,-127,-71,-5,-36,-25,24,66,-72,-30,79,79,-57,79,37, 
  /* [31][0][][] */ 58,-97,18,76,26,41,-72,-112,-43,-32,-85,-103,68,-127,-61,87,-74,-104,17,27,37,12,-50,77,27,-122,9,24,-85,-86,25,79,-9,3,-107,-26,70,-43,-86,-119,33,-88,-47,10,-9,-67,-13,-2, 
};
const TfArray<4, int> tensor_dimension5 = { 4, { 32,1,1,48 } };
const TfArray<32, float> quant5_scale = { 32, { 0.0023809957783669233, 0.002513017738237977, 0.002591507975012064, 0.0028958027251064777, 0.0024272860027849674, 0.0025386069901287556, 0.0025432298425585032, 0.0026148238684982061, 0.0025217144284397364, 0.0036986276973038912, 0.0025345014873892069, 0.0024916620459407568, 0.0024443750735372305, 0.0025466077495366335, 0.0029335373546928167, 0.0028160426300019026, 0.0026397933252155781, 0.0023473394103348255, 0.0037133998703211546, 0.0024535676930099726, 0.0022886113729327917, 0.0024533213581889868, 0.0024289463181048632, 0.0027913008816540241, 0.0025729306507855654, 0.002594710560515523, 0.002419422147795558, 0.0023093491327017546, 0.0026548616588115692, 0.0024024536833167076, 0.0024164244532585144, 0.0025047871749848127, } };
const TfLiteAffineQuantization quant5 = { (TfLiteFloatArray*)&quant5_scale, (TfLiteIntArray*)&g0::quant4_zero, 0 };
const MODEL_SECTION(EI_MODEL_SECTION) ALIGN(16) int32_t tensor_data6[48] = { 1529, -2337, 6904, 1819, 4939, 283, 1731, 7501, -2609, -2282, -1520, 12942, 5771, 5638, 6666, -3201, -5308, 17421, 4839, 5289, 7520, 22182, 18297, 993, -2796, 2883, -758, -2183, 1880, 3349, 4188, 11205, -824, 354, 20325, 5486, 10928, 5392, 1298, -1461, 5072, -2111, 17742, -511, 444, 3900, -1468, 4873, };
const TfArray<1, int> tensor_dimension6 = { 1, { 48 } };
const TfArray<48, float> quant6_scale = { 48, { 0.00021883303998038173, 0.00014065168215893209, 0.00010799920710269362, 0.00026915030321106315, 0.00011273417476331815, 0.00019592925673350692, 0.00014301136252470315, 8.6042404291220009e-05, 0.0001580029638716951, 0.00014941867266315967, 0.00016682210844010115, 5.9682966821128502e-05, 0.00011334611917845905, 0.00010296330583514646, 0.00012386779417283833, 0.0001469703420298174, 0.00010744652536232024, 5.7685541833052412e-05, 0.00011700672621373087, 0.00014617516717407852, 0.00010871875565499067, 4.5812077587470412e-05, 5.3376559662865475e-05, 0.00022589722357224673, 0.00016039362526498735, 0.00011947370512643829, 0.00024632044369354844, 0.00014868892321828753, 0.00020047446014359593, 0.00011942194396397099, 0.00014320851187221706, 7.2961571277119219e-05, 0.00019242215785197914, 0.00030232552671805024, 4.6558434405596927e-05, 0.0001154100100393407, 7.9928016930352896e-05, 0.0001031310748658143, 0.00018299290968570858, 0.00024635752197355032, 0.000126504703075625, 0.00020617831614799798, 5.0316084525547922e-05, 0.00035880497307516634, 0.00026875882758758962, 0.00011800084030255675, 0.00028991198632866144, 0.00015862485452089459, } };
const TfArray<48, int> quant6_zero = { 48, { 0,0,0,0,0,0,0,0,0,0,0,0,0,0,0,0,0,0,0,0,0,0,0,0,0,0,0,0,0,0,0,0,0,0,0,0,0,0,0,0,0,0,0,0,0,0,0,0 } };
const TfLiteAffineQuantization quant6 = { (TfLiteFloatArray*)&quant6_scale, (TfLiteIntArray*)&quant6_zero, 0 };
const MODEL_SECTION(EI_MODEL_SECTION) ALIGN(16) int8_t tensor_data7[48*1*1*8] = { 
  /* [0][0][][] */ -9,17,127,-23,-1,39,-19,-68, 
  /* [1][0][][] */ 100,-67,57,-86,-7,-66,127,36, 
  /* [2][0][][] */ 69,71,99,-68,-93,30,127,-33, 
  /* [3][0][][] */ 13,20,-2,-22,20,-49,127,10, 
  /* [4][0][][] */ 127,-40,-42,-24,-118,-82,-51,78, 
  /* [5][0][][] */ 27,77,127,-13,32,-58,17,-45, 
  /* [6][0][][] */ 127,100,-33,121,-76,42,37,109, 
  /* [7][0][][] */ -13,1,7,45,33,-108,-127,-35, 
  /* [8][0][][] */ 86,68,-24,78,-53,11,-127,-54, 
  /* [9][0][][] */ 127,-21,-39,50,13,-47,32,-87, 
  /* [10][0][][] */ 62,31,-2,21,-36,127,31,1, 
  /* [11][0][][] */ 90,-37,-5,-127,102,-69,-63,71, 
  /* [12][0][][] */ -77,127,93,-31,25,58,-112,125, 
  /* [13][0][][] */ 127,12,-78,27,45,-89,14,-105, 
  /* [14][0][][] */ 116,30,-2,-16,-127,32,-71,-8, 
  /* [15][0][][] */ 21,23,-99,-31,-127,-58,89,84, 
  /* [16][0][][] */ 10,-42,127,6,110,-52,-83,-49, 
  /* [17][0][][] */ 12,-12,100,-6,127,-70,-85,-7, 
  /* [18][0][][] */ 127,-57,112,35,-27,46,-21,13, 
  /* [19][0][][] */ 47,33,59,-50,-41,-127,0,-47, 
  /* [20][0][][] */ 31,-38,76,127,8,-77,-105,78, 
  /* [21][0][][] */ 100,-34,-77,-127,43,-43,28,119, 
  /* [22][0][][] */ -51,-127,-30,-60,39,-35,63,-52, 
  /* [23][0][][] */ -19,15,30,-50,-98,-127,-6,-27, 
  /* [24][0][][] */ 127,-8,40,30,-9,-12,-69,77, 
  /* [25][0][][] */ 62,32,-17,-84,-40,-26,-40,127, 
  /* [26][0][][] */ -73,-32,17,-127,96,14,-26,-60, 
  /* [27][0][][] */ 113,127,-10,-53,18,66,35,3, 
  /* [28][0][][] */ 44,106,-23,-16,9,-18,16,127, 
  /* [29][0][][] */ 92,37,108,115,50,-53,-127,41, 
  /* [30][0][][] */ 127,-91,-59,112,32,5,-65,81, 
  /* [31][0][][] */ 117,-81,33,72,-83,-115,-127,58, 
  /* [32][0][][] */ -121,-59,27,-127,97,-36,-17,-85, 
  /* [33][0][][] */ 7,15,35,39,43,-98,127,41, 
  /* [34][0][][] */ -86,76,127,-59,121,-90,-94,75, 
  /* [35][0][][] */ -79,36,39,127,1,105,14,-42, 
  /* [36][0][][] */ 76,19,-41,-127,34,-10,19,42, 
  /* [37][0][][] */ 31,25,-19,-8,-57,127,67,55, 
  /* [38][0][][] */ -1,-71,7,85,20,62,20,127, 
  /* [39][0][][] */ 13,6,-127,50,-12,-44,-34,65, 
  /* [40][0][][] */ 47,2,-104,-11,-35,66,-36,127, 
  /* [41][0][][] */ 21,-13,25,-27,-100,-127,-27,-14, 
  /* [42][0][][] */ -102,53,-105,103,-30,107,-27,-127, 
  /* [43][0][][] */ 1,3,-26,-127,-20,13,-20,-77, 
  /* [44][0][][] */ 59,48,44,91,25,127,-80,28, 
  /* [45][0][][] */ 9,77,-25,17,127,-30,-76,-6, 
  /* [46][0][][] */ 42,-57,16,127,50,17,-60,66, 
  /* [47][0][][] */ -33,-88,58,-17,127,10,31,18, 
};
const TfArray<4, int> tensor_dimension7 = { 4, { 48,1,1,8 } };
const TfArray<48, float> quant7_scale = { 48, { 0.0032351999543607235, 0.0020793767180293798, 0.0015966466162353754, 0.0039790840819478035, 0.0016666477313265204, 0.0028965931851416826, 0.0021142617333680391, 0.0012720399536192417, 0.0023358957841992378, 0.0022089867852628231, 0.0024662769865244627, 0.00088234542636200786, 0.0016756945988163352, 0.0015221964567899704, 0.0018312458414584398, 0.0021727909334003925, 0.0015884757740423083, 0.00085281574865803123, 0.0017298125894740224, 0.002161035081371665, 0.0016072842990979552, 0.00067727995337918401, 0.00078911229502409697, 0.0033396359067410231, 0.0023712390102446079, 0.0017662841128185391, 0.0036415699869394302, 0.0021981981117278337, 0.002963789040222764, 0.0017655189149081707, 0.0021171765401959419, 0.0010786546627059579, 0.0028447448275983334, 0.0044695422984659672, 0.00068831397220492363, 0.001706206938251853, 0.0011816456681117415, 0.0015246766852214932, 0.0027053439989686012, 0.0036421185359358788, 0.0018702293746173382, 0.0030481140129268169, 0.00074386660708114505, 0.0053045270033180714, 0.0039732963778078556, 0.0017445094417780638, 0.004286021925508976, 0.0023450898006558418, } };
const TfLiteAffineQuantization quant7 = { (TfLiteFloatArray*)&quant7_scale, (TfLiteIntArray*)&g0::quant6_zero, 0 };
const MODEL_SECTION(EI_MODEL_SECTION) ALIGN(16) int32_t tensor_data8[8] = { -11516, -3300, 2134, -12333, 4600, -3245, 9163, 9858, };
const TfArray<1, int> tensor_dimension8 = { 1, { 8 } };
const TfArray<8, float> quant8_scale = { 8, { 0.00017160849529318511, 0.00020142296853009611, 0.00013420250616036355, 0.00013416739238891751, 0.00013282157306093723, 0.0001371014368487522, 7.3776041972450912e-05, 0.00016457457968499511, } };
const TfArray<8, int> quant8_zero = { 8, { 0,0,0,0,0,0,0,0 } };
const TfLiteAffineQuantization quant8 = { (TfLiteFloatArray*)&quant8_scale, (TfLiteIntArray*)&quant8_zero, 0 };
const MODEL_SECTION(EI_MODEL_SECTION) ALIGN(16) int8_t tensor_data9[8*1*1*48] = { 
  /* [0][0][][] */ 127,-17,11,-34,12,49,21,42,97,-66,49,21,-34,66,27,-46,7,-15,-10,-21,-3,-56,12,-13,-55,-32,-41,-45,-21,76,-22,44,24,-32,23,-32,68,-58,-36,-5,21,-25,-63,3,41,-26,45,-22, 
  /* [1][0][][] */ 52,-6,-16,69,47,69,18,29,75,-78,-4,0,41,17,-40,-24,-47,-47,-63,-3,4,-43,50,77,-4,-56,3,47,-20,48,-47,127,-27,42,-26,-15,-54,-23,-13,-18,-53,-24,-36,37,28,-10,14,-85, 
  /* [2][0][][] */ -22,-45,-83,42,-70,-7,-17,33,-82,-58,-78,-34,-38,26,-117,-27,49,-63,14,-31,127,82,-17,-15,17,96,30,-72,-28,0,70,-13,-23,26,38,-69,48,-18,66,95,-45,66,22,-21,-57,45,-36,63, 
  /* [3][0][][] */ 5,-13,-24,34,-34,9,4,52,78,89,-127,-17,31,-14,-5,66,-56,-8,8,40,-30,-5,71,22,12,14,-50,42,-21,36,-23,-16,13,29,33,9,58,5,47,-4,-67,74,65,21,18,-10,-33,-34, 
  /* [4][0][][] */ -23,-83,4,-30,5,93,-65,-66,9,-48,67,26,-56,-33,-22,11,52,9,-29,38,-51,-25,98,-23,-83,-8,5,24,16,-34,0,41,-52,37,-30,33,-35,31,-22,28,-37,31,-34,25,127,40,2,-6, 
  /* [5][0][][] */ -57,-52,66,-127,-12,7,-48,-43,-11,60,-39,66,-73,29,51,24,69,47,59,16,33,9,-20,-59,46,-83,-6,-38,-20,-43,23,-66,-16,-33,66,4,-24,32,22,54,100,27,23,-16,-19,-7,-21,30, 
  /* [6][0][][] */ -53,-47,55,16,-48,-83,-10,-57,-112,26,-109,52,18,-30,62,40,-46,32,6,127,-31,-5,84,58,-70,-31,45,9,7,-38,-51,-55,-25,74,85,-94,-42,94,51,-38,-59,81,90,-50,-21,-43,-38,17, 
  /* [7][0][][] */ 11,-7,19,-20,5,15,-43,-31,-127,-28,76,22,12,-22,35,11,21,37,1,-18,-39,17,-16,-36,36,-10,-35,14,-2,-26,-26,-43,-87,-41,-23,-4,41,-23,-25,-3,53,-1,38,-17,10,-33,31,19, 
};
const TfArray<4, int> tensor_dimension9 = { 4, { 8,1,1,48 } };
const TfArray<8, float> quant9_scale = { 8, { 0.007293360773473978, 0.0085604758933186531, 0.0057036066427826881, 0.0057021141983568668, 0.0056449165567755699, 0.0058268108405172825, 0.0031354818493127823, 0.0069944192655384541, } };
const TfLiteAffineQuantization quant9 = { (TfLiteFloatArray*)&quant9_scale, (TfLiteIntArray*)&g0::quant8_zero, 0 };
const MODEL_SECTION(EI_MODEL_SECTION) ALIGN(16) int32_t tensor_data10[48] = { -3433, -1562, 8653, 1604, -2144, -7423, -651, 11956, 8767, -2412, -7644, -7918, -3535, 20293, 15643, -620, 4742, -3847, 7306, -1697, 18694, -5752, -2013, -1064, 4773, -4453, -185, -6042, 7156, -28652, -3115, 922, -3182, -3309, -2052, -1957, 9734, -4456, 2030, -13483, -2441, 10859, -3982, -1457, 1239, -4490, 6390, -3262, };
const TfArray<48, float> quant10_scale = { 48, { 0.00018295011250302196, 0.00015010467905085534, 9.7269061370752752e-05, 0.00010322592424927279, 0.00018563454796094447, 0.00010435344302095473, 0.00016393612895626575, 0.0001252094516530633, 0.00012521252210717648, 0.00059967784909531474, 0.00021642880165018141, 6.7493005190044641e-05, 0.00018854954396374524, 6.5456042648293078e-05, 0.00011456209904281422, 0.00013110143481753767, 0.0001194396973005496, 0.00016402191249653697, 8.8154556578956544e-05, 0.0001969352742889896, 8.9043503976427019e-05, 0.00012338045053184032, 0.00016165734268724918, 0.00013748389028478414, 0.00017331192793790251, 0.000256229133810848, 0.00017016791389323771, 0.00025722553255036473, 9.0113600890617818e-05, 9.2356749519240111e-05, 0.00014159225975163281, 0.00014654600818175822, 0.00010137649951502681, 0.00022235979849938303, 0.00013638251402880996, 0.00012057917047059163, 0.00012263713870197535, 9.4203358457889408e-05, 7.5397198088467121e-05, 7.8168624895624816e-05, 0.00025941047351807356, 7.2796348831616342e-05, 0.00013933185255154967, 0.00015383238496724516, 0.00011339993216097355, 7.6766089478041977e-05, 0.00016215135110542178, 0.00015246272960212082, } };
const TfLiteAffineQuantization quant10 = { (TfLiteFloatArray*)&quant10_scale, (TfLiteIntArray*)&g0::quant6_zero, 0 };
const MODEL_SECTION(EI_MODEL_SECTION) ALIGN(16) int8_t tensor_data11[1*3*3*48] = { 
  /* [0][0][][] */ 72,75,-50,51,2,6,-52,6,47,-107,39,15,12,-112,-52,33,127,25,-86,-3,98,38,-14,-18,61,6,30,-7,-75,-8,-14,-45,127,15,97,23,-37,32,101,42,-68,86,-119,-51,40,-68,-50,9, 98,127,-25,65,12,44,-74,-127,45,51,127,60,4,-27,-40,-6,-83,127,-99,20,40,127,42,-9,18,-2,17,127,-127,91,-25,-127,-13,-27,50,69,-62,127,127,59,-127,-64,69,-4,14,31,-127,89, 49,46,-25,41,0,-1,-39,32,28,-127,35,50,16,-92,-40,-7,112,-22,-44,-12,90,44,-20,47,55,29,12,3,-29,-2,-32,-27,96,27,74,20,-19,21,120,-19,-31,80,45,54,43,70,15,-21, 
  /* [0][1][][] */ -24,-43,-127,108,20,71,74,-26,46,34,-37,127,127,-18,-53,-50,-8,62,68,-20,-116,5,33,-124,34,38,16,23,-15,101,19,49,63,127,44,45,-78,3,-53,95,60,-3,76,-108,21,-83,-2,127, 48,-94,-2,-127,127,9,127,-80,-127,87,9,68,-111,127,127,-5,-102,34,16,127,22,-5,127,-14,-127,127,28,-60,-78,86,-127,72,82,-95,46,127,127,66,1,127,84,-65,-37,13,127,-70,3,35, -13,-35,-108,73,-14,127,53,-17,49,47,-31,122,-25,3,-56,-2,-48,73,127,-44,-127,26,-63,127,0,17,13,41,25,117,32,36,0,1,-3,-121,-42,-29,-2,35,44,70,-29,127,-2,79,-19,75, 
  /* [0][2][][] */ -37,-4,34,28,-15,25,-27,5,31,-4,10,26,52,-93,-51,42,96,27,6,8,-96,25,-7,-8,23,-16,-3,3,16,12,42,2,21,18,127,18,-4,37,69,26,27,73,127,-24,-47,-71,14,-14, -127,5,-33,52,-118,20,-89,-11,32,104,-70,50,-11,-32,0,127,-73,9,-91,-19,-110,46,-6,-31,-24,23,-127,-17,-46,127,42,6,24,-18,19,16,-9,48,-66,30,-36,-127,-126,-30,-122,87,-69,83, -30,-4,-10,23,5,13,-27,-3,30,-63,-3,22,0,-114,-42,16,75,-46,108,13,-79,9,-2,43,14,-17,-14,1,14,10,46,1,42,14,79,21,13,25,90,2,36,67,-65,38,-25,127,15,-47, 
};
const TfArray<4, int> tensor_dimension11 = { 4, { 1,3,3,48 } };
const TfArray<48, float> quant11_scale = { 48, { 0.010335241444408894, 0.008479733020067215, 0.0054949363693594933, 0.0058314520865678787, 0.010486890561878681, 0.0058951480314135551, 0.0092611005529761314, 0.0070733488537371159, 0.0070735220797359943, 0.03387707844376564, 0.012226523831486702, 0.0038128236774355173, 0.010651565156877041, 0.0036977510899305344, 0.0064718569628894329, 0.0074061993509531021, 0.0067474027164280415, 0.0092659471556544304, 0.0049800383858382702, 0.011125292629003525, 0.005030257161706686, 0.0069700246676802635, 0.0091323675587773323, 0.0077667576260864735, 0.0097907595336437225, 0.014474929310381413, 0.0096131479367613792, 0.014531218446791172, 0.0050907093100249767, 0.0052174292504787445, 0.0079988483339548111, 0.0082786958664655685, 0.0057269744575023651, 0.012561578303575516, 0.0077045387588441372, 0.0068117738701403141, 0.0069280327297747135, 0.0053217480890452862, 0.0042593483813107014, 0.0044159120880067348, 0.014654649421572685, 0.0041124206036329269, 0.0078711528331041336, 0.0086903190240263939, 0.0064062033779919147, 0.004336679819971323, 0.0091602746397256851, 0.0086129438132047653, } };
const TfLiteAffineQuantization quant11 = { (TfLiteFloatArray*)&quant11_scale, (TfLiteIntArray*)&g0::quant6_zero, 3 };
const MODEL_SECTION(EI_MODEL_SECTION) ALIGN(16) int32_t tensor_data12[48] = { 29788, 8159, 2141, 1305, 7118, 2326, 5012, 4734, 2899, -8598, 15851, 2200, 9634, 2192, 8480, 2117, 9050, -1040, 17234, -11, 3633, -195, 3185, 9077, 2707, -4551, 2581, 11949, 455, 7546, 2776, 11328, 604, 7458, -1057, -2008, 1912, 2171, 161, 1846, 14414, -1285, 9877, 3177, 719, 5042, 5127, -2975, };
const TfArray<48, float> quant12_scale = { 48, { 3.4918761230073869e-05, 0.00010632035991875455, 0.00014863046817481518, 0.00019971599976997823, 0.00010084431414725259, 0.00016515592869836837, 0.00014717370504513383, 0.00015312425966840237, 0.00014737465244252235, 8.6009851656854153e-05, 6.1390230257529765e-05, 0.00013120140647515655, 8.4079190855845809e-05, 0.00018454057862982154, 9.2355316155590117e-05, 0.00017773146100807935, 9.3944625405129045e-05, 0.00020715984283015132, 5.5673910537734628e-05, 0.00018628363613970578, 0.00018012603686656803, 0.00018048220954369754, 0.00015822774730622768, 8.3761697169393301e-05, 0.00017144573212135583, 0.00014403708337340504, 0.0001627350429771468, 8.0750513006933033e-05, 0.00025499894400127232, 0.00010467696847626939, 0.00015145601355470717, 8.0456440628040582e-05, 0.0001819977187551558, 0.00011640467710094526, 0.00013734743697568774, 0.00018252643349114805, 0.00028704138821922243, 0.00014651351375505328, 0.00021225451200734824, 0.00015692818851675838, 6.6460859670769423e-05, 0.0001661834103288129, 8.9351728092879057e-05, 0.00013140645751263946, 0.00020276704162824899, 0.0001446529058739543, 0.0001220306585310027, 0.00012749203597195446, } };
const TfLiteAffineQuantization quant12 = { (TfLiteFloatArray*)&quant12_scale, (TfLiteIntArray*)&g0::quant6_zero, 0 };
const MODEL_SECTION(EI_MODEL_SECTION) ALIGN(16) int8_t tensor_data13[48*1*1*8] = { 
  /* [0][0][][] */ -127,54,-47,-22,87,56,6,-45, 
  /* [1][0][][] */ -4,-73,-41,-25,-67,-127,-5,20, 
  /* [2][0][][] */ -84,69,16,-39,-69,19,-72,127, 
  /* [3][0][][] */ 48,31,64,-6,-67,-127,34,-27, 
  /* [4][0][][] */ 13,75,-127,44,-123,66,62,16, 
  /* [5][0][][] */ -29,57,43,-29,-90,-127,-63,-16, 
  /* [6][0][][] */ -52,127,107,-34,-87,-32,22,-34, 
  /* [7][0][][] */ -5,-5,30,56,8,-127,8,54, 
  /* [8][0][][] */ 127,9,-64,90,-97,-68,-98,-11, 
  /* [9][0][][] */ 125,-31,-58,-99,-5,-7,-57,127, 
  /* [10][0][][] */ -77,15,19,127,-6,87,30,-99, 
  /* [11][0][][] */ 10,20,82,-12,-4,127,120,109, 
  /* [12][0][][] */ -74,-87,-45,-85,127,-34,-4,44, 
  /* [13][0][][] */ -13,16,-7,63,30,-127,35,33, 
  /* [14][0][][] */ 41,63,79,37,46,-127,-57,-41, 
  /* [15][0][][] */ -47,62,127,31,-7,31,19,-61, 
  /* [16][0][][] */ -76,-15,68,-61,127,7,-73,-13, 
  /* [17][0][][] */ 42,-27,-24,9,-19,127,-37,23, 
  /* [18][0][][] */ -22,127,63,-55,-82,68,108,-102, 
  /* [19][0][][] */ 14,83,86,127,-45,32,62,37, 
  /* [20][0][][] */ 12,24,81,-127,-56,15,59,-26, 
  /* [21][0][][] */ -103,78,15,-111,92,39,127,-4, 
  /* [22][0][][] */ 67,-38,-109,59,58,-46,-61,127, 
  /* [23][0][][] */ 34,-104,-127,-39,73,-24,-82,113, 
  /* [24][0][][] */ 51,-16,-81,6,-47,43,-127,110, 
  /* [25][0][][] */ -22,-24,67,14,127,-11,-106,-43, 
  /* [26][0][][] */ 15,127,119,-24,-44,-27,76,-77, 
  /* [27][0][][] */ -55,28,106,-73,36,21,77,-127, 
  /* [28][0][][] */ 65,-2,95,127,83,-24,30,84, 
  /* [29][0][][] */ 54,51,89,20,-44,20,-127,86, 
  /* [30][0][][] */ 44,12,-127,94,-125,-79,-43,48, 
  /* [31][0][][] */ 29,106,72,-80,-67,43,127,-85, 
  /* [32][0][][] */ 57,-22,0,20,86,127,22,-23, 
  /* [33][0][][] */ 9,-40,-127,5,21,-28,-39,79, 
  /* [34][0][][] */ 41,-50,33,-127,-12,92,-11,10, 
  /* [35][0][][] */ -16,38,90,9,7,-127,16,-37, 
  /* [36][0][][] */ -8,18,-27,-127,-13,0,3,-34, 
  /* [37][0][][] */ 79,-5,-3,-92,-96,127,-53,-92, 
  /* [38][0][][] */ 99,-53,-22,112,68,32,-27,127, 
  /* [39][0][][] */ 127,101,44,79,-19,80,-54,-5, 
  /* [40][0][][] */ 19,-120,-127,-16,23,-9,-71,83, 
  /* [41][0][][] */ -12,-65,-127,-103,12,-78,-52,-24, 
  /* [42][0][][] */ 57,93,75,127,-73,-35,33,61, 
  /* [43][0][][] */ 127,-29,-117,-118,-38,-40,17,60, 
  /* [44][0][][] */ 0,89,127,-97,-66,12,56,-97, 
  /* [45][0][][] */ 35,31,-127,64,-21,11,33,49, 
  /* [46][0][][] */ 63,-40,-71,-127,16,-31,-39,47, 
  /* [47][0][][] */ 103,-114,127,-68,73,-10,25,14, 
};
const TfArray<48, float> quant13_scale = { 48, { 0.00058833713410422206, 0.0017913641640916467, 0.0025042362976819277, 0.003364963224157691, 0.0016990997828543186, 0.0027826693840324879, 0.0024796917568892241, 0.0025799509603530169, 0.002483077347278595, 0.0014491577167063951, 0.0010343480389565229, 0.002210578415542841, 0.0014166284818202257, 0.003109276294708252, 0.0015560707543045282, 0.0029945513233542442, 0.0015828486066311598, 0.0034903825726360083, 0.00093803531490266323, 0.0031386448536068201, 0.0030348969157785177, 0.0030408981256186962, 0.0026659383438527584, 0.0014112790813669562, 0.0028886448126286268, 0.0024268436245620251, 0.0027418807148933411, 0.0013605444692075253, 0.004296411294490099, 0.0017636751290410757, 0.0025518431793898344, 0.0013555897166952491, 0.0030664324294775724, 0.0019612722098827362, 0.0023141314741224051, 0.0030753405299037695, 0.0048362859524786472, 0.0024685682728886604, 0.0035762214101850986, 0.0026440424844622612, 0.0011197817511856556, 0.0027999812737107277, 0.0015054640825837851, 0.0022140333894640207, 0.0034163694363087416, 0.0024372192565351725, 0.0020560629200190306, 0.0021480803843587637, } };
const TfLiteAffineQuantization quant13 = { (TfLiteFloatArray*)&quant13_scale, (TfLiteIntArray*)&g0::quant6_zero, 0 };
const MODEL_SECTION(EI_MODEL_SECTION) ALIGN(16) int32_t tensor_data14[8] = { -14562, -42523, 5762, 11039, -23137, -1722, -35280, -572, };
const TfArray<8, float> quant14_scale = { 8, { 0.00010013235441874713, 5.5806201999075711e-05, 4.1926825360860676e-05, 5.5285661801462993e-05, 5.6258937547681853e-05, 5.3424886573338881e-05, 5.5285705457208678e-05, 7.7882774348836392e-05, } };
const TfLiteAffineQuantization quant14 = { (TfLiteFloatArray*)&quant14_scale, (TfLiteIntArray*)&g0::quant8_zero, 0 };
const MODEL_SECTION(EI_MODEL_SECTION) ALIGN(16) int8_t tensor_data15[8*1*1*48] = { 
  /* [0][0][][] */ 44,44,-76,60,19,13,-106,-22,6,-27,7,-49,-18,9,38,5,37,-19,55,-34,24,-26,47,7,20,-31,-27,14,-10,2,-24,-7,45,24,19,11,127,65,30,-20,-2,-20,-6,-32,75,32,14,-52, 
  /* [1][0][][] */ 60,29,24,1,40,79,-12,-28,33,70,-42,-51,117,-19,6,45,28,30,17,-77,118,-27,39,37,19,30,50,14,23,-60,67,82,49,96,-1,127,64,21,12,11,94,5,35,20,23,34,104,-76, 
  /* [2][0][][] */ -32,28,85,127,-47,40,9,50,38,98,-5,-80,-30,112,35,44,-77,-117,73,24,-4,48,-52,-113,-55,-29,48,-13,-123,15,16,10,-53,-47,-100,-56,15,19,-116,-41,-7,-77,-34,48,92,-105,-41,17, 
  /* [3][0][][] */ -32,41,-75,-3,23,-85,-4,76,111,-85,-47,11,-5,-13,2,64,12,3,-18,-37,-3,39,-74,46,-18,-38,31,-17,70,-27,28,-68,34,-20,-38,-53,-127,-2,-77,28,-18,-66,36,-19,-60,20,-8,-37, 
  /* [4][0][][] */ 44,-8,27,-42,-63,94,51,70,-112,-48,34,52,71,-64,-75,-77,108,69,43,-16,13,-110,-23,23,-51,2,-33,-127,-67,-61,112,68,91,1,115,93,55,71,43,20,24,34,-48,-15,103,58,80,-57, 
  /* [5][0][][] */ 29,60,38,78,17,40,-51,-91,-95,19,-15,6,12,68,42,-64,61,107,-16,15,-14,-52,-11,-47,-94,-86,-47,66,2,31,-36,47,-3,-79,71,17,-24,127,-14,-94,-23,-20,-27,-32,-2,-2,-27,104, 
  /* [6][0][][] */ 127,39,1,118,-92,7,11,55,25,-75,103,91,75,-30,-20,-57,55,27,-74,9,83,-16,-45,23,21,61,-64,-38,33,-50,59,56,28,-41,10,105,107,-77,29,19,-115,99,-126,60,48,127,114,-39, 
  /* [7][0][][] */ 21,22,127,46,-40,45,-83,15,-32,84,1,0,50,43,11,6,-60,-9,-49,-3,-20,29,-7,-39,-5,38,44,-22,12,3,4,-17,-90,-19,68,33,85,-7,31,-13,-20,-42,-28,-39,-10,-15,15,17, 
};
const TfArray<8, float> quant15_scale = { 8, { 0.0053940052166581154, 0.0030062105506658554, 0.0022585457190871239, 0.0029781695920974016, 0.0030305988620966673, 0.0028779320418834686, 0.0029781719204038382, 0.0041954480111598969, } };
const TfLiteAffineQuantization quant15 = { (TfLiteFloatArray*)&quant15_scale, (TfLiteIntArray*)&g0::quant8_zero, 0 };
const MODEL_SECTION(EI_MODEL_SECTION) ALIGN(16) int32_t tensor_data16[48] = { 12068, -16456, -1503, 3111, -2773, 12082, 2489, -5563, -7171, 3529, -3443, -3059, -9327, -11713, 4372, 333, -6873, 28435, -6614, -12065, 21282, -1600, -3987, -3904, -4415, -1453, -5283, 869, -620, 3853, 2632, 22662, 20690, 1531, -1269, 16118, -454, 24328, 776, -3981, -5595, -7673, -1160, 4577, 4510, 23457, 10490, -5876, };
const TfArray<48, float> quant16_scale = { 48, { 9.8584816441871226e-05, 6.6469765442889184e-05, 0.00063251605024561286, 0.00018492934759706259, 0.00013810100790578872, 0.00010764385660877451, 9.9272896477486938e-05, 0.0002334922319278121, 0.00011249307863181457, 0.00022351043298840523, 0.00015472466475330293, 9.2677088105119765e-05, 0.00012046647316310555, 0.00010703478619689122, 0.00011932975758099928, 7.7715791121590883e-05, 8.2154096162412316e-05, 6.33367890259251e-05, 0.00020195961405988783, 6.0919468523934484e-05, 6.7371445766184479e-05, 0.00017881515668705106, 0.00012327898002695292, 0.00014226156054064631, 0.00014505161379929632, 0.0002544758899603039, 0.00017254907288588583, 0.00015523727051913738, 0.00015337664808612317, 0.00012786239676643163, 8.5133047832641751e-05, 0.00010058539191959426, 6.5517662733327597e-05, 0.00015425050514750183, 0.00014506920706480742, 0.00011619271390372887, 0.00029061833629384637, 0.00010448186367284507, 8.8027183664962649e-05, 0.00025354584795422852, 0.00011927240120712668, 0.00015363929560407996, 0.00016310406499542296, 0.00012530642561614513, 0.00013866201334167272, 7.1440656029153615e-05, 0.00011721591727109626, 0.0001521553349448368, } };
const TfLiteAffineQuantization quant16 = { (TfLiteFloatArray*)&quant16_scale, (TfLiteIntArray*)&g0::quant6_zero, 0 };
const MODEL_SECTION(EI_MODEL_SECTION) ALIGN(16) int8_t tensor_data17[1*3*3*48] = { 
  /* [0][0][][] */ -114,-25,48,2,127,-31,29,17,16,17,18,-8,1,20,-85,20,57,-92,-7,38,-61,25,-36,1,-4,16,26,-37,-33,127,36,-101,-54,120,127,-80,19,-71,-127,-21,20,3,-12,-54,1,-24,-99,31, -97,120,-17,26,3,-79,124,-13,62,1,115,127,48,127,-5,48,67,-127,16,52,-81,-17,112,-81,18,48,-74,32,-47,-84,121,-127,-127,-76,36,-50,-54,-42,-102,28,-38,-3,30,-127,29,-11,5,46, -54,0,23,0,41,-27,23,6,29,14,61,-49,-6,4,-65,24,29,-56,-3,31,-22,-5,-47,9,42,17,19,-125,-47,43,-67,-90,21,-2,115,-61,23,-62,-92,20,23,9,22,-33,-14,0,-127,-38, 
  /* [0][1][][] */ -127,127,-7,-60,26,-66,29,5,20,24,-1,67,95,57,-82,16,127,-106,23,83,-25,-83,-95,-20,-127,-2,-18,3,-23,-5,77,-85,-73,127,-59,-28,32,-74,32,82,-71,28,-89,65,-11,-127,22,-24, 45,96,127,127,-27,74,-127,127,127,-127,-17,73,127,87,127,-106,-59,-60,127,-37,-127,127,127,17,120,82,66,127,127,-77,127,-4,-41,-110,-4,-127,127,127,100,79,-33,127,-31,60,127,6,6,-127, -42,46,-77,-52,-71,-102,23,-12,5,12,88,63,42,67,-44,105,58,-70,2,101,49,-108,-95,-23,43,-18,-19,8,4,19,85,-60,-5,-43,-66,-51,25,-111,46,-127,-47,25,127,82,-26,-75,-7,107, 
  /* [0][2][][] */ -12,-37,-35,-13,49,-39,41,15,14,36,127,39,31,-26,-53,127,89,-4,-35,29,-39,21,-48,47,-8,-1,-11,-42,30,58,-48,10,-22,34,-42,52,-52,-48,51,-31,89,6,-2,-15,-18,-38,25,5, -62,80,-15,16,-68,-127,80,-55,39,29,64,-53,-38,-4,-36,127,79,30,-12,127,-93,14,68,127,24,-127,127,-5,41,-63,-110,-78,14,-63,-16,-86,-80,-90,24,47,127,43,-46,30,-31,-107,-72,11, 67,-47,-19,-9,-11,-61,15,20,18,30,41,30,35,-9,-30,85,33,-7,-43,27,0,9,-59,41,17,0,-14,-91,21,-14,-53,18,2,-10,-7,61,-45,-37,53,15,57,-15,32,-14,-26,-72,20,55, 
};
const TfArray<48, float> quant17_scale = { 48, { 0.0055940812453627586, 0.0037717497907578945, 0.035891391336917877, 0.01049360167235136, 0.0078363819047808647, 0.0061081261374056339, 0.0056331255473196507, 0.013249246403574944, 0.0063832895830273628, 0.012682841159403324, 0.0087796719744801521, 0.0052588540129363537, 0.0068357307463884354, 0.0060735652223229408, 0.0067712287418544292, 0.0044098924845457077, 0.0046617388725280762, 0.0035939726512879133, 0.011459964327514172, 0.0034568046685308218, 0.0038229147903621197, 0.01014665886759758, 0.0069953231140971184, 0.0080724675208330154, 0.0082307858392596245, 0.014439940452575684, 0.009791097603738308, 0.0088087590411305428, 0.0087031805887818336, 0.0072554037906229496, 0.0048307762481272221, 0.0057076015509665012, 0.0037177237682044506, 0.008752766065299511, 0.0082317842170596123, 0.0065932208672165871, 0.016490800306200981, 0.0059287021867930889, 0.0049950005486607552, 0.014387165196239948, 0.0067679742351174355, 0.0087180836126208305, 0.0092551512643694878, 0.0071103684604167938, 0.0078682154417037964, 0.004053817130625248, 0.0066512813791632652, 0.008633878082036972, } };
const TfLiteAffineQuantization quant17 = { (TfLiteFloatArray*)&quant17_scale, (TfLiteIntArray*)&g0::quant6_zero, 3 };
const MODEL_SECTION(EI_MODEL_SECTION) ALIGN(16) int32_t tensor_data18[48] = { 1107, 13390, -6440, 6478, 2536, 6520, 3825, 16282, 13361, 6240, -4026, -1117, 2053, 5657, 3907, -970, -234, 8162, 14464, 833, 2770, 8425, 3844, 6595, 13901, 12271, 1452, 11290, 1871, 5230, -3138, 10959, 2122, 10873, 5007, 5836, 47121, 12116, 5990, 14094, 1443, 717, 4577, 1215, 3919, 1897, 3492, 2243, };
const TfArray<48, float> quant18_scale = { 48, { 0.00023306894581764936, 6.1942911997903138e-05, 0.00011880919191753492, 9.6806907095015049e-05, 0.00016792770475149155, 9.7724238003138453e-05, 0.00011626205377979204, 5.6522498198319227e-05, 5.8973102568415925e-05, 0.00012446407345123589, 0.00010977084457408637, 0.0001060272115864791, 0.00014287323574535549, 0.00011245394125580788, 0.00013410983956418931, 0.00014597074186895043, 0.00015511676610913128, 8.0919446190819144e-05, 6.0246027715038508e-05, 0.00010459731856826693, 0.00015798640379216522, 9.2166708782315254e-05, 0.00014890010061208159, 0.00010284224117640406, 6.1648941482417285e-05, 7.4347226473037153e-05, 0.00014815111353527755, 8.826472912915051e-05, 0.00016432715347036719, 0.00014317796740215272, 0.00017556223610881716, 7.8351797128561884e-05, 0.00018874992383643985, 7.473597361240536e-05, 0.00011558976257219911, 0.00012100486492272466, 3.348398968228139e-05, 7.6956195698585361e-05, 9.4296192401088774e-05, 6.5207117586396635e-05, 0.00019191087631043047, 0.0002016593498410657, 0.00015634903684258461, 0.00013862673949915916, 0.00014974689111113548, 0.00014136880054138601, 0.00013957048940937966, 0.00017115278751589358, } };
const TfLiteAffineQuantization quant18 = { (TfLiteFloatArray*)&quant18_scale, (TfLiteIntArray*)&g0::quant6_zero, 0 };
const MODEL_SECTION(EI_MODEL_SECTION) ALIGN(16) int8_t tensor_data19[48*1*1*8] = { 
  /* [0][0][][] */ -82,-127,-40,22,-33,-26,44,-54, 
  /* [1][0][][] */ -20,127,47,-103,7,-85,-70,112, 
  /* [2][0][][] */ -127,-75,39,-4,74,0,31,-4, 
  /* [3][0][][] */ -15,-56,-127,-76,35,-39,-30,60, 
  /* [4][0][][] */ -47,-108,83,-30,127,-68,30,5, 
  /* [5][0][][] */ -7,40,50,-92,109,52,-71,127, 
  /* [6][0][][] */ -117,109,31,76,-48,-19,54,-127, 
  /* [7][0][][] */ 33,-20,81,28,60,-125,-24,127, 
  /* [8][0][][] */ 7,48,-6,-33,27,127,127,-88, 
  /* [9][0][][] */ 62,127,2,-60,-67,-74,-30,92, 
  /* [10][0][][] */ 47,10,58,22,-29,51,-120,-127, 
  /* [11][0][][] */ -76,32,-127,-92,115,5,54,67, 
  /* [12][0][][] */ 78,33,-34,-11,127,81,8,4, 
  /* [13][0][][] */ -127,-121,-23,36,-79,40,60,12, 
  /* [14][0][][] */ -4,87,-82,100,-31,127,-32,15, 
  /* [15][0][][] */ 6,-72,-22,-59,127,65,-38,45, 
  /* [16][0][][] */ 72,-86,9,53,35,-9,31,-127, 
  /* [17][0][][] */ -71,-78,-123,120,19,102,61,-127, 
  /* [18][0][][] */ 74,-16,127,-5,-24,-114,-101,-28, 
  /* [19][0][][] */ -37,121,19,19,111,-127,-75,-29, 
  /* [20][0][][] */ -80,-7,-127,-56,24,-7,-2,9, 
  /* [21][0][][] */ -122,-25,26,71,-96,-124,127,-71, 
  /* [22][0][][] */ 54,-12,-127,-54,-21,-19,-3,49, 
  /* [23][0][][] */ -51,17,127,-47,-96,24,-34,-60, 
  /* [24][0][][] */ -62,94,63,115,127,62,8,-53, 
  /* [25][0][][] */ -43,-127,-60,53,-77,46,57,-24, 
  /* [26][0][][] */ 93,125,-127,-68,-111,-56,-96,54, 
  /* [27][0][][] */ 62,46,-68,16,-127,8,-33,-4, 
  /* [28][0][][] */ -35,60,17,-74,94,94,-102,-127, 
  /* [29][0][][] */ 36,-8,-4,-91,-127,-2,12,-66, 
  /* [30][0][][] */ -81,9,34,127,59,15,-37,-27, 
  /* [31][0][][] */ 35,-117,-14,-74,-123,52,-78,-127, 
  /* [32][0][][] */ -127,7,21,-20,18,-40,-1,13, 
  /* [33][0][][] */ 30,-88,-121,-127,-14,19,-77,20, 
  /* [34][0][][] */ 44,104,127,1,-91,-45,78,-76, 
  /* [35][0][][] */ 127,4,16,4,-108,-23,-127,-55, 
  /* [36][0][][] */ 127,2,86,-54,21,-9,50,77, 
  /* [37][0][][] */ 104,97,-19,-17,85,64,-127,41, 
  /* [38][0][][] */ -59,68,127,92,-28,72,4,-80, 
  /* [39][0][][] */ 24,56,127,-38,79,-51,-39,17, 
  /* [40][0][][] */ 60,31,21,-6,-98,-127,49,-37, 
  /* [41][0][][] */ 33,-34,34,127,-27,57,-4,52, 
  /* [42][0][][] */ 3,-102,87,-29,127,-23,94,31, 
  /* [43][0][][] */ -8,-28,-100,-24,91,35,-50,127, 
  /* [44][0][][] */ 89,-13,127,4,-3,44,-51,3, 
  /* [45][0][][] */ -15,27,13,-36,-64,-127,-21,72, 
  /* [46][0][][] */ -65,58,89,25,-4,-11,41,-127, 
  /* [47][0][][] */ 10,-6,27,112,-16,-127,66,45, 
};
const TfArray<48, float> quant19_scale = { 48, { 0.0052894079126417637, 0.001405770075507462, 0.0026963278651237488, 0.0021969946101307869, 0.0038110530003905296, 0.0022178131621330976, 0.0026385216042399406, 0.0012827558675780892, 0.0013383713085204363, 0.0028246631845831871, 0.0024912061635404825, 0.0024062457960098982, 0.0032424516975879669, 0.0025520978961139917, 0.003043570090085268, 0.0033127483911812305, 0.0035203138832002878, 0.0018364349380135536, 0.001367259887047112, 0.0023737950250506401, 0.0035854391753673553, 0.0020916871726512909, 0.0033792289905250072, 0.0023339642211794853, 0.0013990984298288822, 0.0016872810665518045, 0.0033622311893850565, 0.0020031332969665527, 0.0037293401546776295, 0.0032493676990270615, 0.0039843157865107059, 0.0017781631322577596, 0.0042836051434278488, 0.001696103485301137, 0.0026232642121613026, 0.0027461578138172626, 0.00075990596087649465, 0.0017464905977249146, 0.00214001489803195, 0.0014798498013988137, 0.004355341661721468, 0.0045765796676278114, 0.0035482798703014851, 0.0031460793688893318, 0.003398446599021554, 0.0032083091791719198, 0.0031674972269684076, 0.0038842451758682728, } };
const TfLiteAffineQuantization quant19 = { (TfLiteFloatArray*)&quant19_scale, (TfLiteIntArray*)&g0::quant6_zero, 0 };
const MODEL_SECTION(EI_MODEL_SECTION) ALIGN(16) int32_t tensor_data20[8] = { 3084, -3191, 13920, -9848, -12594, -14177, -8983, -2135, };
const TfArray<8, float> quant20_scale = { 8, { 7.2970418841578066e-05, 0.00012656519538722932, 0.00011824334796983749, 0.00010487301915418357, 9.8704207630362362e-05, 0.00014945365546736866, 0.00015942358004394919, 0.00016911770217120647, } };
const TfLiteAffineQuantization quant20 = { (TfLiteFloatArray*)&quant20_scale, (TfLiteIntArray*)&g0::quant8_zero, 0 };
const MODEL_SECTION(EI_MODEL_SECTION) ALIGN(16) int8_t tensor_data21[8*1*1*48] = { 
  /* [0][0][][] */ -17,-45,56,-67,64,83,83,106,126,-44,-27,69,-39,-35,12,-20,50,49,3,-51,-22,27,-97,-37,30,1,21,-78,-29,21,41,18,17,43,66,20,117,-49,-72,7,-58,-76,-40,-7,-81,-86,-127,71, 
  /* [1][0][][] */ -3,8,-38,57,-4,19,-34,-14,-51,14,16,80,-28,14,-19,127,39,46,17,-22,-32,-30,-66,26,3,-9,-11,-69,48,0,-60,-58,63,-30,-26,-58,38,29,49,-36,9,68,45,-34,0,-25,-43,-18, 
  /* [2][0][][] */ 4,-67,-28,-1,-22,14,8,5,118,29,-18,-27,-20,-75,38,7,-12,-54,-18,-15,-113,60,14,32,10,36,-48,-36,-19,-52,50,-55,-102,26,-51,48,-64,63,-30,-21,127,-17,3,45,37,35,-51,-39, 
  /* [3][0][][] */ -24,-120,95,50,32,-98,-16,-6,-117,127,66,-50,41,2,-13,27,60,39,-17,46,83,79,32,-57,1,90,67,25,-25,-68,13,13,-28,9,44,18,-12,-89,-38,47,-16,-1,28,-63,-84,23,8,27, 
  /* [4][0][][] */ -20,63,-17,81,36,6,3,-5,-61,85,47,68,7,20,60,10,6,-103,-1,-15,82,-7,-96,59,78,-31,22,21,53,20,-6,-53,-52,127,-2,15,68,-31,17,27,-34,48,2,-24,10,-57,-40,18, 
  /* [5][0][][] */ -15,2,0,-69,-127,33,99,35,7,48,-13,-17,-106,-15,57,-25,-66,27,-42,-60,5,99,-10,37,91,31,1,13,-37,-15,112,-38,-3,84,59,85,-27,44,90,33,-17,-33,-27,27,-64,53,20,56, 
  /* [6][0][][] */ 4,-17,-7,27,-67,-61,19,6,32,-20,43,12,-50,-22,30,54,4,-68,10,-67,78,-29,-7,-25,17,3,18,51,35,5,14,127,44,-14,-8,18,-4,-4,31,14,2,34,-33,-45,-10,-17,-16,39, 
  /* [7][0][][] */ -29,-12,-48,1,5,-21,-1,5,34,-1,16,-2,-4,17,-3,-7,26,-11,4,-5,-52,4,6,-24,5,-9,-57,-11,-9,-11,13,26,18,-11,31,6,-19,127,-10,-37,-45,-5,-50,-27,25,59,-73,-15, 
};
const TfArray<8, float> quant21_scale = { 8, { 0.0032535064965486526, 0.0056431181728839874, 0.0052720746025443077, 0.0046759364195168018, 0.0044008898548781872, 0.0066636377014219761, 0.0071081630885601044, 0.0075403917580842972, } };
const TfLiteAffineQuantization quant21 = { (TfLiteFloatArray*)&quant21_scale, (TfLiteIntArray*)&g0::quant8_zero, 0 };
const MODEL_SECTION(EI_MODEL_SECTION) ALIGN(16) int32_t tensor_data22[48] = { 10, 33812, 38490, -1142, 110, -19245, 23399, 28273, -11037, 6728, -1957, 20911, 29839, -22725, -17842, -4093, -1025, 35994, -1753, -1942, 55162, 16610, -10834, -7539, 12011, 20880, -3371, -2535, -7406, -678, 38405, -3657, -7885, 11020, 15144, 18054, -3002, 72150, -4197, -651, 32008, 401, -2574, 14822, 345, -1357, -6357, 15469, };
const TfArray<48, float> quant22_scale = { 48, { 0.0002118170668836683, 8.3680846728384495e-05, 7.3685652751009911e-05, 9.9764314654748887e-05, 6.8018140154890716e-05, 0.00010232759814243764, 9.873999806586653e-05, 5.4483029089169577e-05, 0.00014868425205349922, 3.9155682316049933e-05, 0.00010270080383634195, 9.38462108024396e-05, 6.2182130932342261e-05, 0.000142115299240686, 6.2977262132335454e-05, 6.838236004114151e-05, 4.7566820285283029e-05, 0.00011730060214176774, 0.00024830870097503066, 6.76158451824449e-05, 4.7933652240317315e-05, 8.3902305050287396e-05, 9.9428078101482242e-05, 0.00011654548870865256, 0.00012855960812885314, 9.2187976406421512e-05, 0.00012750373571179807, 0.00011681026080623269, 8.4281098679639399e-05, 0.0001742696767905727, 9.816688543651253e-05, 8.5136700363364071e-05, 5.560545832850039e-05, 0.00014237620052881539, 7.4707313615363091e-05, 7.4205323471687734e-05, 7.2388771513942629e-05, 4.5453500206349418e-05, 7.4875504651572555e-05, 7.7357901318464428e-05, 0.00010576882777968422, 0.00016305308963637799, 3.6264671507524326e-05, 0.00010800433665281162, 0.00013330952788237482, 0.00011254927085246891, 0.00015392046771012247, 7.4559888162184507e-05, } };
const TfLiteAffineQuantization quant22 = { (TfLiteFloatArray*)&quant22_scale, (TfLiteIntArray*)&g0::quant6_zero, 0 };
const MODEL_SECTION(EI_MODEL_SECTION) ALIGN(16) int8_t tensor_data23[1*3*3*48] = { 
  /* [0][0][][] */ 28,-97,-37,18,51,45,-49,-70,-19,34,115,-84,-35,96,102,32,72,-89,34,92,-94,-52,29,48,-49,-51,70,40,57,72,-48,60,60,-46,-94,-46,44,-88,64,15,-65,35,58,-55,31,127,39,-55, 92,-107,-75,46,66,57,-40,-98,8,58,99,-109,-124,127,88,50,75,-86,53,106,-126,-60,65,97,-30,-60,104,65,84,121,-46,72,60,-56,-127,-58,93,-95,58,40,-127,44,68,-66,66,119,53,-79, 44,-44,-51,20,9,5,-16,-72,29,-9,36,-27,-75,27,88,18,-2,-36,6,28,-25,-32,26,24,6,-5,24,13,39,16,-27,-1,37,-22,-24,-1,6,-42,4,25,-37,16,25,-2,41,38,5,-18, 
  /* [0][1][][] */ 17,-82,-65,69,102,82,-119,-96,72,86,99,-79,-110,88,127,93,127,-96,42,97,-108,-97,77,102,-67,-126,115,98,115,127,-73,120,115,-122,-125,-115,97,-102,127,82,-94,94,116,-127,79,87,39,-102, 27,-127,-127,127,127,127,-127,-127,105,127,127,-127,-103,122,119,127,125,-127,62,127,-127,-127,127,127,-127,-127,127,127,127,118,-127,127,127,-127,-82,-127,127,-127,125,127,-123,127,127,-116,127,93,47,-127, 9,-52,-71,76,53,38,-73,-65,77,73,31,-59,-55,25,78,63,46,-51,14,37,-16,-86,37,23,-41,-5,31,56,29,14,-54,10,61,-79,-44,-72,32,-22,41,52,-42,81,84,-18,53,-18,8,-76, 
  /* [0][2][][] */ -54,-17,-52,59,1,42,-30,-57,-127,74,15,-35,-111,68,64,63,110,11,-68,35,-16,-76,42,45,-35,-77,75,31,37,0,-50,24,42,-22,-13,-43,17,-71,64,69,-23,37,77,-56,66,8,-106,-3, -127,-59,-93,85,12,70,-33,-63,-103,99,16,-51,-127,55,72,63,99,-4,-127,64,-71,-84,53,37,-47,-45,54,62,44,3,-74,16,57,-64,18,-52,35,-65,55,98,-2,25,79,-32,86,-36,-127,-50, -77,-13,-67,54,-7,20,7,-41,-111,69,21,-21,-40,32,49,54,-7,-4,-73,3,-28,-73,20,37,-30,0,15,30,14,1,-45,-3,10,-24,22,-70,-13,-24,5,43,10,9,76,-10,43,-19,-60,-18, 
};
const TfArray<48, float> quant23_scale = { 48, { 0.012025501579046249, 0.0047508170828223228, 0.0041833594441413879, 0.0056639248505234718, 0.0038615972734987736, 0.0058094500564038754, 0.0056057712063193321, 0.003093167906627059, 0.0084412591531872749, 0.0022229875903576612, 0.0058306381106376648, 0.0053279357962310314, 0.00353026925586164, 0.0080683194100856781, 0.0035754116252064705, 0.0038822751957923174, 0.002700513694435358, 0.0066595133394002914, 0.014097243547439575, 0.0038387579843401909, 0.0027213396970182657, 0.0047633899375796318, 0.0056448355317115784, 0.006616643164306879, 0.0072987214662134647, 0.0052337930537760258, 0.0072387759573757648, 0.0066316751763224602, 0.0047848951071500778, 0.0098938215523958206, 0.0055732335895299911, 0.0048334705643355846, 0.0031568915583193302, 0.0080831311643123627, 0.0042413622140884399, 0.0042128628119826317, 0.0041097314096987247, 0.0025805339682847261, 0.0042509110644459724, 0.0043918443843722343, 0.006004819180816412, 0.0092570213600993156, 0.002058856189250946, 0.0061317360959947109, 0.0075683887116611004, 0.0063897655345499516, 0.0087385345250368118, 0.0042329924181103706, } };
const TfLiteAffineQuantization quant23 = { (TfLiteFloatArray*)&quant23_scale, (TfLiteIntArray*)&g0::quant6_zero, 3 };
const MODEL_SECTION(EI_MODEL_SECTION) ALIGN(16) int32_t tensor_data24[48] = { -3489, 8416, 10706, -2198, -188, 19430, 6602, 2880, 31386, 1887, -4831, 2589, 8335, 3035, -608, 807, -2171, 24304, -4071, -1403, 1325, 2199, 1078, -1017, -106, 4223, -4023, -2073, -1202, -3267, 18864, 5388, 1163, 2424, 468, 1756, 1543, 11801, 2290, 424, 11922, -3943, 902, 3208, -4295, -3636, 26524, 5576, };
const TfArray<48, float> quant24_scale = { 48, { 0.00013981260417494923, 0.00010216794908046722, 7.9968951467890292e-05, 0.00013277844118420035, 0.00025784195167943835, 4.9665439291857183e-05, 0.00012598725152201951, 0.00012791236804332584, 3.5646011383505538e-05, 0.00023328831593971699, 0.00010272439976688474, 0.00017825703253038228, 8.0955891462508589e-05, 0.00015838624676689506, 0.00022473327408079058, 0.00015093204274307936, 0.00017713090346660465, 4.1273284296039492e-05, 0.00012551638064906001, 0.0002314365265192464, 0.00026465367409400642, 0.00013640969700645655, 0.00016266139573417604, 0.00021855492377653718, 0.00017203977040480822, 0.00014670191740151495, 0.0001189789327327162, 0.00013408207450993359, 0.00017684105841908604, 0.00012292039173189551, 5.8157802413916215e-05, 0.00013732817023992538, 0.00020488750305958092, 0.00016040535410866141, 0.00015214283484965563, 0.00018068525241687894, 0.00015350828471127898, 6.8697772803716362e-05, 0.00020344305085018277, 0.00014401541557163, 8.4254737885203212e-05, 8.0158395576290786e-05, 0.00018318420916330069, 0.00014899855887051672, 0.00013795240374747664, 0.00012826336023863405, 4.126688145333901e-05, 9.4311471912078559e-05, } };
const TfLiteAffineQuantization quant24 = { (TfLiteFloatArray*)&quant24_scale, (TfLiteIntArray*)&g0::quant6_zero, 0 };
const MODEL_SECTION(EI_MODEL_SECTION) ALIGN(16) int8_t tensor_data25[48*1*1*8] = { 
  /* [0][0][][] */ 48,6,-58,10,-64,71,-127,26, 
  /* [1][0][][] */ 13,-54,-127,7,-3,-13,109,-93, 
  /* [2][0][][] */ -115,-62,-66,-55,-37,45,-127,4, 
  /* [3][0][][] */ -66,-41,19,-22,-33,-127,-119,-12, 
  /* [4][0][][] */ -52,-127,-51,9,61,18,-36,-37, 
  /* [5][0][][] */ 71,-37,81,67,-127,62,-62,-117, 
  /* [6][0][][] */ 41,-127,-53,-41,-4,47,-51,-67, 
  /* [7][0][][] */ -15,-112,-48,-82,62,-127,-8,35, 
  /* [8][0][][] */ 33,66,34,50,44,-35,0,127, 
  /* [9][0][][] */ -21,-59,-49,11,44,-11,127,-17, 
  /* [10][0][][] */ -19,30,-127,35,35,31,93,-113, 
  /* [11][0][][] */ 5,-36,-34,3,-127,24,6,53, 
  /* [12][0][][] */ 121,99,8,53,-69,127,92,-31, 
  /* [13][0][][] */ -39,-12,28,-14,42,-127,-9,60, 
  /* [14][0][][] */ -111,-42,13,32,1,63,-127,-123, 
  /* [15][0][][] */ 66,72,54,9,-127,49,102,-52, 
  /* [16][0][][] */ -2,-59,12,64,3,-60,4,-127, 
  /* [17][0][][] */ -94,127,36,-24,-65,-53,-93,-75, 
  /* [18][0][][] */ 71,127,-79,-99,74,62,-97,-45, 
  /* [19][0][][] */ -16,75,-13,3,-127,11,-61,-101, 
  /* [20][0][][] */ -127,-9,13,2,31,12,91,49, 
  /* [21][0][][] */ -24,0,63,3,-85,-109,-127,30, 
  /* [22][0][][] */ -6,-40,-49,-10,-127,11,7,65, 
  /* [23][0][][] */ 62,3,-16,-3,127,63,-65,61, 
  /* [24][0][][] */ 127,5,-80,16,-116,17,4,7, 
  /* [25][0][][] */ 18,-27,53,100,-29,-127,28,87, 
  /* [26][0][][] */ 29,127,18,67,92,-14,32,-27, 
  /* [27][0][][] */ -127,108,68,-24,109,-54,11,115, 
  /* [28][0][][] */ -57,-61,-48,-30,70,-127,13,-13, 
  /* [29][0][][] */ -46,-29,53,52,127,-99,-75,58, 
  /* [30][0][][] */ 127,32,-112,-122,-93,-93,-83,-62, 
  /* [31][0][][] */ 32,11,39,78,-127,12,37,3, 
  /* [32][0][][] */ 127,17,62,40,-27,-62,83,47, 
  /* [33][0][][] */ 127,38,-63,3,-111,-50,21,62, 
  /* [34][0][][] */ 48,-21,-17,21,-45,127,17,-77, 
  /* [35][0][][] */ 127,17,-34,-44,25,-108,33,126, 
  /* [36][0][][] */ -26,-28,54,-72,-14,-20,80,-127, 
  /* [37][0][][] */ 69,-50,46,58,112,2,47,-127, 
  /* [38][0][][] */ 57,127,12,-26,-26,24,17,83, 
  /* [39][0][][] */ 14,21,-94,86,-17,-53,-67,127, 
  /* [40][0][][] */ -16,-22,-8,-22,22,-127,15,34, 
  /* [41][0][][] */ -16,46,-111,-52,93,127,67,-107, 
  /* [42][0][][] */ 33,-64,-36,18,69,127,45,45, 
  /* [43][0][][] */ 20,67,-36,51,-127,-86,67,-83, 
  /* [44][0][][] */ -127,-56,-2,-40,42,48,-106,-57, 
  /* [45][0][][] */ -65,76,-70,32,50,7,-69,127, 
  /* [46][0][][] */ -23,55,127,0,-63,-77,-39,27, 
  /* [47][0][][] */ -122,-127,-29,-74,97,102,-25,107, 
};
const TfArray<48, float> quant25_scale = { 48, { 0.0024257756303995848, 0.0017726336373016238, 0.0013874768046662211, 0.0023037316277623177, 0.0044736075215041637, 0.0008617049315944314, 0.0021859032567590475, 0.002219304209575057, 0.00061846518656238914, 0.0040475972928106785, 0.0017822881927713752, 0.0030927939806133509, 0.001404600334353745, 0.0027480318676680326, 0.0038991656620055437, 0.0026187000330537558, 0.0030732552986592054, 0.00071609945734962821, 0.0021777334623038769, 0.0040154685266315937, 0.004591792356222868, 0.0023667346686124802, 0.0028222065884619951, 0.0037919702008366585, 0.0029849233105778694, 0.0025453066918998957, 0.0020643074531108141, 0.0023263499606400728, 0.0030682266224175692, 0.0021326926071196795, 0.0010090491268783808, 0.002382670296356082, 0.00355483777821064, 0.0027830637991428375, 0.0026397076435387135, 0.0031349239870905876, 0.0026633983943611383, 0.001191919669508934, 0.0035297761205583811, 0.0024986953940242529, 0.0014618359273299575, 0.0013907636748626828, 0.0031782814767211676, 0.0025851537939161062, 0.002393500879406929, 0.0022253941278904676, 0.0007159883389249444, 0.0016363222384825349, } };
const TfLiteAffineQuantization quant25 = { (TfLiteFloatArray*)&quant25_scale, (TfLiteIntArray*)&g0::quant6_zero, 0 };
const MODEL_SECTION(EI_MODEL_SECTION) ALIGN(16) int32_t tensor_data26[8] = { 8318, 14435, 5217, 4761, 2172, -17992, 6356, -8026, };
const TfArray<8, float> quant26_scale = { 8, { 0.00011948702012887225, 0.00014388079580385238, 0.00012886994227301329, 0.0001927122357301414, 0.00011292389535810798, 0.00013655044313054532, 6.7345426941756159e-05, 0.00010071280848933384, } };
const TfLiteAffineQuantization quant26 = { (TfLiteFloatArray*)&quant26_scale, (TfLiteIntArray*)&g0::quant8_zero, 0 };
const MODEL_SECTION(EI_MODEL_SECTION) ALIGN(16) int8_t tensor_data27[8*1*1*48] = { 
  /* [0][0][][] */ 55,-43,110,80,29,-43,29,-1,5,69,-20,30,-64,-75,52,13,-114,61,-24,75,-47,72,8,-42,10,-42,79,-37,-15,37,-27,104,-67,-6,-38,-94,-65,-62,-37,-1,-12,57,-127,5,50,32,47,51, 
  /* [1][0][][] */ -50,-27,72,2,-21,25,-31,-18,53,-14,1,-27,-9,19,-2,12,8,24,11,-14,-56,-18,-79,-24,32,-42,-26,-29,9,-64,7,-127,1,-63,-63,-67,-48,-87,-18,25,49,-10,81,-105,-37,-16,-21,0, 
  /* [2][0][][] */ -48,96,-14,50,13,7,14,-34,69,-51,74,96,92,14,31,-56,91,-9,1,14,-20,31,5,127,-104,-54,24,-21,-4,92,-5,-93,-27,0,12,-87,-35,7,-27,-7,95,-93,27,-13,22,-124,5,-21, 
  /* [3][0][][] */ 70,-18,-62,33,75,-81,3,-119,-16,-7,-44,-82,-33,127,-15,23,-36,-23,-64,-61,17,77,-9,-59,104,27,63,-69,28,-85,57,-65,43,57,93,-72,-44,4,-24,40,14,70,-58,23,-13,28,13,27, 
  /* [4][0][][] */ -71,30,-49,82,105,-35,30,-42,-54,-10,-67,36,-38,-11,8,-57,11,61,-22,-40,-39,36,-75,-55,10,-11,19,-29,31,-38,-28,71,-8,84,-63,-72,-60,-55,-32,0,78,-40,127,23,10,80,-66,-58, 
  /* [5][0][][] */ 47,4,95,-1,1,27,61,42,127,-9,63,1,86,60,22,-64,-9,41,43,-41,-51,-79,13,52,16,-13,21,49,-43,-33,17,-16,-17,60,-18,71,59,7,-28,-45,-4,87,38,45,-13,-17,67,6, 
  /* [6][0][][] */ -1,-52,-11,19,34,-7,-9,2,-29,-13,113,61,75,72,-24,57,112,-127,-23,-16,-18,-28,-92,23,-63,71,-21,-13,-13,-38,66,-53,94,23,-81,-32,-45,-9,51,9,68,-71,3,-68,-113,43,-18,15, 
  /* [7][0][][] */ 0,-13,-59,-36,17,99,-1,2,-8,-58,-127,-98,53,49,-63,-56,-42,20,102,21,-16,-65,57,-11,119,-24,-81,89,-44,-9,-8,-89,-49,66,50,125,83,-57,-17,-39,-30,-15,37,-18,0,-16,12,-48, 
};
const TfArray<8, float> quant27_scale = { 8, { 0.0052256411872804165, 0.0062924781814217567, 0.005635993555188179, 0.0084280706942081451, 0.0049386098980903625, 0.005971892736852169, 0.0029452827293425798, 0.0044045704416930676, } };
const TfLiteAffineQuantization quant27 = { (TfLiteFloatArray*)&quant27_scale, (TfLiteIntArray*)&g0::quant8_zero, 0 };
const MODEL_SECTION(EI_MODEL_SECTION) ALIGN(16) int32_t tensor_data28[48] = { -1122, 199, 2202, -285, 20, 8018, -644, -3654, -5124, -185, -8471, 40, -4921, -6527, 2259, -1473, -9526, 12300, -3124, -1413, 146, -869, -1093, 1902, 16664, -447, -784, -1638, 1361, 408, -624, -9086, -868, 9613, 1501, 6345, -549, -3830, 78, 299, -2921, -753, 4115, 3338, 1079, 6848, -1529, -522, };
const TfArray<48, float> quant28_scale = { 48, { 0.00030374154448509216, 0.00012311874888837337, 0.00050034007290378213, 0.00018087832722812891, 0.00020356528693810105, 0.00027635259903036058, 0.00025500886840745807, 0.00017357613251078874, 0.00031183040118776262, 0.00016084697563201189, 0.00033370946766808629, 0.0002062110579572618, 0.00010599975212244317, 0.00014686252688989043, 0.0001123240144806914, 0.00034054738353006542, 0.00021071848459541798, 0.00011157536209793761, 0.00015330490714404732, 0.00043512630509212613, 0.00018331731553189456, 0.00032108105369843543, 0.00018733051547314972, 0.00063623499590903521, 0.00020337142632342875, 0.00029347685631364584, 0.00018836119852494448, 0.00017239706357941031, 0.00016507940017618239, 0.0001592643529875204, 0.00036093458766117692, 0.00055234925821423531, 0.00037622079253196716, 0.00013871064584236592, 0.0004525384574662894, 0.0002058901300188154, 0.00018463420565240085, 0.00010824868513736874, 0.00037006492493674159, 0.00069996394449844956, 0.00022640866518486291, 0.00062443071510642767, 0.00045700819464400411, 0.00017821055371314287, 0.00021443232253659517, 0.00012895544932689518, 0.00023648004571441561, 0.00020633779058698565, } };
const TfLiteAffineQuantization quant28 = { (TfLiteFloatArray*)&quant28_scale, (TfLiteIntArray*)&g0::quant6_zero, 0 };
const MODEL_SECTION(EI_MODEL_SECTION) ALIGN(16) int8_t tensor_data29[1*3*3*48] = { 
  /* [0][0][][] */ -11,-31,33,-21,127,-9,4,-24,-38,42,3,16,73,36,127,-30,17,-12,-44,-13,-38,-18,-74,20,-127,46,36,-52,-38,29,-6,4,-33,37,13,4,88,34,24,-9,86,21,-15,6,-102,-15,-27,-46, 4,-85,-83,-12,-49,-1,49,1,11,-3,62,127,0,73,-85,127,20,-41,49,-44,-93,-127,-72,70,-127,-80,21,112,-1,45,127,13,-127,-59,-55,39,127,-114,103,11,50,-8,-27,-13,-55,-20,76,-10, 16,-2,-14,127,49,8,-69,-20,-31,-38,-14,-20,74,4,-87,-38,40,26,-4,-6,-10,5,-21,7,-46,-68,-27,26,-14,35,-99,-7,8,84,13,18,6,47,-127,8,15,-5,-8,20,-127,-3,-53,28, 
  /* [0][1][][] */ -115,-64,127,-2,-34,-46,89,31,26,110,19,22,78,16,103,33,7,-127,107,35,86,-7,37,-42,-12,-12,41,-51,16,44,49,66,44,-84,-2,127,9,46,-46,-119,31,97,-15,-79,20,-70,-41,4, 127,-61,-74,-49,4,-127,127,127,127,16,127,-49,-127,17,-53,-34,127,-69,127,127,127,90,127,-127,-2,-22,104,-17,127,127,-116,127,35,-78,127,-100,-68,127,-93,121,-127,-127,127,-127,101,-127,127,-127, -6,-107,20,78,-18,-2,-46,12,-11,-127,-25,58,95,6,-66,45,32,15,-21,22,-13,-19,46,-29,7,2,-127,65,-88,0,75,21,-22,-63,-24,-45,61,4,117,8,17,57,-39,6,57,-19,-54,104, 
  /* [0][2][][] */ -8,124,25,-28,92,12,-44,-6,-28,15,-1,4,62,8,80,11,-37,-23,-11,-38,-21,12,-11,8,-20,-10,35,-1,-73,-117,-1,0,4,4,-25,44,-54,69,10,105,6,14,-4,23,9,9,-3,-50, 4,104,-52,26,44,-17,-8,46,22,9,25,-39,36,127,-104,-69,-8,-31,75,-63,-64,81,12,48,75,127,-3,127,-87,-114,-13,-9,100,-127,-94,7,-68,-19,-24,-127,38,-26,-61,98,38,28,17,-4, 24,127,-14,37,30,23,-61,4,-26,-19,0,-4,49,-4,-93,0,-8,14,-72,-15,-18,5,10,-4,-31,27,-47,23,42,-82,8,3,-2,7,-5,-13,-42,78,13,-4,-39,-9,0,-7,1,11,-8,19, 
};
const TfArray<48, float> quant29_scale = { 48, { 0.012909015640616417, 0.0052325469441711903, 0.021264452487230301, 0.0076873288489878178, 0.0086515247821807861, 0.011744985356926918, 0.010837877169251442, 0.0073769856244325638, 0.013252791948616505, 0.0068359961733222008, 0.014182652346789837, 0.0087639698758721352, 0.0045049893669784069, 0.006241657305508852, 0.0047737704589962959, 0.014473264105618, 0.0089555354788899422, 0.0047419527545571327, 0.0065154582262039185, 0.018492868170142174, 0.0077909859828650951, 0.013645945116877556, 0.007961547002196312, 0.027039987966418266, 0.008643285371363163, 0.012472766451537609, 0.0080053508281707764, 0.0073268748819828033, 0.0070158746093511581, 0.0067687351256608963, 0.01533972006291151, 0.023474844172596931, 0.015989383682608604, 0.0058952020481228828, 0.019232884049415588, 0.0087503306567668915, 0.007846953347325325, 0.0046005691401660442, 0.015727758407592773, 0.029748465865850449, 0.0096223680302500725, 0.02653830498456955, 0.019422847777605057, 0.0075739482417702675, 0.0091133732348680496, 0.0054806065745651722, 0.010050402022898197, 0.0087693557143211365, } };
const TfLiteAffineQuantization quant29 = { (TfLiteFloatArray*)&quant29_scale, (TfLiteIntArray*)&g0::quant6_zero, 3 };
const MODEL_SECTION(EI_MODEL_SECTION) ALIGN(16) int32_t tensor_data30[48] = { 9330, 3119, 75700, -2521, -2162, 12316, -1661, 1751, 5082, 302, 9637, 731, 5178, 8245, 5612, 5670, 5485, 4784, -740, 6929, 2533, 866, 1937, 27265, 29949, 7776, 7054, -1375, 178, 9445, 10334, 18965, 12985, 6846, 8007, -1038, 1548, 4445, 10458, 12059, 1353, 18937, 16052, 5077, 10803, 3249, 5135, 1887, };
const TfArray<48, float> quant30_scale = { 48, { 9.2736896476708353e-05, 0.00015052614617161453, 1.7568661860423163e-05, 0.00019356720440555364, 0.00019636179786175489, 8.5008192399982363e-05, 0.00011916398216271773, 0.00027057740953750908, 0.00014039351663086563, 0.00018701064982451499, 8.1433492596261203e-05, 0.00020478319493122399, 0.00010225727601209655, 9.7787982667796314e-05, 0.00010262183786835521, 0.00012689383584074676, 9.6548741566948593e-05, 0.00011087062739534304, 0.00026687586796469986, 0.0001119342414312996, 0.00016289074847009033, 0.00014785636449232697, 0.00014232365356292576, 3.7882760807406157e-05, 4.981137317372486e-05, 0.00011566297325771302, 0.00011080354306614026, 0.00021779500821139663, 0.00028943497454747558, 8.7555890786461532e-05, 8.3481936599127948e-05, 5.3391991968965158e-05, 7.2089213063009083e-05, 0.00011792325676651672, 0.00011062676639994606, 0.00012211610737722367, 0.00013923285587225109, 0.00011877918586833403, 8.1846752436831594e-05, 7.3344999691471457e-05, 0.00011890755558852106, 5.3902673244010657e-05, 6.515044515253976e-05, 0.00014833372551947832, 8.6601292423438281e-05, 0.00017641788872424513, 0.00014828622806817293, 0.00014957740495447069, } };
const TfLiteAffineQuantization quant30 = { (TfLiteFloatArray*)&quant30_scale, (TfLiteIntArray*)&g0::quant6_zero, 0 };
const MODEL_SECTION(EI_MODEL_SECTION) ALIGN(16) int8_t tensor_data31[48*1*1*8] = { 
  /* [0][0][][] */ -6,3,0,-127,-72,17,15,123, 
  /* [1][0][][] */ 94,-7,-7,9,-61,27,127,20, 
  /* [2][0][][] */ -10,127,-34,-30,-36,97,-65,-125, 
  /* [3][0][][] */ 60,-78,-108,110,-127,-27,15,-45, 
  /* [4][0][][] */ 33,-47,34,-23,-127,5,55,14, 
  /* [5][0][][] */ -10,61,-22,-102,-127,3,-26,4, 
  /* [6][0][][] */ 48,-20,20,29,121,-32,-14,-127, 
  /* [7][0][][] */ 19,26,29,127,25,-14,-10,27, 
  /* [8][0][][] */ 18,32,9,-47,36,127,6,-26, 
  /* [9][0][][] */ 127,13,-35,15,-43,-33,106,55, 
  /* [10][0][][] */ 2,66,-63,-30,5,127,81,-56, 
  /* [11][0][][] */ -18,-36,-127,80,-52,28,-18,69, 
  /* [12][0][][] */ -111,-91,53,60,33,-127,-49,16, 
  /* [13][0][][] */ 40,40,41,52,-54,127,22,-47, 
  /* [14][0][][] */ -8,-97,-5,6,-70,-74,-127,113, 
  /* [15][0][][] */ -71,23,5,12,99,-19,-127,-32, 
  /* [16][0][][] */ 77,93,-85,-127,54,115,106,45, 
  /* [17][0][][] */ -122,127,-107,28,-5,-24,24,-105, 
  /* [18][0][][] */ 32,-8,-74,127,-3,-44,-45,-51, 
  /* [19][0][][] */ 96,22,12,46,-66,6,127,42, 
  /* [20][0][][] */ 26,-70,-87,127,44,-26,-28,-51, 
  /* [21][0][][] */ 23,54,127,-112,55,-18,32,-120, 
  /* [22][0][][] */ -91,-59,-121,67,-24,43,0,127, 
  /* [23][0][][] */ 83,41,26,35,-127,106,59,-34, 
  /* [24][0][][] */ -9,11,-127,66,-29,31,48,56, 
  /* [25][0][][] */ 35,-32,-64,127,31,-8,-33,4, 
  /* [26][0][][] */ -90,34,127,-105,-25,40,49,-4, 
  /* [27][0][][] */ -58,68,127,0,24,-17,63,15, 
  /* [28][0][][] */ -67,-76,48,-127,-32,18,6,-27, 
  /* [29][0][][] */ -72,-81,-18,64,-7,-127,-13,42, 
  /* [30][0][][] */ -127,59,119,-19,44,45,85,27, 
  /* [31][0][][] */ -57,50,79,-127,-50,16,38,56, 
  /* [32][0][][] */ -72,65,105,-98,25,-6,15,127, 
  /* [33][0][][] */ 4,99,-34,44,30,16,-127,-20, 
  /* [34][0][][] */ 71,20,127,-100,-94,-85,40,-52, 
  /* [35][0][][] */ 92,-3,33,96,94,-73,11,-127, 
  /* [36][0][][] */ 27,65,109,-127,39,-19,31,-123, 
  /* [37][0][][] */ -62,-42,91,48,9,-127,95,-11, 
  /* [38][0][][] */ 112,5,74,37,-34,-51,127,12, 
  /* [39][0][][] */ 51,-99,-33,3,-127,3,82,84, 
  /* [40][0][][] */ -62,34,-115,117,-65,51,-60,127, 
  /* [41][0][][] */ -94,-5,-66,-4,127,8,-85,-2, 
  /* [42][0][][] */ -97,85,-44,-49,127,45,-105,-70, 
  /* [43][0][][] */ 103,111,-37,127,1,-88,39,89, 
  /* [44][0][][] */ -6,28,77,8,36,-127,25,-27, 
  /* [45][0][][] */ -13,-74,127,80,-26,-24,-121,21, 
  /* [46][0][][] */ 23,-127,-104,56,-74,25,3,-7, 
  /* [47][0][][] */ -126,-23,37,-4,101,52,-127,-45, 
};
const TfArray<48, float> quant31_scale = { 48, { 0.0027997512370347977, 0.0045444238930940628, 0.00053040252532809973, 0.0058438447304069996, 0.0059282141737639904, 0.0025664197746664286, 0.0035975920036435127, 0.0081688035279512405, 0.0042385170236229897, 0.0056459004990756512, 0.0024584985803812742, 0.0061824587173759937, 0.0030871741473674774, 0.0029522448312491179, 0.0030981802847236395, 0.0038309583906084299, 0.0029148319736123085, 0.0033472133800387383, 0.00805705226957798, 0.0033793242182582617, 0.0049177147448062897, 0.0044638225808739662, 0.0042967884801328182, 0.0011436905479058623, 0.0015038184355944395, 0.0034918955061584711, 0.0033451882191002369, 0.0065752887167036533, 0.0087381182238459587, 0.0026433353777974844, 0.0025203416589647532, 0.0016119183273985982, 0.0021763923577964306, 0.0035601342096924782, 0.0033398512750864029, 0.0036867172457277775, 0.0042034764774143696, 0.0035859749186784029, 0.0024709750432521105, 0.0022143048699945211, 0.0035898503847420216, 0.0016273359069600701, 0.0019669090397655964, 0.0044782343320548534, 0.0026145158335566521, 0.0053261024877429008, 0.0044768000952899456, 0.0045157810673117638, } };
const TfLiteAffineQuantization quant31 = { (TfLiteFloatArray*)&quant31_scale, (TfLiteIntArray*)&g0::quant6_zero, 0 };
const MODEL_SECTION(EI_MODEL_SECTION) ALIGN(16) int32_t tensor_data32[8] = { -11772, 784, -16056, 106, 2299, -4143, 12721, 986, };
const TfArray<8, float> quant32_scale = { 8, { 0.00013213770580478013, 0.00012011009675916284, 8.4633800724986941e-05, 6.156059680506587e-05, 0.00014798398478887975, 0.00012547468941193074, 0.00013355427654460073, 0.00011522664135554805, } };
const TfLiteAffineQuantization quant32 = { (TfLiteFloatArray*)&quant32_scale, (TfLiteIntArray*)&g0::quant8_zero, 0 };
const MODEL_SECTION(EI_MODEL_SECTION) ALIGN(16) int8_t tensor_data33[8*1*1*48] = { 
  /* [0][0][][] */ 41,118,-34,72,-2,-7,-31,18,55,-68,4,-28,11,5,-32,-45,7,-18,38,21,-64,-34,-33,6,27,17,19,-1,20,19,-25,30,-69,12,105,-127,-25,18,-11,115,-37,9,12,-3,-10,45,21,-45, 
  /* [1][0][][] */ 1,-48,33,57,-7,-6,-15,-27,47,-45,90,37,15,14,-42,-74,127,41,16,15,-70,26,29,-1,-50,-97,-29,-53,-16,-62,36,-38,-7,-24,-27,8,2,-16,76,-51,-18,33,-54,35,75,58,18,43, 
  /* [2][0][][] */ 74,-27,-1,-21,109,110,57,75,-40,-10,0,-32,-2,41,53,40,-21,-31,66,-75,-45,-53,-48,58,-89,-92,109,21,67,-73,-66,6,-127,74,111,14,-8,-7,-11,19,34,64,31,-56,-19,27,65,-44, 
  /* [3][0][][] */ 64,-22,22,-14,115,127,35,43,-28,-16,35,42,-102,46,71,25,8,8,64,-88,-75,14,26,68,1,-40,58,19,36,-44,-7,2,-115,58,-61,-114,13,-32,56,-54,42,-81,-105,-39,-55,27,-24,52, 
  /* [4][0][][] */ 43,42,-35,-35,-12,-4,-18,-20,11,-4,-3,-10,-38,-19,65,42,-47,-13,-37,42,37,-7,-13,0,-56,-39,2,49,-16,5,-14,24,-26,-8,28,-127,-10,33,12,52,16,-12,-10,-19,39,-3,85,-17, 
  /* [5][0][][] */ 75,57,-102,61,-1,10,-8,24,-82,-65,-63,-11,26,22,41,21,37,-66,49,127,-77,-46,-52,56,27,-15,-34,71,31,23,-44,6,-2,3,-58,4,-1,21,-19,71,23,80,-9,-39,122,27,17,-57, 
  /* [6][0][][] */ -31,-77,18,-49,-40,-52,-85,-75,-38,-59,-125,38,-56,-54,92,97,-127,7,27,-23,10,55,70,20,-12,-3,-75,95,-80,-34,46,80,16,-60,91,41,30,44,-12,-84,-16,-63,-28,20,-46,-17,-6,66, 
  /* [7][0][][] */ 73,17,-14,39,23,12,5,3,84,-6,-18,-29,63,2,-14,-24,-58,-2,-22,-8,-1,-16,-22,-19,81,-127,23,-1,2,106,-18,21,-75,18,-64,-46,-14,23,24,24,27,64,-40,-20,-40,33,33,-21, 
};
const TfArray<8, float> quant33_scale = { 8, { 0.0056158523075282574, 0.0051046791486442089, 0.0035969363525509834, 0.0026163251604884863, 0.006289319135248661, 0.005332674365490675, 0.0056760567240417004, 0.0048971320502460003, } };
const TfLiteAffineQuantization quant33 = { (TfLiteFloatArray*)&quant33_scale, (TfLiteIntArray*)&g0::quant8_zero, 0 };
const MODEL_SECTION(EI_MODEL_SECTION) ALIGN(16) int32_t tensor_data34[48] = { -186, 9474, 691, -1528, 3196, 1405, 10996, 8145, 583, -13017, -1198, 2416, 5118, 5091, 22622, 13613, -263, -2931, 256, 8040, 20495, 906, -606, 369, 3453, 414, 3750, 19523, 6223, 13129, 97, 1795, -3255, -4778, 5974, 175, -451, -110, 766, 4097, 2739, 4832, -6644, 984, -2149, -1016, 11489, -113, };
const TfArray<48, float> quant34_scale = { 48, { 0.00010360189480707049, 0.0001347572251688689, 0.00047050780267454684, 8.7002554209902883e-05, 0.00046839527203701437, 0.0008399115176871419, 0.00010857312736334279, 0.00014294631546363235, 6.8477951572276652e-05, 0.00012841234274674207, 0.00040180466021411121, 0.00028181227389723063, 0.00023463756951969117, 0.0001717252453090623, 6.5332089434377849e-05, 6.9566332967951894e-05, 0.00011670742242131382, 0.00042676422162912786, 6.4862877479754388e-05, 9.6750292868819088e-05, 6.7440523707773536e-05, 0.00080556416651234031, 0.0016364769544452429, 0.00019215224892832339, 6.2504645029548556e-05, 0.00012536821304820478, 9.694500477053225e-05, 0.00011302725033601746, 0.00016648316523060203, 0.00014288868987932801, 0.00046315728104673326, 0.00031432230025529861, 9.5485724159516394e-05, 0.00021548006043303758, 5.892601257073693e-05, 8.4310100646689534e-05, 0.00037524613435380161, 0.0001647777680773288, 9.895736729959026e-05, 0.00022250435722526163, 0.00013417088484857231, 0.00020870257867500186, 0.00011844906111946329, 0.00037926496588625014, 7.9534889664500952e-05, 0.00023678822617512196, 7.7795899414923042e-05, 0.00087706884369254112, } };
const TfLiteAffineQuantization quant34 = { (TfLiteFloatArray*)&quant34_scale, (TfLiteIntArray*)&g0::quant6_zero, 0 };
const MODEL_SECTION(EI_MODEL_SECTION) ALIGN(16) int8_t tensor_data35[1*3*3*48] = { 
  /* [0][0][][] */ -13,-85,-94,62,-90,1,-78,-85,80,60,73,-49,14,5,-82,-75,89,-87,54,-30,-33,-107,-34,-80,94,75,8,-127,2,-48,65,68,51,64,75,17,86,76,30,6,-119,-7,32,46,-25,52,-28,-84, 100,-11,30,75,-127,37,-48,10,127,112,100,47,-3,-66,-125,-104,101,-31,121,-58,-96,123,127,32,127,52,54,-93,-69,-45,-108,108,101,127,113,94,-22,63,64,-59,-78,-76,26,-58,-39,36,-54,96, 119,2,42,49,-83,6,-40,-21,49,126,-16,-42,-69,-10,-45,-40,33,75,56,-3,-64,-29,-88,51,47,14,25,-23,-4,-38,24,36,43,84,9,70,4,21,32,-2,-41,-15,13,10,-5,17,-24,3, 
  /* [0][1][][] */ 24,-127,111,99,74,-74,-127,-127,86,109,119,-54,18,-6,-115,-73,105,127,53,-118,-55,108,33,-127,127,127,98,-124,2,-127,-72,90,106,6,113,48,30,106,62,-5,-18,-22,68,93,-112,127,-124,101, 127,-13,16,127,102,-127,-101,7,102,127,127,43,-25,-127,-127,-127,127,68,127,-127,-127,-127,-101,46,96,95,127,-118,-127,-113,127,127,127,13,127,127,-4,127,127,-127,15,-127,104,-79,-127,94,-127,-127, 111,3,-127,78,71,-64,-66,-17,17,68,17,-29,-127,-19,-37,-13,49,-86,71,-41,-68,3,77,58,65,47,10,-50,-8,-56,-33,30,37,-2,25,82,5,53,48,2,-15,-16,20,-6,-76,83,-55,9, 
  /* [0][2][][] */ 58,-76,13,17,0,61,-68,-83,31,58,53,48,23,1,-28,-12,46,-31,37,-71,-29,-1,14,-87,35,41,61,-65,6,-102,8,5,83,-71,56,15,-127,31,14,-7,18,0,93,-127,-52,44,-52,-6, 35,0,15,58,7,85,-35,-3,16,100,60,-127,-1,-67,-27,-25,53,-2,20,-111,-31,-15,-24,21,7,23,73,-50,-77,-93,-34,11,84,-77,49,34,24,12,56,-42,127,-51,127,93,-83,62,-97,16, -29,7,-11,27,-23,32,-38,-11,2,62,-10,25,-49,-16,-52,11,22,29,40,-27,-42,16,16,18,9,28,23,-21,9,-16,11,-15,15,-47,2,28,9,-18,19,21,59,-8,34,-13,-10,10,-17,-2, 
};
const TfArray<48, float> quant35_scale = { 48, { 0.0044030803255736828, 0.0057271821424365044, 0.019996581599116325, 0.0036976085975766182, 0.019906798377633095, 0.035696238279342651, 0.0046143578365445137, 0.0060752183198928833, 0.0029103129636496305, 0.0054575246758759022, 0.017076697200536728, 0.011977021582424641, 0.0099720964208245277, 0.0072983228601515293, 0.0027766136918216944, 0.0029565689619630575, 0.0049600652419030666, 0.018137479200959206, 0.0027566722128540277, 0.0041118874214589596, 0.0028662222903221846, 0.034236475825309753, 0.069550268352031708, 0.0081664705649018288, 0.0026564472354948521, 0.0053281490691006184, 0.0041201626881957054, 0.0048036579973995686, 0.0070755342021584511, 0.0060727694071829319, 0.019684184342622757, 0.013358697295188904, 0.0040581431239843369, 0.0091579025611281395, 0.0025043555069714785, 0.0035831790883094072, 0.015947960317134857, 0.0070030549541115761, 0.004205687902867794, 0.0094564352184534073, 0.0057022622786462307, 0.0088698593899607658, 0.0050340848974883556, 0.016118761152029037, 0.0033802327234297991, 0.010063499212265015, 0.0033063255250453949, 0.037275426089763641, } };
const TfLiteAffineQuantization quant35 = { (TfLiteFloatArray*)&quant35_scale, (TfLiteIntArray*)&g0::quant6_zero, 3 };
const MODEL_SECTION(EI_MODEL_SECTION) ALIGN(16) int32_t tensor_data36[48] = { 14048, 6111, 25770, 1425, 4750, 4269, -5415, 5431, 2925, -3198, -2368, 7221, -4185, -6277, 9340, 1066, -2521, 3879, -1906, 3755, -388, 5133, 4282, -4289, -1005, -6240, 2931, -6039, 4836, 9223, 1446, -71, 10187, 13120, 9165, 6710, 7649, -6354, 567, 6127, -391, -5622, 5363, 1563, 553, -8745, -14670, 3685, };
const TfArray<48, float> quant36_scale = { 48, { 0.0003318935923743993, 0.00045101507566869259, 5.0648166507016867e-05, 0.00063101440900936723, 0.00046888398355804384, 0.00053921667858958244, 0.0012637169566005468, 0.0008511408232152462, 0.00084668851923197508, 0.00048127031186595559, 0.00012313196202740073, 0.00034254041383974254, 0.00036569091025739908, 0.00077583349775522947, 0.00046052865218371153, 0.0011519392719492316, 0.00079436454689130187, 0.00023405882529914379, 0.00092467828653752804, 0.0012797896051779389, 0.00053358543664216995, 0.00039698631735518575, 8.1419661000836641e-05, 0.00037515076110139489, 0.00088653800776228309, 0.00064102356554940343, 0.00072089373134076595, 0.00039902699063532054, 0.0007468335097655654, 0.00050277262926101685, 0.00020175741519778967, 0.00043990087579004467, 0.00059259153204038739, 0.00025678737438283861, 0.00036833054036833346, 0.0002822421956807375, 0.00038136419607326388, 0.0011849955189973116, 0.00040910913958214223, 0.00046861250302754343, 0.00094469869509339333, 0.00051107740728184581, 0.00056587147992104292, 0.00016864997451193631, 0.00097602076129987836, 0.00054817856289446354, 0.00050105323316529393, 0.00028736976673826575, } };
const TfLiteAffineQuantization quant36 = { (TfLiteFloatArray*)&quant36_scale, (TfLiteIntArray*)&g0::quant6_zero, 0 };
const MODEL_SECTION(EI_MODEL_SECTION) ALIGN(16) int8_t tensor_data37[48*1*1*8] = { 
  /* [0][0][][] */ -104,-92,23,-127,-58,-3,-8,-3, 
  /* [1][0][][] */ -127,-4,93,-3,-54,21,5,20, 
  /* [2][0][][] */ 9,-3,21,127,23,-17,-11,-8, 
  /* [3][0][][] */ -89,-55,-29,-5,45,127,-40,-37, 
  /* [4][0][][] */ -6,-38,-13,-3,-6,14,-127,-74, 
  /* [5][0][][] */ -6,-39,-9,-4,-11,19,-127,-83, 
  /* [6][0][][] */ 127,7,16,-12,-58,14,3,-9, 
  /* [7][0][][] */ -127,-22,-12,4,61,12,3,6, 
  /* [8][0][][] */ 24,52,-13,-11,-29,-127,46,13, 
  /* [9][0][][] */ 73,20,-15,-8,-22,-3,-5,127, 
  /* [10][0][][] */ 112,-20,-123,-6,-87,-10,42,127, 
  /* [11][0][][] */ -127,112,18,-47,89,-80,14,19, 
  /* [12][0][][] */ 127,-29,-105,17,48,-6,-12,-17, 
  /* [13][0][][] */ 127,11,8,-7,-22,21,4,-9, 
  /* [14][0][][] */ -127,-76,99,-12,51,0,-42,-104, 
  /* [15][0][][] */ 35,89,10,10,-11,-127,-23,9, 
  /* [16][0][][] */ -12,-64,9,6,10,127,10,7, 
  /* [17][0][][] */ 35,-127,-73,-20,-33,121,-55,-24, 
  /* [18][0][][] */ 35,-27,-7,-15,-24,25,127,-9, 
  /* [19][0][][] */ -5,24,0,-127,-10,38,-1,-11, 
  /* [20][0][][] */ -76,-31,64,16,68,115,1,-127, 
  /* [21][0][][] */ -16,-15,36,-29,-18,16,-127,-75, 
  /* [22][0][][] */ 75,-25,13,127,-27,-20,52,48, 
  /* [23][0][][] */ 127,3,-107,-7,29,-25,20,0, 
  /* [24][0][][] */ -37,27,24,42,5,11,-127,-80, 
  /* [25][0][][] */ 127,5,-80,13,13,-9,5,27, 
  /* [26][0][][] */ 2,55,-32,-127,-26,25,2,0, 
  /* [27][0][][] */ 127,20,-99,5,-94,52,24,71, 
  /* [28][0][][] */ -127,-19,-23,20,50,11,-4,31, 
  /* [29][0][][] */ -5,-127,-22,-110,-10,34,-18,-14, 
  /* [30][0][][] */ 2,99,116,28,51,-127,126,23, 
  /* [31][0][][] */ -73,4,-127,49,1,-20,100,86, 
  /* [32][0][][] */ -8,-125,5,-127,-16,8,-8,-18, 
  /* [33][0][][] */ 7,-111,-7,-127,1,1,-2,-17, 
  /* [34][0][][] */ -21,-60,36,-83,40,-46,127,70, 
  /* [35][0][][] */ -127,2,69,3,-127,-29,32,104, 
  /* [36][0][][] */ -126,7,127,-7,-51,18,-43,51, 
  /* [37][0][][] */ 127,14,-4,-1,-68,19,1,12, 
  /* [38][0][][] */ -75,9,93,46,71,-57,51,127, 
  /* [39][0][][] */ -127,-4,70,-1,-68,11,-8,13, 
  /* [40][0][][] */ -2,24,39,-22,25,-16,127,40, 
  /* [41][0][][] */ 127,-13,-74,5,52,7,3,-1, 
  /* [42][0][][] */ -11,-127,37,-10,20,4,-3,-23, 
  /* [43][0][][] */ 19,101,127,2,56,-81,72,7, 
  /* [44][0][][] */ 6,-8,-1,110,5,-127,2,-1, 
  /* [45][0][][] */ 127,-35,37,1,-66,110,9,3, 
  /* [46][0][][] */ 6,127,-7,97,-7,126,21,40, 
  /* [47][0][][] */ -4,31,11,-33,32,-39,127,66, 
};
const TfArray<48, float> quant37_scale = { 48, { 0.0054824789986014366, 0.0074502211064100266, 0.0008366461843252182, 0.010423591360449791, 0.0077453935518860817, 0.0089072044938802719, 0.020875068381428719, 0.01405981183052063, 0.013986265286803246, 0.0079500004649162292, 0.0020339903421700001, 0.0056583513505756855, 0.0060407696291804314, 0.012815826572477818, 0.0076073738746345043, 0.019028637558221817, 0.013121937401592731, 0.0038663672748953104, 0.015274561941623688, 0.021140569821000099, 0.0088141830638051033, 0.0065577314235270023, 0.0013449538964778185, 0.0061970348469913006, 0.014644530601799488, 0.010588929988443851, 0.011908288113772869, 0.0065914411097764969, 0.012336782179772854, 0.0083051929250359535, 0.0033327874261885881, 0.0072666280902922153, 0.0097888922318816185, 0.0042418153025209904, 0.0060843727551400661, 0.0046622981317341328, 0.0062996731139719486, 0.019574685022234917, 0.0067579858005046844, 0.0077409092336893082, 0.015605274587869644, 0.0084423776715993881, 0.0093475095927715302, 0.002785892691463232, 0.016122676432132721, 0.0090552438050508499, 0.0082767903804779053, 0.0047469991259276867, } };
const TfLiteAffineQuantization quant37 = { (TfLiteFloatArray*)&quant37_scale, (TfLiteIntArray*)&g0::quant6_zero, 0 };
const MODEL_SECTION(EI_MODEL_SECTION) ALIGN(16) int32_t tensor_data38[8] = { 4502, -5219, -533, 3997, 1808, 801, -3796, 3568, };
const TfArray<8, float> quant38_scale = { 8, { 8.664416236570105e-05, 0.00015389949840027839, 8.8432367192581296e-05, 5.6680753914406523e-05, 0.00013949871936347336, 0.00019667891319841146, 0.00011847852874780074, 0.00019886976224370301, } };
const TfLiteAffineQuantization quant38 = { (TfLiteFloatArray*)&quant38_scale, (TfLiteIntArray*)&g0::quant8_zero, 0 };
const MODEL_SECTION(EI_MODEL_SECTION) ALIGN(16) int8_t tensor_data39[8*1*1*8] = { 
  /* [0][0][][] */ -21,-2,-56,-44,-24,46,-127,-5, 
  /* [1][0][][] */ 24,93,-5,127,9,-1,-9,-30, 
  /* [2][0][][] */ 127,-9,-27,-56,-74,48,99,-57, 
  /* [3][0][][] */ 5,-127,45,-85,16,-91,23,52, 
  /* [4][0][][] */ 115,-11,-49,-8,29,-3,-127,-48, 
  /* [5][0][][] */ 1,-38,4,39,1,-127,0,7, 
  /* [6][0][][] */ 127,-20,113,-7,118,-22,-11,11, 
  /* [7][0][][] */ -127,1,-97,-11,-92,11,31,2, 
};
const TfArray<4, int> tensor_dimension39 = { 4, { 8,1,1,8 } };
const TfArray<8, float> quant39_scale = { 8, { 0.003682376816868782, 0.0065407287329435349, 0.0037583755329251289, 0.0024089319631457329, 0.0059286952018737793, 0.0083588538691401482, 0.0050353375263512135, 0.0084519647061824799, } };
const TfLiteAffineQuantization quant39 = { (TfLiteFloatArray*)&quant39_scale, (TfLiteIntArray*)&g0::quant8_zero, 0 };
const MODEL_SECTION(EI_MODEL_SECTION) ALIGN(16) int32_t tensor_data40[8] = { -7104, 12322, 438, -8012, -281, -12742, 161, 100, };
const TfArray<8, float> quant40_scale = { 8, { 0.00030407705344259739, 0.00038062900421209633, 0.00023934377531986684, 0.00036660203477367759, 0.00052615138702094555, 0.00038912970921956003, 0.0012204590020701289, 0.0029772429261356592, } };
const TfLiteAffineQuantization quant40 = { (TfLiteFloatArray*)&quant40_scale, (TfLiteIntArray*)&g0::quant8_zero, 0 };
const MODEL_SECTION(EI_MODEL_SECTION) ALIGN(16) int8_t tensor_data41[1*3*3*8] = { 
  /* [0][0][][] */ -7,1,22,10,7,-4,9,32, 4,7,-30,127,-25,0,-4,30, -8,3,-12,18,4,0,-6,24, 
  /* [0][1][][] */ -11,-8,127,-35,127,-6,-111,42, 127,-127,-94,7,-92,127,-15,-127, -34,3,14,-23,4,-3,127,39, 
  /* [0][2][][] */ -5,-5,12,-5,3,-1,18,32, 0,-2,-37,-12,-23,6,-8,-103, -11,-2,-9,-8,-4,1,-4,38, 
};
const TfArray<4, int> tensor_dimension41 = { 4, { 1,3,3,8 } };
const TfArray<8, float> quant41_scale = { 8, { 0.012923275120556355, 0.016176732257008553, 0.010172110050916672, 0.015580586157739162, 0.022361433133482933, 0.016538012772798538, 0.051869507879018784, 0.12653282284736633, } };
const TfLiteAffineQuantization quant41 = { (TfLiteFloatArray*)&quant41_scale, (TfLiteIntArray*)&g0::quant8_zero, 3 };
const MODEL_SECTION(EI_MODEL_SECTION) ALIGN(16) int32_t tensor_data42[8] = { 11955, 7853, -160, 24256, 5129, 9088, 126810, 1531, };
const TfArray<8, float> quant42_scale = { 8, { 0.00020810312707908452, 0.00024368002777919173, 0.00012614103616215289, 9.5396433607675135e-05, 0.00018350699974689633, 0.00025356112746521831, 7.049020041449694e-06, 2.9849472412024625e-05, } };
const TfLiteAffineQuantization quant42 = { (TfLiteFloatArray*)&quant42_scale, (TfLiteIntArray*)&g0::quant8_zero, 0 };
const MODEL_SECTION(EI_MODEL_SECTION) ALIGN(16) int8_t tensor_data43[8*3*3*1] = { 
  /* [0][0][][] */ -56, 51, 9, 
  /* [0][1][][] */ -127, 123, 0, 
  /* [0][2][][] */ -42, 47, 0, 
  /* [1][0][][] */ 58, 127, 35, 
  /* [1][1][][] */ -67, -78, -43, 
  /* [1][2][][] */ 8, -41, 5, 
  /* [2][0][][] */ 31, 28, -46, 
  /* [2][1][][] */ 53, 70, -127, 
  /* [2][2][][] */ 21, 32, -59, 
  /* [3][0][][] */ 44, 55, 22, 
  /* [3][1][][] */ 55, 76, 28, 
  /* [3][2][][] */ -80, -127, -57, 
  /* [4][0][][] */ 3, -54, 46, 
  /* [4][1][][] */ 14, -127, 109, 
  /* [4][2][][] */ 3, -38, 30, 
  /* [5][0][][] */ 2, -56, 0, 
  /* [5][1][][] */ 0, 127, 2, 
  /* [5][2][][] */ 1, -75, 0, 
  /* [6][0][][] */ -20, -79, -2, 
  /* [6][1][][] */ -33, -127, -9, 
  /* [6][2][][] */ -20, -59, -2, 
  /* [7][0][][] */ 40, -127, 36, 
  /* [7][1][][] */ -21, -1, -7, 
  /* [7][2][][] */ -24, 79, -7, 
};
const TfArray<4, int> tensor_dimension43 = { 4, { 8,3,3,1 } };
const TfArray<8, float> quant43_scale = { 8, { 0.15204387903213501, 0.17803700268268585, 0.092160910367965698, 0.069698348641395569, 0.13407351076602936, 0.18525631725788116, 0.0051501407288014889, 0.021808560937643051, } };
const TfLiteAffineQuantization quant43 = { (TfLiteFloatArray*)&quant43_scale, (TfLiteIntArray*)&g0::quant8_zero, 0 };
const TfArray<4, int> tensor_dimension44 = { 4, { 1,24,24,8 } };
const TfArray<1, float> quant44_scale = { 1, { 0.023529412224888802, } };
const TfLiteAffineQuantization quant44 = { (TfLiteFloatArray*)&quant44_scale, (TfLiteIntArray*)&g0::quant0_zero, 0 };
const TfArray<1, float> quant46_scale = { 1, { 0.060537140816450119, } };
const TfArray<1, int> quant46_zero = { 1, { 5 } };
const TfLiteAffineQuantization quant46 = { (TfLiteFloatArray*)&quant46_scale, (TfLiteIntArray*)&quant46_zero, 0 };
const TfArray<4, int> tensor_dimension48 = { 4, { 1,24,24,48 } };
const TfArray<4, int> tensor_dimension49 = { 4, { 1,25,25,48 } };
const TfArray<4, int> tensor_dimension50 = { 4, { 1,12,12,48 } };
const TfArray<4, int> tensor_dimension51 = { 4, { 1,12,12,8 } };
const TfArray<1, float> quant51_scale = { 1, { 0.033123262226581573, } };
const TfArray<1, int> quant51_zero = { 1, { 26 } };
const TfLiteAffineQuantization quant51 = { (TfLiteFloatArray*)&quant51_scale, (TfLiteIntArray*)&quant51_zero, 0 };
const TfArray<1, float> quant53_scale = { 1, { 0.022865522652864456, } };
const TfLiteAffineQuantization quant53 = { (TfLiteFloatArray*)&quant53_scale, (TfLiteIntArray*)&g0::quant0_zero, 0 };
const TfArray<1, float> quant54_scale = { 1, { 0.061981201171875, } };
const TfArray<1, int> quant54_zero = { 1, { 14 } };
const TfLiteAffineQuantization quant54 = { (TfLiteFloatArray*)&quant54_scale, (TfLiteIntArray*)&quant54_zero, 0 };
const TfArray<1, float> quant55_scale = { 1, { 0.057636246085166931, } };
const TfArray<1, int> quant55_zero = { 1, { -2 } };
const TfLiteAffineQuantization quant55 = { (TfLiteFloatArray*)&quant55_scale, (TfLiteIntArray*)&quant55_zero, 0 };
const TfArray<1, float> quant56_scale = { 1, { 0.017613990232348442, } };
const TfLiteAffineQuantization quant56 = { (TfLiteFloatArray*)&quant56_scale, (TfLiteIntArray*)&g0::quant0_zero, 0 };
const TfArray<4, int> tensor_dimension57 = { 4, { 1,13,13,48 } };
const TfArray<4, int> tensor_dimension58 = { 4, { 1,6,6,48 } };
const TfArray<1, float> quant58_scale = { 1, { 0.022428238764405251, } };
const TfLiteAffineQuantization quant58 = { (TfLiteFloatArray*)&quant58_scale, (TfLiteIntArray*)&g0::quant0_zero, 0 };
const TfArray<4, int> tensor_dimension59 = { 4, { 1,6,6,8 } };
const TfArray<1, float> quant59_scale = { 1, { 0.044063333421945572, } };
const TfArray<1, int> quant59_zero = { 1, { 2 } };
const TfLiteAffineQuantization quant59 = { (TfLiteFloatArray*)&quant59_scale, (TfLiteIntArray*)&quant59_zero, 0 };
const TfArray<1, float> quant60_scale = { 1, { 0.017623057588934898, } };
const TfLiteAffineQuantization quant60 = { (TfLiteFloatArray*)&quant60_scale, (TfLiteIntArray*)&g0::quant0_zero, 0 };
const TfArray<1, float> quant61_scale = { 1, { 0.018563637509942055, } };
const TfLiteAffineQuantization quant61 = { (TfLiteFloatArray*)&quant61_scale, (TfLiteIntArray*)&g0::quant0_zero, 0 };
const TfArray<1, float> quant62_scale = { 1, { 0.034513689577579498, } };
const TfLiteAffineQuantization quant62 = { (TfLiteFloatArray*)&quant62_scale, (TfLiteIntArray*)&g0::quant54_zero, 0 };
const TfArray<1, float> quant63_scale = { 1, { 0.059351615607738495, } };
const TfArray<1, int> quant63_zero = { 1, { 19 } };
const TfLiteAffineQuantization quant63 = { (TfLiteFloatArray*)&quant63_scale, (TfLiteIntArray*)&quant63_zero, 0 };
const TfArray<1, float> quant64_scale = { 1, { 0.017701581120491028, } };
const TfLiteAffineQuantization quant64 = { (TfLiteFloatArray*)&quant64_scale, (TfLiteIntArray*)&g0::quant0_zero, 0 };
const TfArray<1, float> quant66_scale = { 1, { 0.033073440194129944, } };
const TfArray<1, int> quant66_zero = { 1, { 3 } };
const TfLiteAffineQuantization quant66 = { (TfLiteFloatArray*)&quant66_scale, (TfLiteIntArray*)&quant66_zero, 0 };
const TfArray<1, float> quant67_scale = { 1, { 0.067641273140907288, } };
const TfArray<1, int> quant67_zero = { 1, { 35 } };
const TfLiteAffineQuantization quant67 = { (TfLiteFloatArray*)&quant67_scale, (TfLiteIntArray*)&quant67_zero, 0 };
const TfArray<1, float> quant68_scale = { 1, { 0.022371316328644753, } };
const TfLiteAffineQuantization quant68 = { (TfLiteFloatArray*)&quant68_scale, (TfLiteIntArray*)&g0::quant0_zero, 0 };
const TfArray<4, int> tensor_dimension69 = { 4, { 1,6,6,32 } };
const TfArray<1, float> quant69_scale = { 1, { 0.031717721372842789, } };
const TfLiteAffineQuantization quant69 = { (TfLiteFloatArray*)&quant69_scale, (TfLiteIntArray*)&g0::quant0_zero, 0 };
const TfArray<4, int> tensor_dimension70 = { 4, { 1,6,6,3 } };
const TfArray<1, float> quant70_scale = { 1, { 0.053082499653100967, } };
const TfArray<1, int> quant70_zero = { 1, { -11 } };
const TfLiteAffineQuantization quant70 = { (TfLiteFloatArray*)&quant70_scale, (TfLiteIntArray*)&quant70_zero, 0 };
const TfArray<1, float> quant71_scale = { 1, { 0.00390625, } };
const TfLiteAffineQuantization quant71 = { (TfLiteFloatArray*)&quant71_scale, (TfLiteIntArray*)&g0::quant0_zero, 0 };
const TfLiteConvParams opdata0 = { kTfLitePaddingSame, 2,2, kTfLiteActRelu6, 1,1 };
const TfArray<3, int> inputs0 = { 3, { 0,43,42 } };
const TfArray<1, int> outputs0 = { 1, { 44 } };
const TfLiteDepthwiseConvParams opdata1 = { kTfLitePaddingSame, 1,1, 1, kTfLiteActRelu6, 1,1 };
const TfArray<3, int> inputs1 = { 3, { 44,41,40 } };
const TfArray<1, int> outputs1 = { 1, { 45 } };
const TfLiteConvParams opdata2 = { kTfLitePaddingSame, 1,1, kTfLiteActNone, 1,1 };
const TfArray<3, int> inputs2 = { 3, { 45,39,38 } };
const TfArray<1, int> outputs2 = { 1, { 46 } };
const TfLiteAddParams opdata3 = { kTfLiteActNone };
const TfArray<2, int> inputs3 = { 2, { 44,46 } };
const TfArray<1, int> outputs3 = { 1, { 47 } };
const TfLiteConvParams opdata4 = { kTfLitePaddingSame, 1,1, kTfLiteActRelu6, 1,1 };
const TfArray<3, int> inputs4 = { 3, { 47,37,36 } };
const TfArray<1, int> outputs4 = { 1, { 48 } };
const TfArray<2, int> inputs5 = { 2, { 48,1 } };
const TfArray<1, int> outputs5 = { 1, { 49 } };
const TfLiteDepthwiseConvParams opdata6 = { kTfLitePaddingValid, 2,2, 1, kTfLiteActRelu6, 1,1 };
const TfArray<3, int> inputs6 = { 3, { 49,35,34 } };
const TfArray<1, int> outputs6 = { 1, { 50 } };
const TfLiteConvParams opdata7 = { kTfLitePaddingSame, 1,1, kTfLiteActNone, 1,1 };
const TfArray<3, int> inputs7 = { 3, { 50,33,32 } };
const TfArray<1, int> outputs7 = { 1, { 51 } };
const TfLiteConvParams opdata8 = { kTfLitePaddingSame, 1,1, kTfLiteActRelu6, 1,1 };
const TfArray<3, int> inputs8 = { 3, { 51,31,30 } };
const TfArray<1, int> outputs8 = { 1, { 52 } };
const TfLiteDepthwiseConvParams opdata9 = { kTfLitePaddingSame, 1,1, 1, kTfLiteActRelu6, 1,1 };
const TfArray<3, int> inputs9 = { 3, { 52,29,28 } };
const TfArray<1, int> outputs9 = { 1, { 53 } };
const TfLiteConvParams opdata10 = { kTfLitePaddingSame, 1,1, kTfLiteActNone, 1,1 };
const TfArray<3, int> inputs10 = { 3, { 53,27,26 } };
const TfArray<1, int> outputs10 = { 1, { 54 } };
const TfLiteAddParams opdata11 = { kTfLiteActNone };
const TfArray<2, int> inputs11 = { 2, { 51,54 } };
const TfArray<1, int> outputs11 = { 1, { 55 } };
const TfLiteConvParams opdata12 = { kTfLitePaddingSame, 1,1, kTfLiteActRelu6, 1,1 };
const TfArray<3, int> inputs12 = { 3, { 55,25,24 } };
const TfArray<1, int> outputs12 = { 1, { 56 } };
const TfArray<2, int> inputs13 = { 2, { 56,1 } };
const TfArray<1, int> outputs13 = { 1, { 57 } };
const TfLiteDepthwiseConvParams opdata14 = { kTfLitePaddingValid, 2,2, 1, kTfLiteActRelu6, 1,1 };
const TfArray<3, int> inputs14 = { 3, { 57,23,22 } };
const TfArray<1, int> outputs14 = { 1, { 58 } };
const TfLiteConvParams opdata15 = { kTfLitePaddingSame, 1,1, kTfLiteActNone, 1,1 };
const TfArray<3, int> inputs15 = { 3, { 58,21,20 } };
const TfArray<1, int> outputs15 = { 1, { 59 } };
const TfLiteConvParams opdata16 = { kTfLitePaddingSame, 1,1, kTfLiteActRelu6, 1,1 };
const TfArray<3, int> inputs16 = { 3, { 59,19,18 } };
const TfArray<1, int> outputs16 = { 1, { 60 } };
const TfLiteDepthwiseConvParams opdata17 = { kTfLitePaddingSame, 1,1, 1, kTfLiteActRelu6, 1,1 };
const TfArray<3, int> inputs17 = { 3, { 60,17,16 } };
const TfArray<1, int> outputs17 = { 1, { 61 } };
const TfLiteConvParams opdata18 = { kTfLitePaddingSame, 1,1, kTfLiteActNone, 1,1 };
const TfArray<3, int> inputs18 = { 3, { 61,15,14 } };
const TfArray<1, int> outputs18 = { 1, { 62 } };
const TfLiteAddParams opdata19 = { kTfLiteActNone };
const TfArray<2, int> inputs19 = { 2, { 59,62 } };
const TfArray<1, int> outputs19 = { 1, { 63 } };
const TfLiteConvParams opdata20 = { kTfLitePaddingSame, 1,1, kTfLiteActRelu6, 1,1 };
const TfArray<3, int> inputs20 = { 3, { 63,13,12 } };
const TfArray<1, int> outputs20 = { 1, { 64 } };
const TfLiteDepthwiseConvParams opdata21 = { kTfLitePaddingSame, 1,1, 1, kTfLiteActRelu6, 1,1 };
const TfArray<3, int> inputs21 = { 3, { 64,11,10 } };
const TfArray<1, int> outputs21 = { 1, { 65 } };
const TfLiteConvParams opdata22 = { kTfLitePaddingSame, 1,1, kTfLiteActNone, 1,1 };
const TfArray<3, int> inputs22 = { 3, { 65,9,8 } };
const TfArray<1, int> outputs22 = { 1, { 66 } };
const TfLiteAddParams opdata23 = { kTfLiteActNone };
const TfArray<2, int> inputs23 = { 2, { 63,66 } };
const TfArray<1, int> outputs23 = { 1, { 67 } };
const TfLiteConvParams opdata24 = { kTfLitePaddingSame, 1,1, kTfLiteActRelu6, 1,1 };
const TfArray<3, int> inputs24 = { 3, { 67,7,6 } };
const TfArray<1, int> outputs24 = { 1, { 68 } };
const TfLiteConvParams opdata25 = { kTfLitePaddingValid, 1,1, kTfLiteActRelu, 1,1 };
const TfArray<3, int> inputs25 = { 3, { 68,5,4 } };
const TfArray<1, int> outputs25 = { 1, { 69 } };
const TfLiteConvParams opdata26 = { kTfLitePaddingValid, 1,1, kTfLiteActNone, 1,1 };
const TfArray<3, int> inputs26 = { 3, { 69,3,2 } };
const TfArray<1, int> outputs26 = { 1, { 70 } };
const TfLiteSoftmaxParams opdata27 = { 1 };
const TfArray<1, int> inputs27 = { 1, { 70 } };
const TfArray<1, int> outputs27 = { 1, { 71 } };
};

TensorInfo_t tensorData[] = {
{ kTfLiteArenaRw, kTfLiteInt8, (int32_t*)(tensor_arena + 0), (TfLiteIntArray*)&g0::tensor_dimension0, 2304, {kTfLiteAffineQuantization, const_cast<void*>(static_cast<const void*>(&g0::quant0))}, },
{ kTfLiteMmapRo, kTfLiteInt32, (int32_t*)g0::tensor_data1, (TfLiteIntArray*)&g0::tensor_dimension1, 32, {kTfLiteNoQuantization, nullptr}, },
{ kTfLiteMmapRo, kTfLiteInt32, (int32_t*)g0::tensor_data2, (TfLiteIntArray*)&g0::tensor_dimension2, 12, {kTfLiteAffineQuantization, const_cast<void*>(static_cast<const void*>(&g0::quant2))}, },
{ kTfLiteMmapRo, kTfLiteInt8, (int32_t*)g0::tensor_data3, (TfLiteIntArray*)&g0::tensor_dimension3, 96, {kTfLiteAffineQuantization, const_cast<void*>(static_cast<const void*>(&g0::quant3))}, },
{ kTfLiteMmapRo, kTfLiteInt32, (int32_t*)g0::tensor_data4, (TfLiteIntArray*)&g0::tensor_dimension4, 128, {kTfLiteAffineQuantization, const_cast<void*>(static_cast<const void*>(&g0::quant4))}, },
{ kTfLiteMmapRo, kTfLiteInt8, (int32_t*)g0::tensor_data5, (TfLiteIntArray*)&g0::tensor_dimension5, 1536, {kTfLiteAffineQuantization, const_cast<void*>(static_cast<const void*>(&g0::quant5))}, },
